-0.9269479210089511 -9.165456907253313 -9.813963394767345 9.620274899835039 7.775491928916928 -6.889284023945206 -1.128045267421939 -5.638908368407396 -0.40624413199139653 -6.190188953445341 -9.241713781684325 -3.179204759672376 -5.311950592652785 -8.437726625237014 -5.061998905389869 -3.767623347944708 -5.254744152044697 -0.35567575946150853 -9.57353179902874 -8.961962231736393 -1.348127962269567 -4.394595306374294 -4.676222990567929 0.7117647448152304 1.7707070363935244 -2.3978192281964494 -2.0051593565550396 -8.982908760769435 -3.203325357618068 8.262321618338184 9.0320867205903 9.181343518997359 -8.082854428646906 9.082331713238315 0.5167675181270841 -5.263422939470916 3.7512655626536535 -6.316981705685092 -2.4848254704209722 -3.297475453006169 9.241078297931484 1.810659774292258 -1.3201559322997412 3.716608329121488 -0.7722904704990103 0.9548713613386628 -3.939351459938858 -0.6255976438455502 2.023047465530256 6.560707721677272 -4.851819044535503 -0.5732599288399669 8.385564721801305 
-0.9269479210089511 -9.165456907253313 -9.735022926901431 9.620274899835039 7.775491928916928 -6.889284023945206 -1.128045267421939 -5.638908368407396 -0.40624413199139653 -6.190188953445341 -9.241713781684325 -3.179204759672376 -5.311950592652785 -5.152982833193105 -5.061998905389869 -9.042333836838361 -5.254744152044697 -0.35567575946150853 -9.57353179902874 -8.961962231736393 -4.116545669566099 -4.394595306374294 -4.676222990567929 0.7117647448152304 -3.162243353222916 -2.3978192281964494 -2.0051593565550396 -6.059228488234483 -3.203325357618068 8.262321618338184 -6.077151058533012 -8.276635767067692 -8.082854428646906 4.382944945259881 0.5167675181270841 1.5403198168221461 -5.697483055381216 -6.316981705685092 -2.4848254704209722 2.9946666295860673 -3.1061801701579235 1.810659774292258 6.3141697330284465 -6.351823638124914 9.131016514829412 -2.131971197341427 -3.939351459938858 -0.6255976438455502 2.023047465530256 6.560707721677272 -4.851819044535503 6.9645345040346385 8.153133026668122 
-0.9269479210089511 2.719741114157543 5.210914434460497 -2.710629213336402 4.130400118132139 -6.889284023945206 -1.128045267421939 -5.638908368407396 -0.40624413199139653 -6.190188953445341 -9.241713781684325 -3.179204759672376 -5.311950592652785 -8.653137695915357 -5.061998905389869 -9.042333836838361 -5.254744152044697 -0.35567575946150853 -9.57353179902874 -8.961962231736393 -1.348127962269567 -4.394595306374294 -4.676222990567929 0.7117647448152304 -3.162243353222916 -2.3978192281964494 -2.0051593565550396 -5.856933939110299 -3.203325357618068 8.262321618338184 0.16119682478520403 -1.1343454869206795 -8.082854428646906 4.382944945259881 0.5167675181270841 -6.274878565540101 -0.7665481062776607 -6.316981705685092 -7.167960660188171 -4.515582524470334 -3.1061801701579235 1.810659774292258 -1.3201559322997412 -6.351823638124914 -8.150090169026761 0.9548713613386628 -4.50444270899289 4.236455360699104 8.127938703402485 6.560707721677272 -4.851819044535503 -0.5732599288399669 8.153133026668122 
-0.9269479210089511 -0.21932447360625318 -9.813963394767345 -2.710629213336402 0.1882397434146359 -6.889284023945206 -1.128045267421939 -5.638908368407396 -0.40624413199139653 -6.190188953445341 -9.241713781684325 -5.416999195440462 -5.311950592652785 -8.653137695915357 -5.061998905389869 -9.042333836838361 -5.254744152044697 -0.35567575946150853 -9.57353179902874 -8.961962231736393 -1.348127962269567 -4.394595306374294 -4.676222990567929 0.7117647448152304 -3.162243353222916 -2.3978192281964494 -2.0051593565550396 -5.856933939110299 -4.451275192582422 8.262321618338184 0.16119682478520403 -1.1343454869206795 6.965389161283255 6.986350418454737 0.5167675181270841 -6.274878565540101 3.7512655626536535 -6.316981705685092 3.584160123135254 -3.297475453006169 -3.1061801701579235 1.810659774292258 -1.3201559322997412 -6.351823638124914 -0.7722904704990103 0.8875613169982781 -3.939351459938858 4.236455360699104 2.023047465530256 6.560707721677272 -4.851819044535503 -0.5732599288399669 9.937839535052035 
-0.9269479210089511 4.185729128303306 -9.813963394767345 -2.710629213336402 7.775491928916928 -6.889284023945206 -1.128045267421939 -5.638908368407396 -0.40624413199139653 -6.190188953445341 -9.241713781684325 -3.179204759672376 -5.311950592652785 -8.653137695915357 -5.061998905389869 -9.042333836838361 -5.254744152044697 -0.35567575946150853 -9.57353179902874 -8.961962231736393 -1.348127962269567 -4.394595306374294 -4.676222990567929 0.7117647448152304 -3.162243353222916 -2.3978192281964494 -2.0051593565550396 -5.856933939110299 -3.203325357618068 8.262321618338184 3.86707502362043 9.181343518997359 -8.082854428646906 9.082331713238315 0.5167675181270841 -6.274878565540101 9.173124888786237 -6.316981705685092 -2.4848254704209722 -3.297475453006169 -3.1061801701579235 1.810659774292258 -1.3201559322997412 3.716608329121488 -0.7722904704990103 0.9548713613386628 -2.5316201165830527 -0.6255976438455502 2.023047465530256 6.560707721677272 -4.851819044535503 -0.5732599288399669 8.153133026668122 
-0.9269479210089511 -9.165456907253313 7.824953340550348 -1.5555588391052044 7.775491928916928 -3.6780793653603983 -1.128045267421939 -5.638908368407396 -0.40624413199139653 -6.190188953445341 -9.241713781684325 -3.179204759672376 -5.311950592652785 -4.604149999631327 -5.061998905389869 -9.042333836838361 -5.254744152044697 -0.35567575946150853 -9.57353179902874 -8.961962231736393 -1.348127962269567 -4.394595306374294 -4.676222990567929 0.7117647448152304 -3.162243353222916 -2.3978192281964494 -2.0051593565550396 -6.059228488234483 -3.203325357618068 8.262321618338184 -6.077151058533012 5.062316518465302 -8.082854428646906 4.382944945259881 0.5167675181270841 -6.274878565540101 -5.697483055381216 -6.316981705685092 3.584160123135254 -3.297475453006169 -3.1061801701579235 1.810659774292258 8.748662333868978 -6.351823638124914 9.131016514829412 -2.131971197341427 -3.939351459938858 -0.6255976438455502 2.023047465530256 6.560707721677272 -4.851819044535503 -0.5732599288399669 8.153133026668122 
-0.9269479210089511 4.185729128303306 -9.813963394767345 -9.387082169149188 7.775491928916928 -2.649172844762269 -1.128045267421939 -5.638908368407396 -0.40624413199139653 -6.190188953445341 -9.241713781684325 -5.416999195440462 -5.311950592652785 -8.653137695915357 -5.061998905389869 -9.042333836838361 -5.254744152044697 -0.35567575946150853 -9.57353179902874 -8.961962231736393 -1.348127962269567 -4.394595306374294 -4.676222990567929 0.7117647448152304 -3.162243353222916 -2.3978192281964494 -2.0051593565550396 -5.856933939110299 -3.203325357618068 8.262321618338184 9.0320867205903 9.181343518997359 -8.082854428646906 9.082331713238315 0.5167675181270841 -6.274878565540101 3.7512655626536535 -6.316981705685092 2.818467004214579 -3.297475453006169 -3.1061801701579235 1.810659774292258 -1.3201559322997412 3.716608329121488 -0.7722904704990103 0.9548713613386628 -3.939351459938858 -0.6255976438455502 2.023047465530256 6.560707721677272 -4.851819044535503 -0.5732599288399669 8.385564721801305 
-9.593481681120217 -9.165456907253313 -9.813963394767345 -7.507510287179544 -6.725666950562661 -3.1489880492224076 -1.128045267421939 -5.638908368407396 -0.40624413199139653 -6.190188953445341 -9.241713781684325 -3.179204759672376 -5.311950592652785 -5.152982833193105 -4.719054714013497 -9.042333836838361 -5.254744152044697 -0.35567575946150853 -9.57353179902874 -8.961962231736393 -1.348127962269567 -4.394595306374294 -4.676222990567929 0.7117647448152304 -3.162243353222916 -2.3978192281964494 -2.0051593565550396 -6.059228488234483 -3.203325357618068 8.262321618338184 -6.077151058533012 8.892677816887165 -8.082854428646906 4.382944945259881 0.5167675181270841 6.983140443354031 -5.697483055381216 -6.316981705685092 -2.4848254704209722 -3.297475453006169 -3.1061801701579235 1.810659774292258 -1.3201559322997412 -6.351823638124914 9.131016514829412 -2.131971197341427 7.263977519747765 1.6681739692478246 2.023047465530256 6.560707721677272 -4.851819044535503 6.9645345040346385 8.153133026668122 
8.552165587241355 2.719741114157543 -7.8181655580593485 9.620274899835039 7.775491928916928 -0.6584319680390909 -1.128045267421939 -5.638908368407396 -0.40624413199139653 -6.190188953445341 -9.241713781684325 -3.179204759672376 -5.311950592652785 -8.653137695915357 -5.061998905389869 -9.042333836838361 -5.254744152044697 -0.35567575946150853 -9.57353179902874 -8.961962231736393 -1.348127962269567 -4.394595306374294 -4.676222990567929 0.7117647448152304 -3.162243353222916 -2.3978192281964494 -2.0051593565550396 -5.856933939110299 -3.203325357618068 8.262321618338184 0.16119682478520403 -1.1343454869206795 -8.082854428646906 4.382944945259881 0.5167675181270841 -6.274878565540101 3.7512655626536535 -6.316981705685092 -2.4848254704209722 9.606043745592594 -3.1061801701579235 1.810659774292258 -1.3201559322997412 -6.351823638124914 4.231199382206153 0.9548713613386628 -3.939351459938858 4.236455360699104 8.127938703402485 6.560707721677272 -4.851819044535503 -0.5732599288399669 8.153133026668122 
-0.9269479210089511 -0.21932447360625318 -9.813963394767345 -2.710629213336402 7.775491928916928 -6.889284023945206 -1.128045267421939 -5.638908368407396 -0.40624413199139653 -6.190188953445341 -9.241713781684325 -3.179204759672376 -5.311950592652785 -8.653137695915357 -5.061998905389869 -9.042333836838361 -5.254744152044697 -0.35567575946150853 -9.57353179902874 -8.961962231736393 -1.348127962269567 -4.394595306374294 -8.869194587556844 0.7117647448152304 -3.162243353222916 -2.3978192281964494 -2.0051593565550396 -5.856933939110299 -3.203325357618068 8.262321618338184 0.16119682478520403 -1.1343454869206795 6.965389161283255 6.986350418454737 0.5167675181270841 -6.274878565540101 9.173124888786237 -6.316981705685092 3.584160123135254 -4.515582524470334 -3.1061801701579235 1.810659774292258 7.80254100233908 -6.351823638124914 -0.7722904704990103 0.8875613169982781 -3.939351459938858 4.236455360699104 3.8919877418292863 6.560707721677272 -4.851819044535503 -0.5732599288399669 9.937839535052035 
-7.31104204232627 0.5673855966236481 0.9847264260987849 -3.804533085879811 1.1234778773374643 6.901188475510814 6.918204774096459 -3.897273615157868 2.6242833245936303 -7.0987265827514285 -6.409293756031602 -7.5246906730105945 -5.311950592652785 -6.122236918688557 5.165770307981838 -3.4278788327096477 -6.906084018414034 3.7464852897622656 -9.58524756850788 -0.8722738860286938 -8.67207132184908 -7.376235945581193 -6.068778060552322 -3.35174405749078 4.30607590677392 -4.34581590083345 -5.033422479171796 -8.437709916729448 -9.921767581528522 -1.8871842500704172 8.286018969323536 -6.282859986640446 5.859541337722531 -2.9013550100823853 1.2819516031433196 -9.586516695546166 8.087623857808918 7.385269633386557 -0.4569888280495267 -8.897140052617665 -0.6278795326388753 -6.36428052884586 -4.544622208192697 -8.82142185245425 1.912615184272834 8.159432866675537 -5.024618927406155 8.149339804293774 8.092615420004332 -2.3945310187684354 7.466990239316374 1.4060432721135037 6.494849510275959 
-7.31104204232627 0.5673855966236481 4.880202868417632 -3.804533085879811 1.1234778773374643 6.901188475510814 6.918204774096459 -3.897273615157868 2.6242833245936303 0.6913052526688563 -6.409293756031602 -3.2979139208704566 -5.311950592652785 -5.399551228613257 -9.707627324628564 -3.4278788327096477 -5.4398408415885875 3.070042078871957 -9.58524756850788 -0.8722738860286938 -8.67207132184908 -7.376235945581193 -4.663991535572885 -3.35174405749078 -9.693755845317716 4.863051697325194 -5.033422479171796 -8.437709916729448 -9.921767581528522 -0.07204517508458252 8.286018969323536 -3.953483172382999 -0.2828948730158647 -2.9013550100823853 1.2819516031433196 0.5529250382119937 0.07260516920303495 7.5525594418184205 -9.25047536399185 -8.897140052617665 -0.6278795326388753 2.587870954282945 -4.544622208192697 7.207579491504596 1.912615184272834 8.159432866675537 -5.024618927406155 8.149339804293774 8.092615420004332 -7.698924272075088 -6.796295588326988 1.0912417463978024 6.631323348933723 
-2.5392770341826036 1.138426177824714 0.9847264260987849 -3.804533085879811 3.497637137127235 6.901188475510814 6.918204774096459 -3.897273615157868 0.15391949220333956 -6.582023363992828 -6.409293756031602 -7.5246906730105945 -5.311950592652785 -5.399551228613257 -2.163203457884686 -3.4278788327096477 -5.4398408415885875 1.8358880727977027 -9.58524756850788 -0.8722738860286938 -8.67207132184908 -7.376235945581193 -4.663991535572885 7.280987696485031 -9.693755845317716 -4.34581590083345 -5.033422479171796 -8.437709916729448 -7.932256801634738 -2.1478922549972967 -8.770995385105946 -3.953483172382999 5.859541337722531 -5.8815139064928035 1.2819516031433196 -6.515882437394504 6.567347475304292 7.5525594418184205 -9.25047536399185 -8.897140052617665 4.983450131130445 -6.36428052884586 -4.544622208192697 7.207579491504596 1.912615184272834 8.159432866675537 5.250294528026501 8.149339804293774 8.092615420004332 -7.698924272075088 7.466990239316374 -8.914988486354298 6.494849510275959 
-7.31104204232627 0.5673855966236481 0.9847264260987849 2.322841966884008 1.1234778773374643 -4.2895383543342 6.918204774096459 -7.262882811500317 -2.482412126867519 -5.565379030349897 -6.409293756031602 -7.5246906730105945 -9.647697564178259 4.970999337467266 -9.707627324628564 -3.4278788327096477 -5.4398408415885875 1.8358880727977027 -9.58524756850788 -0.8722738860286938 0.30494032540669025 -7.376235945581193 -4.663991535572885 -3.35174405749078 -9.693755845317716 -4.34581590083345 -5.033422479171796 -8.437709916729448 -8.960675142846654 8.717782347093014 8.286018969323536 -3.953483172382999 5.859541337722531 -2.9013550100823853 1.2819516031433196 -6.515882437394504 -4.903269709346361 7.5525594418184205 -9.25047536399185 -8.897140052617665 4.983450131130445 -6.36428052884586 -4.544622208192697 -8.82142185245425 1.912615184272834 5.657724350762743 -7.205859452042129 6.686681371998976 8.092615420004332 7.925434608123144 7.466990239316374 1.4060432721135037 6.494849510275959 
-7.31104204232627 -9.781530418868961 0.9847264260987849 -3.804533085879811 1.1234778773374643 3.262036081008027 6.918204774096459 -3.897273615157868 2.6242833245936303 0.6913052526688563 -6.409293756031602 -7.5246906730105945 -9.484835255496396 -5.399551228613257 -9.707627324628564 -3.4278788327096477 0.30004597239527975 1.8358880727977027 -9.58524756850788 -0.8722738860286938 -8.67207132184908 -7.376235945581193 -6.068778060552322 -3.35174405749078 -9.693755845317716 -4.34581590083345 -5.033422479171796 -8.437709916729448 -7.862067250975691 -2.1478922549972967 -8.770995385105946 -3.953483172382999 2.2991349857189682 -2.9013550100823853 1.2819516031433196 -6.515882437394504 -4.903269709346361 -0.7953042186477433 -9.25047536399185 -8.897140052617665 4.983450131130445 -6.170304016644572 -4.544622208192697 -8.82142185245425 1.912615184272834 6.194615729846767 5.250294528026501 8.149339804293774 8.092615420004332 7.925434608123144 7.466990239316374 1.4060432721135037 6.631323348933723 
-7.31104204232627 -7.2856586540642105 0.9847264260987849 -3.804533085879811 -4.442369277458587 -9.788335541065578 6.918204774096459 -7.262882811500317 2.6242833245936303 -5.565379030349897 -6.409293756031602 -1.2198972192053148 -5.311950592652785 -5.399551228613257 -9.707627324628564 -3.4278788327096477 -1.5004244311579242 8.041561288537778 -9.58524756850788 -0.8722738860286938 7.096789131916061 -7.376235945581193 -4.663991535572885 -3.35174405749078 -9.693755845317716 -4.34581590083345 -5.033422479171796 -5.374977584193781 -3.1213547443997847 4.060939712080188 8.286018969323536 -3.357804183026425 5.859541337722531 -2.9013550100823853 1.2819516031433196 -6.515882437394504 -4.903269709346361 -9.284041535452019 -9.25047536399185 -8.897140052617665 7.697259257631114 -6.36428052884586 4.9773222618760435 -8.82142185245425 1.912615184272834 8.159432866675537 -7.205859452042129 -6.958706318299281 8.092615420004332 -7.698924272075088 7.466990239316374 1.4060432721135037 6.631323348933723 
-7.31104204232627 0.5673855966236481 0.9847264260987849 -3.804533085879811 1.1234778773374643 6.901188475510814 6.918204774096459 -7.262882811500317 2.6242833245936303 0.6913052526688563 -6.409293756031602 -7.5246906730105945 -5.311950592652785 -5.399551228613257 0.9894612867155868 -3.4278788327096477 -5.4398408415885875 7.64934533343893 -9.58524756850788 -9.084449531090433 -7.382126068669903 -7.376235945581193 -4.663991535572885 -3.35174405749078 -9.693755845317716 -6.19735840629242 -5.033422479171796 -8.437709916729448 -9.921767581528522 -2.1478922549972967 8.286018969323536 -3.357804183026425 2.7247385907418327 -2.9013550100823853 3.247980736685532 6.704336063774058 -5.651700343956008 7.5525594418184205 -9.25047536399185 -8.897140052617665 -0.6278795326388753 -6.36428052884586 -4.544622208192697 -8.82142185245425 -8.674597398290402 8.159432866675537 -5.024618927406155 8.149339804293774 8.092615420004332 -7.698924272075088 -6.796295588326988 1.4060432721135037 6.631323348933723 
-1.762508043012172 4.860202955329873 -7.210300515812158 -3.804533085879811 1.1234778773374643 6.901188475510814 6.918204774096459 -9.099779800425535 2.6242833245936303 0.6913052526688563 -6.409293756031602 -7.5246906730105945 -5.311950592652785 -5.399551228613257 -4.453948976729844 4.205378711313818 -5.4398408415885875 1.8358880727977027 -9.58524756850788 -0.8722738860286938 -8.67207132184908 -7.376235945581193 -4.663991535572885 -3.35174405749078 -9.693755845317716 -4.34581590083345 -5.033422479171796 -5.374977584193781 -7.932256801634738 3.40560719455841 8.286018969323536 -3.953483172382999 5.859541337722531 6.951962110189804 1.2819516031433196 -6.515882437394504 0.07260516920303495 7.5525594418184205 -9.25047536399185 -8.897140052617665 -0.6278795326388753 6.6110161160857785 -4.544622208192697 -8.82142185245425 1.912615184272834 8.159432866675537 5.250294528026501 8.149339804293774 8.092615420004332 -7.698924272075088 7.466990239316374 1.4060432721135037 6.494849510275959 
-4.075486625007634 0.5673855966236481 0.9847264260987849 -9.354131130276546 1.1234778773374643 6.901188475510814 6.918204774096459 -7.262882811500317 2.6242833245936303 0.6913052526688563 -6.409293756031602 -7.5246906730105945 5.670908341330351 -5.399551228613257 -9.707627324628564 -3.4278788327096477 -5.4398408415885875 1.8358880727977027 -9.58524756850788 -5.4722611420019245 -8.67207132184908 -7.376235945581193 -4.663991535572885 -3.35174405749078 -9.693755845317716 -4.34581590083345 -5.033422479171796 -5.374977584193781 -9.921767581528522 -2.1478922549972967 1.5442586353727705 -3.953483172382999 -6.162398942715235 -2.9013550100823853 1.2819516031433196 -0.8426005273060646 0.07260516920303495 7.5525594418184205 -1.424851572982062 -8.897140052617665 -0.6278795326388753 -6.36428052884586 -4.544622208192697 -8.82142185245425 1.912615184272834 8.159432866675537 -5.024618927406155 8.149339804293774 8.092615420004332 -7.698924272075088 7.466990239316374 1.0912417463978024 6.494849510275959 
-4.662480482288906 7.197894063909601 0.9847264260987849 -3.804533085879811 1.1234778773374643 6.901188475510814 6.918204774096459 -7.262882811500317 0.15391949220333956 0.6913052526688563 -6.409293756031602 -7.5246906730105945 -5.311950592652785 -6.122236918688557 5.165770307981838 -3.4278788327096477 -5.4398408415885875 3.070042078871957 -9.58524756850788 -9.830595398922672 -8.261881723964638 4.922671112338513 -6.068778060552322 -3.35174405749078 -4.303089134807861 -4.34581590083345 -5.033422479171796 -5.374977584193781 -8.960675142846654 -1.5626897884789344 -8.770995385105946 -3.953483172382999 5.859541337722531 -2.9013550100823853 7.674966841897323 8.738230898819044 9.661404536071927 7.5525594418184205 -0.4569888280495267 -8.897140052617665 4.983450131130445 -6.36428052884586 -4.544622208192697 7.207579491504596 1.912615184272834 8.159432866675537 5.250294528026501 8.149339804293774 8.092615420004332 -2.3945310187684354 6.5917442666858115 4.961227657483793 6.494849510275959 
-7.31104204232627 7.197894063909601 6.361843068999253 -3.804533085879811 -9.253232302597 6.901188475510814 -9.035937102665352 -7.262882811500317 0.15391949220333956 0.6913052526688563 -6.409293756031602 -7.5246906730105945 -5.311950592652785 -6.122236918688557 -9.707627324628564 -3.4278788327096477 6.872171424209416 3.070042078871957 6.753914253745901 -5.4722611420019245 -2.499785907759346 -7.376235945581193 -6.068778060552322 -3.35174405749078 -4.303089134807861 -4.34581590083345 -6.296998572948338 -5.374977584193781 -7.932256801634738 -0.07204517508458252 -5.343420013723135 -3.953483172382999 5.859541337722531 0.7253631708494002 7.674966841897323 -6.515882437394504 -2.6619107739614956 7.276275523521541 -0.4569888280495267 -8.897140052617665 4.983450131130445 6.6110161160857785 -4.544622208192697 -6.016973023009859 -0.7857464627532131 8.159432866675537 -5.961029511884348 6.686681371998976 8.092615420004332 -2.3945310187684354 6.761699217654712 4.961227657483793 6.494849510275959 
-4.662480482288906 -2.777678004672106 0.9847264260987849 -3.804533085879811 1.1234778773374643 6.901188475510814 6.918204774096459 -7.262882811500317 0.15391949220333956 0.6913052526688563 -6.260165097137406 -7.5246906730105945 -5.311950592652785 -6.122236918688557 5.165770307981838 -3.4278788327096477 -6.906084018414034 3.070042078871957 -9.58524756850788 2.286148947294201 -2.499785907759346 -7.376235945581193 -6.068778060552322 -3.35174405749078 -4.303089134807861 -0.841134724666702 -5.033422479171796 -5.374977584193781 -8.960675142846654 8.717782347093014 -8.770995385105946 -3.953483172382999 5.859541337722531 -5.169588866730265 7.674966841897323 -6.515882437394504 9.661404536071927 7.5525594418184205 -0.4569888280495267 -8.897140052617665 4.983450131130445 6.6110161160857785 -4.544622208192697 -8.68351659081539 1.912615184272834 8.159432866675537 5.250294528026501 2.8875897026013657 8.092615420004332 -2.932509585848358 -6.796295588326988 4.961227657483793 6.494849510275959 
9.10073341266726 7.197894063909601 0.9847264260987849 -3.804533085879811 1.1234778773374643 6.901188475510814 6.918204774096459 -7.262882811500317 0.15391949220333956 0.6913052526688563 -6.409293756031602 -7.5246906730105945 -5.311950592652785 -6.122236918688557 5.165770307981838 6.545958354464322 -6.906084018414034 3.070042078871957 -9.58524756850788 -5.4722611420019245 -2.499785907759346 -7.376235945581193 -6.068778060552322 -1.8381072426322191 -4.303089134807861 -4.34581590083345 -6.02139907588829 -5.374977584193781 -8.960675142846654 8.717782347093014 -8.770995385105946 8.704279280818781 5.859541337722531 -5.169588866730265 7.674966841897323 -6.515882437394504 8.338557512709592 7.5525594418184205 -6.303526404705348 -0.42886970254423495 4.983450131130445 6.6110161160857785 -6.944663358817933 -1.8094646703240471 1.912615184272834 8.159432866675537 5.250294528026501 6.686681371998976 8.092615420004332 -2.3945310187684354 6.761699217654712 4.961227657483793 6.494849510275959 
2.166968042094041 7.197894063909601 6.392687889943552 -3.804533085879811 1.1234778773374643 6.901188475510814 6.918204774096459 -7.262882811500317 4.897325632648675 0.6913052526688563 -6.409293756031602 -7.5246906730105945 -5.311950592652785 5.115410189249026 5.165770307981838 -3.4278788327096477 -5.4398408415885875 3.070042078871957 -9.58524756850788 -5.4722611420019245 -2.499785907759346 -7.376235945581193 -6.068778060552322 -3.35174405749078 -4.303089134807861 -4.34581590083345 -5.033422479171796 -5.374977584193781 -8.960675142846654 2.4768879779395636 -8.770995385105946 -3.357804183026425 5.859541337722531 -5.169588866730265 7.674966841897323 1.5579311298257732 -4.903269709346361 7.5525594418184205 -0.4569888280495267 6.832505370692058 4.983450131130445 -6.170304016644572 -1.077068284960978 -1.8094646703240471 1.912615184272834 -2.709613532625861 5.250294528026501 6.686681371998976 8.092615420004332 7.225218514157721 6.761699217654712 4.961227657483793 6.494849510275959 
-4.662480482288906 -7.2856586540642105 0.9847264260987849 -1.0353619466464519 1.1234778773374643 -9.788335541065578 6.918204774096459 -7.262882811500317 0.15391949220333956 0.6913052526688563 -6.409293756031602 -1.2198972192053148 -4.354739212657687 -6.122236918688557 5.165770307981838 -3.4278788327096477 -6.906084018414034 3.070042078871957 -9.58524756850788 -5.4722611420019245 -2.499785907759346 -7.376235945581193 -4.663991535572885 -3.35174405749078 -5.679648931023431 -4.34581590083345 -5.033422479171796 -5.374977584193781 -8.960675142846654 8.717782347093014 -8.770995385105946 -3.953483172382999 5.859541337722531 -5.169588866730265 7.674966841897323 -8.732758464259618 -4.151561699930955 7.5525594418184205 -0.4569888280495267 -0.42886970254423495 4.983450131130445 6.6110161160857785 -4.544622208192697 7.207579491504596 1.912615184272834 8.159432866675537 -0.13800598400440833 6.686681371998976 8.092615420004332 -2.3945310187684354 6.761699217654712 4.961227657483793 6.494849510275959 
-7.31104204232627 7.197894063909601 0.9847264260987849 -3.804533085879811 -9.136055976870878 6.901188475510814 6.918204774096459 -7.262882811500317 4.356385440225331 0.6913052526688563 -6.409293756031602 -7.5246906730105945 -5.311950592652785 -6.122236918688557 5.165770307981838 -3.4278788327096477 -5.4398408415885875 3.070042078871957 -9.58524756850788 -9.084449531090433 -2.499785907759346 -7.376235945581193 -4.663991535572885 2.1897657344562447 -4.303089134807861 -4.34581590083345 -5.033422479171796 -5.374977584193781 -8.960675142846654 8.717782347093014 -0.15305629063620252 -3.953483172382999 5.859541337722531 -5.169588866730265 7.674966841897323 -6.515882437394504 9.661404536071927 7.276275523521541 -0.4569888280495267 -8.897140052617665 4.983450131130445 -8.596694863062284 -4.544622208192697 1.6172711765493304 1.912615184272834 8.159432866675537 -4.071171599853811 6.686681371998976 8.092615420004332 -2.3945310187684354 6.761699217654712 1.0912417463978024 6.494849510275959 
-4.662480482288906 7.197894063909601 7.357431357118816 -3.804533085879811 1.1234778773374643 6.901188475510814 6.918204774096459 -7.262882811500317 0.15391949220333956 0.6913052526688563 -6.409293756031602 -7.5246906730105945 -5.311950592652785 -6.122236918688557 5.165770307981838 -3.4278788327096477 -6.906084018414034 3.070042078871957 -9.58524756850788 -5.4722611420019245 8.660794735842131 -7.376235945581193 -6.068778060552322 -3.35174405749078 -4.303089134807861 -4.34581590083345 -5.033422479171796 -5.374977584193781 -8.960675142846654 8.717782347093014 -8.770995385105946 -3.953483172382999 -6.162398942715235 -5.169588866730265 1.286229827337607 -6.515882437394504 9.661404536071927 7.5525594418184205 -0.4569888280495267 -8.897140052617665 4.983450131130445 6.6110161160857785 -4.544622208192697 7.207579491504596 1.912615184272834 5.657724350762743 5.250294528026501 6.686681371998976 8.092615420004332 -2.3945310187684354 -8.39135085793081 4.961227657483793 6.494849510275959 
6.674739109973142 7.197894063909601 0.9847264260987849 -3.804533085879811 1.1234778773374643 6.901188475510814 5.676657198160363 -7.262882811500317 0.15391949220333956 0.6913052526688563 -6.409293756031602 8.426089578809016 -5.311950592652785 -6.122236918688557 -4.806303373256071 -3.4278788327096477 -6.906084018414034 3.070042078871957 -9.58524756850788 -5.4722611420019245 -2.499785907759346 -7.376235945581193 -6.068778060552322 -4.732990885411121 -4.303089134807861 -4.34581590083345 -5.033422479171796 -5.374977584193781 -8.960675142846654 8.717782347093014 -8.770995385105946 -3.953483172382999 5.859541337722531 3.3611823793794215 7.674966841897323 -6.515882437394504 9.661404536071927 7.5525594418184205 -0.4569888280495267 -8.897140052617665 4.983450131130445 6.6110161160857785 -7.643836939576845 7.207579491504596 3.2120482805609445 5.657724350762743 5.250294528026501 6.686681371998976 8.092615420004332 -2.3945310187684354 5.728127805726697 4.961227657483793 6.494849510275959 
-7.31104204232627 -4.3503536176440205 6.361843068999253 -3.804533085879811 -9.253232302597 6.901188475510814 -9.035937102665352 8.558954191872058 2.527809046805011 0.6913052526688563 1.0980826259797922 -7.5246906730105945 -5.311950592652785 -5.516412503356278 -9.707627324628564 -3.4278788327096477 -8.948823336609852 3.070042078871957 -4.35363715242163 -0.8722738860286938 -8.67207132184908 -7.376235945581193 -8.140820748355953 -3.35174405749078 -6.865113832260348 -4.34581590083345 -4.242352949102628 -5.374977584193781 -9.921767581528522 -0.07204517508458252 -5.343420013723135 9.65730942560199 4.410205653326697 -2.9013550100823853 -2.1784854533381566 0.5529250382119937 -2.6619107739614956 7.5525594418184205 5.2264999570143935 -8.897140052617665 4.983450131130445 -6.36428052884586 -4.544622208192697 7.207579491504596 1.912615184272834 8.159432866675537 3.3980779940760204 2.8875897026013657 8.092615420004332 -7.698924272075088 -6.796295588326988 1.4060432721135037 -4.027236655294859 
-4.662480482288906 0.5673855966236481 6.361843068999253 -3.804533085879811 1.1234778773374643 6.901188475510814 -9.035937102665352 -7.262882811500317 -2.482412126867519 -3.020544798064888 1.0980826259797922 -7.5246906730105945 -5.311950592652785 -5.399551228613257 -9.707627324628564 -3.4278788327096477 -5.4398408415885875 3.070042078871957 -9.58524756850788 8.4899113949355 -8.67207132184908 -7.376235945581193 -8.140820748355953 -3.35174405749078 -4.303089134807861 -4.34581590083345 -4.242352949102628 -5.374977584193781 -8.960675142846654 -0.07204517508458252 -5.343420013723135 -3.953483172382999 -6.162398942715235 -5.169588866730265 0.7316086540360054 0.5529250382119937 -3.5142411952492747 -4.231936114256447 -0.4569888280495267 6.390435378275981 4.983450131130445 6.6110161160857785 -4.544622208192697 7.207579491504596 1.912615184272834 5.657724350762743 5.250294528026501 6.686681371998976 8.092615420004332 -2.3945310187684354 -6.796295588326988 4.961227657483793 6.494849510275959 
-7.31104204232627 1.9146097290046455 6.361843068999253 -3.804533085879811 -1.8286493860921134 6.901188475510814 -9.035937102665352 -7.262882811500317 -2.482412126867519 0.6913052526688563 -6.260165097137406 -2.1667836005364194 -5.311950592652785 -5.399551228613257 -9.707627324628564 -3.4278788327096477 -5.4398408415885875 9.667567454810243 -9.58524756850788 -9.084449531090433 -8.67207132184908 -7.376235945581193 -8.140820748355953 -3.35174405749078 2.3019594643692294 -0.841134724666702 -5.033422479171796 -5.374977584193781 -7.932256801634738 -0.07204517508458252 8.388789396396966 9.65730942560199 -6.162398942715235 -1.9722441726970903 0.6578075823126301 0.5529250382119937 -2.6619107739614956 7.5525594418184205 5.2264999570143935 -8.897140052617665 4.983450131130445 2.587870954282945 -4.544622208192697 7.207579491504596 1.912615184272834 5.657724350762743 3.3980779940760204 2.8875897026013657 8.092615420004332 7.925434608123144 -6.796295588326988 1.0912417463978024 -4.341717232691877 
9.10073341266726 0.5673855966236481 6.361843068999253 -3.804533085879811 -9.253232302597 1.53326950596667 -9.035937102665352 -7.262882811500317 -2.482412126867519 0.6913052526688563 2.6578846986924436 -7.5246906730105945 -5.311950592652785 -5.399551228613257 -9.707627324628564 -3.4278788327096477 -5.4398408415885875 3.070042078871957 -9.58524756850788 -9.084449531090433 -8.67207132184908 -7.376235945581193 3.9768459093245703 -3.35174405749078 -8.81295771930584 -4.34581590083345 -4.242352949102628 -5.374977584193781 -7.932256801634738 -0.07204517508458252 0.2721116651036315 7.082653902289106 -6.162398942715235 -1.9722441726970903 0.6578075823126301 0.5529250382119937 -2.6619107739614956 7.276275523521541 5.2264999570143935 -8.897140052617665 4.983450131130445 2.587870954282945 -4.544622208192697 7.207579491504596 1.912615184272834 5.657724350762743 3.3980779940760204 2.8875897026013657 -0.994840938115491 -7.698924272075088 -6.796295588326988 1.0912417463978024 6.494849510275959 
-7.31104204232627 0.5673855966236481 6.361843068999253 -3.804533085879811 -9.253232302597 6.901188475510814 -9.035937102665352 -7.262882811500317 -2.482412126867519 0.6913052526688563 1.0980826259797922 -7.5246906730105945 -5.311950592652785 -5.399551228613257 -9.707627324628564 -3.4278788327096477 -5.4398408415885875 3.070042078871957 -9.58524756850788 -9.084449531090433 -8.67207132184908 -7.376235945581193 -8.140820748355953 -3.35174405749078 2.3019594643692294 -4.34581590083345 -4.242352949102628 -0.9808177339209738 -7.932256801634738 2.4768879779395636 -5.343420013723135 9.65730942560199 -6.162398942715235 -1.9722441726970903 0.6578075823126301 1.5579311298257732 -2.6619107739614956 7.276275523521541 5.2264999570143935 -8.897140052617665 4.983450131130445 2.587870954282945 2.4407820050237223 7.207579491504596 1.912615184272834 5.657724350762743 3.3980779940760204 2.8875897026013657 8.092615420004332 4.064945949013968 8.620301906553888 1.0912417463978024 7.7792360104633005 
4.158027481574296 3.3820522941991964 0.9847264260987849 -3.804533085879811 -4.442369277458587 6.901188475510814 -9.035937102665352 -7.262882811500317 -2.482412126867519 0.6913052526688563 1.0980826259797922 -1.2198972192053148 -9.647697564178259 -5.399551228613257 -9.707627324628564 -3.4278788327096477 -6.690838609546434 8.041561288537778 -9.58524756850788 -5.4722611420019245 -8.67207132184908 -7.376235945581193 -4.663991535572885 -3.35174405749078 -5.679648931023431 -4.34581590083345 -4.242352949102628 -5.374977584193781 -8.960675142846654 -8.75337315095987 -5.343420013723135 9.65730942560199 -6.162398942715235 -2.9013550100823853 0.6578075823126301 0.5529250382119937 -2.6619107739614956 6.738788289342821 -1.424851572982062 -0.42886970254423495 4.983450131130445 2.587870954282945 -4.544622208192697 7.207579491504596 1.912615184272834 5.657724350762743 3.3980779940760204 6.686681371998976 -3.0828650653694094 7.925434608123144 -6.796295588326988 1.0912417463978024 -4.027236655294859 
-7.31104204232627 0.5673855966236481 6.361843068999253 -3.804533085879811 -9.253232302597 6.901188475510814 -9.035937102665352 -7.262882811500317 -2.520496418083016 0.6913052526688563 -6.260165097137406 -7.5246906730105945 -5.311950592652785 -5.399551228613257 -9.707627324628564 -3.4278788327096477 -5.4398408415885875 3.070042078871957 -4.062976569749384 -9.084449531090433 -6.533021220955176 -7.376235945581193 -8.140820748355953 -3.35174405749078 2.3019594643692294 6.456058644227834 -4.242352949102628 -5.374977584193781 -7.932256801634738 -0.07204517508458252 -5.343420013723135 -3.357804183026425 6.255374809507828 -1.9722441726970903 0.6578075823126301 0.5529250382119937 -2.6619107739614956 7.276275523521541 -0.33954884089998316 -8.897140052617665 4.983450131130445 2.587870954282945 -5.1243842289038755 7.207579491504596 1.912615184272834 5.657724350762743 3.3980779940760204 2.8875897026013657 8.092615420004332 -7.698924272075088 -6.796295588326988 1.0912417463978024 -4.027236655294859 
-7.31104204232627 0.5673855966236481 6.361843068999253 -3.804533085879811 -9.253232302597 6.901188475510814 6.918204774096459 -7.262882811500317 -7.0328385773327895 0.6913052526688563 -6.260165097137406 -7.5246906730105945 -5.311950592652785 -5.399551228613257 -9.707627324628564 -3.4278788327096477 -5.4398408415885875 3.070042078871957 -9.58524756850788 -9.084449531090433 -8.67207132184908 -7.376235945581193 -6.068778060552322 -3.35174405749078 2.3019594643692294 -4.34581590083345 -4.242352949102628 -5.374977584193781 -7.932256801634738 -0.07204517508458252 -5.343420013723135 9.65730942560199 -6.162398942715235 -1.9722441726970903 1.2819516031433196 0.5529250382119937 -2.6619107739614956 7.276275523521541 5.2264999570143935 -8.897140052617665 4.983450131130445 2.587870954282945 -4.544622208192697 7.207579491504596 4.997539828667946 5.657724350762743 3.3980779940760204 2.8875897026013657 8.092615420004332 -7.698924272075088 -6.796295588326988 1.0912417463978024 -4.027236655294859 
-7.31104204232627 -7.2856586540642105 6.361843068999253 -3.804533085879811 -4.442369277458587 6.901188475510814 -9.035937102665352 -7.262882811500317 -2.482412126867519 0.6913052526688563 1.0980826259797922 -7.5246906730105945 -5.311950592652785 -5.399551228613257 -9.707627324628564 3.5118968690238894 -8.295911757915352 8.041561288537778 -9.58524756850788 -9.084449531090433 -6.038924307640654 -1.9266816600432612 -8.140820748355953 -3.35174405749078 2.3019594643692294 -4.34581590083345 -4.242352949102628 -5.374977584193781 -7.932256801634738 8.717782347093014 -5.343420013723135 9.65730942560199 -6.162398942715235 -1.9722441726970903 0.6578075823126301 -6.064781280796914 -2.6619107739614956 7.276275523521541 5.2264999570143935 -8.897140052617665 4.983450131130445 2.587870954282945 -8.772990219138517 7.207579491504596 1.912615184272834 5.657724350762743 -7.205859452042129 6.686681371998976 -9.752245645829149 -7.698924272075088 -6.796295588326988 1.0912417463978024 -4.027236655294859 
-4.662480482288906 0.5673855966236481 0.9847264260987849 -3.804533085879811 1.1234778773374643 6.901188475510814 6.918204774096459 -7.262882811500317 0.15391949220333956 -5.565379030349897 -6.260165097137406 -7.5246906730105945 2.599023194006854 -6.122236918688557 -4.90083793614189 -6.9857767416107475 -5.4398408415885875 1.8358880727977027 -9.58524756850788 -9.084449531090433 -2.499785907759346 -7.376235945581193 -4.663991535572885 -3.35174405749078 -9.693755845317716 -0.841134724666702 -5.033422479171796 -5.374977584193781 -9.921767581528522 -2.1478922549972967 -8.770995385105946 -3.953483172382999 5.859541337722531 -8.712937255451536 -9.318474321228539 -6.515882437394504 -2.6619107739614956 -4.1924078118656904 -9.25047536399185 -8.897140052617665 4.983450131130445 -6.36428052884586 -4.544622208192697 -8.82142185245425 1.912615184272834 8.159432866675537 5.250294528026501 2.8875897026013657 8.092615420004332 -7.698924272075088 -6.796295588326988 1.0912417463978024 -8.787652342801238 
-4.662480482288906 -8.589633160361172 0.9847264260987849 -3.804533085879811 1.1234778773374643 -4.2895383543342 6.918204774096459 -7.262882811500317 0.15391949220333956 -5.565379030349897 -6.260165097137406 -7.5246906730105945 -5.311950592652785 -6.122236918688557 5.165770307981838 -3.4278788327096477 -6.906084018414034 3.070042078871957 -9.58524756850788 -9.084449531090433 -2.499785907759346 -7.376235945581193 -4.663991535572885 -1.6884947832660373 -4.303089134807861 -0.841134724666702 -5.033422479171796 -5.374977584193781 -7.932256801634738 -2.1478922549972967 -8.770995385105946 8.448393241939847 5.859541337722531 -5.169588866730265 7.291452239358314 -6.515882437394504 6.09537991696854 7.5525594418184205 -0.4569888280495267 -8.897140052617665 4.983450131130445 6.6110161160857785 -4.544622208192697 7.207579491504596 1.912615184272834 8.159432866675537 5.250294528026501 2.8875897026013657 8.092615420004332 7.925434608123144 -6.796295588326988 1.0912417463978024 6.494849510275959 
-4.662480482288906 -8.589633160361172 0.9847264260987849 -3.804533085879811 3.497637137127235 -4.2895383543342 6.918204774096459 -7.262882811500317 0.15391949220333956 -5.565379030349897 -6.260165097137406 -7.5246906730105945 -5.311950592652785 -6.122236918688557 -9.707627324628564 -3.4278788327096477 -6.906084018414034 3.070042078871957 -9.58524756850788 -9.084449531090433 -2.499785907759346 -3.0513630564192322 -4.663991535572885 -2.58309420576283 -4.303089134807861 -0.841134724666702 -5.033422479171796 -5.374977584193781 -7.932256801634738 -2.1478922549972967 -8.770995385105946 -3.953483172382999 5.859541337722531 -1.9722441726970903 7.291452239358314 -6.515882437394504 -2.6619107739614956 7.5525594418184205 -0.4569888280495267 -8.897140052617665 4.983450131130445 -6.36428052884586 -4.544622208192697 7.207579491504596 1.912615184272834 8.159432866675537 5.250294528026501 2.8875897026013657 8.092615420004332 -7.698924272075088 -6.796295588326988 1.0912417463978024 -0.7082569618447039 
-4.662480482288906 -8.589633160361172 0.9847264260987849 -3.804533085879811 3.497637137127235 -6.008455168904943 6.918204774096459 -3.5718418819855273 0.15391949220333956 0.6913052526688563 -6.409293756031602 -7.5246906730105945 -5.311950592652785 -6.122236918688557 -4.90083793614189 -3.4278788327096477 -6.906084018414034 3.070042078871957 -9.58524756850788 -9.084449531090433 -6.916614239668506 -7.376235945581193 -4.663991535572885 -1.6884947832660373 -4.303089134807861 -0.841134724666702 -6.02139907588829 1.5285385620191292 -7.932256801634738 -2.1478922549972967 -8.770995385105946 -3.953483172382999 -6.162398942715235 -1.9722441726970903 7.674966841897323 -6.515882437394504 -2.6619107739614956 6.738788289342821 -0.4569888280495267 -8.897140052617665 4.983450131130445 2.587870954282945 7.337713439483828 -2.547034766680625 1.912615184272834 5.657724350762743 8.51645303527895 -0.43951892494725797 -3.0828650653694094 7.925434608123144 -6.796295588326988 1.0912417463978024 6.494849510275959 
-4.662480482288906 -6.390046887753879 0.9847264260987849 -3.804533085879811 3.497637137127235 6.901188475510814 6.918204774096459 -6.312155436672125 -2.482412126867519 -5.565379030349897 -6.260165097137406 -7.5246906730105945 -9.484835255496396 -6.122236918688557 -4.90083793614189 -3.4278788327096477 -6.906084018414034 3.070042078871957 -9.58524756850788 -9.084449531090433 -6.533021220955176 -7.376235945581193 -4.663991535572885 -1.6884947832660373 -4.303089134807861 -8.63635357637579 -5.033422479171796 -5.374977584193781 -7.932256801634738 2.4768879779395636 -8.770995385105946 -3.357804183026425 5.859541337722531 -6.2607643567414195 5.083839815015935 1.5579311298257732 -4.903269709346361 7.5525594418184205 -0.4569888280495267 -8.897140052617665 4.983450131130445 -6.36428052884586 -4.544622208192697 -1.8094646703240471 2.5781952808460353 6.194615729846767 5.250294528026501 2.8875897026013657 8.092615420004332 7.925434608123144 3.275852675557191 4.961227657483793 6.494849510275959 
9.10073341266726 -8.589633160361172 0.9847264260987849 -3.804533085879811 -4.442369277458587 -4.2895383543342 6.918204774096459 4.3528533202947965 0.15391949220333956 -5.565379030349897 -6.260165097137406 3.8028071781201938 0.8212343435316001 -5.903571924940105 -4.90083793614189 -3.4278788327096477 -6.906084018414034 3.070042078871957 8.467543819234052 -9.084449531090433 -2.499785907759346 -7.376235945581193 -4.663991535572885 -8.152316743198993 -4.303089134807861 -4.34581590083345 -4.242352949102628 -5.374977584193781 -7.932256801634738 -0.15378405484528201 8.286018969323536 -3.953483172382999 5.859541337722531 -7.589586746937886 7.674966841897323 -6.515882437394504 -2.6619107739614956 6.738788289342821 -0.4569888280495267 -8.897140052617665 4.983450131130445 -6.36428052884586 -4.544622208192697 7.207579491504596 1.912615184272834 8.159432866675537 5.250294528026501 2.8875897026013657 8.092615420004332 7.925434608123144 -6.796295588326988 1.0912417463978024 6.494849510275959 
-4.9705456218418 -8.589633160361172 0.9847264260987849 -6.69852881022432 3.497637137127235 -0.9441172173037433 6.918204774096459 -7.262882811500317 0.15391949220333956 -5.565379030349897 -6.260165097137406 -7.5246906730105945 -5.311950592652785 -6.122236918688557 -9.707627324628564 -3.4278788327096477 -8.999479843641037 3.070042078871957 -9.58524756850788 -9.084449531090433 -2.499785907759346 -7.376235945581193 -4.663991535572885 -1.6884947832660373 -4.303089134807861 -6.19735840629242 -5.033422479171796 -5.374977584193781 -7.932256801634738 -2.1478922549972967 -8.770995385105946 -3.953483172382999 5.859541337722531 -1.9722441726970903 -0.10424991387290561 -0.23769010224051357 -2.6619107739614956 7.5525594418184205 -0.4569888280495267 -8.897140052617665 4.983450131130445 -6.36428052884586 -4.544622208192697 7.207579491504596 1.912615184272834 4.587575443568422 5.250294528026501 -0.9600106187356658 -2.9215115691620452 7.925434608123144 -6.796295588326988 1.0912417463978024 6.494849510275959 
-4.662480482288906 -7.2856586540642105 0.9847264260987849 -3.804533085879811 3.497637137127235 -4.2895383543342 6.918204774096459 5.307423521442283 0.15391949220333956 -5.565379030349897 -6.260165097137406 4.912501844139957 -5.311950592652785 -6.122236918688557 -4.90083793614189 -3.4278788327096477 -6.906084018414034 -6.3445302351805655 -9.58524756850788 -9.084449531090433 -2.499785907759346 0.60417698919834 -6.068778060552322 -1.6884947832660373 -4.303089134807861 -0.841134724666702 0.40292166091337833 -5.374977584193781 -7.932256801634738 3.40560719455841 -8.770995385105946 -3.953483172382999 5.859541337722531 -1.9722441726970903 7.291452239358314 -6.515882437394504 -2.6619107739614956 7.5525594418184205 -0.4569888280495267 -8.897140052617665 4.983450131130445 -6.36428052884586 -4.544622208192697 7.207579491504596 1.912615184272834 8.159432866675537 5.250294528026501 2.8875897026013657 8.092615420004332 7.925434608123144 -6.796295588326988 1.0912417463978024 6.494849510275959 
-4.662480482288906 -8.589633160361172 0.9847264260987849 -3.804533085879811 -4.442369277458587 -4.2895383543342 6.918204774096459 -7.262882811500317 -2.482412126867519 -5.565379030349897 -6.409293756031602 -7.5246906730105945 -5.311950592652785 9.870645432367166 -4.90083793614189 -3.4278788327096477 -6.906084018414034 3.070042078871957 -9.58524756850788 -9.084449531090433 -2.499785907759346 -7.376235945581193 -4.663991535572885 -1.6884947832660373 -4.303089134807861 -0.841134724666702 -5.033422479171796 -5.374977584193781 -8.960675142846654 -2.1478922549972967 8.180907171184518 -3.953483172382999 -6.162398942715235 -1.9722441726970903 7.291452239358314 -6.515882437394504 -2.6619107739614956 7.5525594418184205 -1.424851572982062 -8.897140052617665 4.983450131130445 -6.36428052884586 -4.544622208192697 7.207579491504596 1.912615184272834 8.159432866675537 5.250294528026501 6.686681371998976 8.092615420004332 7.925434608123144 -6.796295588326988 1.0912417463978024 6.494849510275959 
-7.31104204232627 -7.2856586540642105 -3.2988813955199037 -3.804533085879811 -4.442369277458587 -4.2895383543342 5.676657198160363 -7.262882811500317 -2.482412126867519 -5.565379030349897 -6.409293756031602 -7.5246906730105945 -5.311950592652785 -5.903571924940105 -4.90083793614189 -3.4278788327096477 -5.4398408415885875 1.8358880727977027 -9.58524756850788 -0.8722738860286938 -9.543728978891222 -7.376235945581193 -4.663991535572885 -3.35174405749078 -5.679648931023431 3.9974866989700875 -6.02139907588829 -5.374977584193781 -8.960675142846654 -2.1478922549972967 8.286018969323536 8.704279280818781 -6.162398942715235 4.3462284375733695 1.2819516031433196 -3.8366127640593035 -4.903269709346361 6.730866143101522 -1.424851572982062 -0.42886970254423495 4.983450131130445 -6.36428052884586 -4.544622208192697 -8.162662368508931 1.912615184272834 5.657724350762743 -2.6423722657818143 6.686681371998976 -3.0828650653694094 7.925434608123144 -6.796295588326988 4.961227657483793 6.494849510275959 
9.10073341266726 7.197894063909601 0.9847264260987849 -1.0353619466464519 -4.442369277458587 -4.2895383543342 5.676657198160363 -7.262882811500317 -2.482412126867519 0.6913052526688563 -6.409293756031602 -7.5246906730105945 -9.647697564178259 -5.903571924940105 -2.207882320039529 -3.4278788327096477 7.757351001626034 8.041561288537778 -9.58524756850788 -5.4722611420019245 0.30494032540669025 -7.376235945581193 -6.068778060552322 -3.35174405749078 7.630115008155048 -4.34581590083345 -6.02139907588829 -5.374977584193781 -8.960675142846654 8.717782347093014 -8.770995385105946 8.704279280818781 5.859541337722531 -1.9722441726970903 7.674966841897323 -6.515882437394504 -4.903269709346361 6.738788289342821 -1.424851572982062 -5.589739783272347 4.983450131130445 2.587870954282945 -4.544622208192697 7.207579491504596 1.912615184272834 8.159432866675537 5.250294528026501 5.464167051299382 8.092615420004332 7.925434608123144 -6.796295588326988 4.961227657483793 6.494849510275959 
9.10073341266726 0.5673855966236481 -3.2988813955199037 -1.0353619466464519 -1.8053466190812895 6.901188475510814 5.676657198160363 -7.262882811500317 -2.482412126867519 0.6913052526688563 -6.409293756031602 -7.5246906730105945 -9.647697564178259 -5.903571924940105 -9.707627324628564 -3.4278788327096477 -6.906084018414034 8.041561288537778 -9.58524756850788 -5.4722611420019245 0.30494032540669025 -7.376235945581193 -4.663991535572885 -3.35174405749078 -5.679648931023431 -4.34581590083345 -6.02139907588829 -5.374977584193781 -8.960675142846654 -0.07204517508458252 8.286018969323536 9.65730942560199 -6.162398942715235 -1.9722441726970903 7.674966841897323 -3.8366127640593035 -4.903269709346361 7.276275523521541 -1.424851572982062 -0.42886970254423495 4.983450131130445 6.538579316502155 -4.544622208192697 0.4300729441981552 1.912615184272834 5.657724350762743 -7.205859452042129 6.686681371998976 -3.0828650653694094 7.925434608123144 -6.796295588326988 4.961227657483793 -4.027236655294859 
9.10073341266726 -7.2856586540642105 -3.2988813955199037 -3.804533085879811 -4.442369277458587 -4.2895383543342 5.676657198160363 -7.262882811500317 -2.482412126867519 8.193029032020355 -6.260165097137406 -7.5246906730105945 -9.647697564178259 -5.903571924940105 -4.90083793614189 -3.4278788327096477 -6.906084018414034 8.041561288537778 -9.58524756850788 -5.4722611420019245 0.30494032540669025 -7.376235945581193 0.570317795390249 -3.35174405749078 -5.679648931023431 -4.34581590083345 -6.02139907588829 -5.374977584193781 -8.960675142846654 8.717782347093014 8.286018969323536 4.947646828475495 -6.162398942715235 -1.9722441726970903 7.674966841897323 -3.8366127640593035 -4.903269709346361 7.5525594418184205 -0.4569888280495267 -0.42886970254423495 4.983450131130445 2.587870954282945 -4.544622208192697 7.207579491504596 1.912615184272834 5.657724350762743 -7.205859452042129 6.686681371998976 8.092615420004332 7.925434608123144 -6.796295588326988 4.961227657483793 6.494849510275959 
9.10073341266726 -7.2856586540642105 -4.619461185280411 -1.0353619466464519 1.1234778773374643 -4.2895383543342 5.676657198160363 -7.262882811500317 -2.482412126867519 0.6913052526688563 -6.409293756031602 -7.5246906730105945 -9.647697564178259 -5.903571924940105 -4.90083793614189 -4.117274013838143 -5.4398408415885875 8.041561288537778 -9.58524756850788 -5.4722611420019245 0.30494032540669025 -7.376235945581193 -6.068778060552322 -3.35174405749078 -5.679648931023431 -0.841134724666702 -6.02139907588829 -5.374977584193781 -8.960675142846654 8.717782347093014 8.286018969323536 8.704279280818781 -6.162398942715235 -6.2607643567414195 7.674966841897323 -3.8366127640593035 -4.903269709346361 7.5525594418184205 -1.424851572982062 -8.897140052617665 1.4884463021326955 2.587870954282945 -4.544622208192697 -1.8094646703240471 1.912615184272834 5.657724350762743 -7.205859452042129 -4.608280501746966 -3.0828650653694094 7.925434608123144 -6.796295588326988 4.961227657483793 6.494849510275959 
9.10073341266726 -7.2856586540642105 -3.2988813955199037 2.0536304225887143 -4.442369277458587 -9.788335541065578 5.676657198160363 -7.262882811500317 -2.482412126867519 0.6913052526688563 -6.409293756031602 -7.5246906730105945 -9.647697564178259 -5.903571924940105 -4.90083793614189 -3.4278788327096477 -6.906084018414034 8.041561288537778 -9.58524756850788 -5.4722611420019245 0.30494032540669025 -7.376235945581193 -4.663991535572885 -3.35174405749078 -5.679648931023431 -4.34581590083345 -6.02139907588829 -5.374977584193781 -8.960675142846654 8.717782347093014 8.286018969323536 8.704279280818781 -6.162398942715235 -1.9722441726970903 7.674966841897323 -3.8366127640593035 -4.903269709346361 6.738788289342821 -1.424851572982062 -0.42886970254423495 4.983450131130445 2.587870954282945 -4.544622208192697 -1.8094646703240471 1.912615184272834 5.657724350762743 -7.205859452042129 6.686681371998976 -3.0828650653694094 7.925434608123144 -6.796295588326988 4.961227657483793 6.494849510275959 
9.10073341266726 -7.2856586540642105 -3.2988813955199037 -1.0353619466464519 -4.442369277458587 -4.2895383543342 2.035205626434424 -9.572080489345256 -6.69294288408508 0.6913052526688563 -6.409293756031602 -7.5246906730105945 -5.311950592652785 -5.903571924940105 -4.90083793614189 -3.4278788327096477 -6.906084018414034 8.041561288537778 -9.58524756850788 -5.4722611420019245 0.30494032540669025 -7.376235945581193 -4.663991535572885 5.845039434727607 -5.679648931023431 -4.34581590083345 -5.033422479171796 -5.374977584193781 -8.960675142846654 8.717782347093014 -4.299679071733924 -3.357804183026425 7.792885989738224 -1.9722441726970903 7.674966841897323 -3.8366127640593035 -4.903269709346361 6.62165778238332 5.17756423649649 -7.194919825748127 4.983450131130445 2.587870954282945 -4.544622208192697 -1.8094646703240471 1.912615184272834 5.657724350762743 -1.4015233784490189 2.8875897026013657 -3.0828650653694094 -7.698924272075088 -6.796295588326988 4.961227657483793 -2.8746338400414917 
-4.662480482288906 -7.2856586540642105 -3.2988813955199037 -3.804533085879811 -1.3302047786115079 -4.2895383543342 5.676657198160363 -7.262882811500317 -2.482412126867519 0.6913052526688563 -6.409293756031602 -7.5246906730105945 -5.311950592652785 -5.903571924940105 -4.90083793614189 -3.4278788327096477 5.666195919200261 8.041561288537778 -9.58524756850788 -5.4722611420019245 0.30494032540669025 -7.376235945581193 -4.663991535572885 5.998022078732584 -4.303089134807861 -4.34581590083345 -9.01893601600823 -5.374977584193781 -9.166039185402827 8.717782347093014 8.286018969323536 -3.357804183026425 -6.162398942715235 -1.9722441726970903 7.674966841897323 -6.515882437394504 -9.841724887210791 7.5525594418184205 -0.4569888280495267 -0.42886970254423495 4.983450131130445 2.587870954282945 -4.544622208192697 7.207579491504596 1.912615184272834 5.657724350762743 5.250294528026501 6.686681371998976 -3.0828650653694094 7.925434608123144 -6.796295588326988 4.961227657483793 -4.939060684629117 
1.5887911400609394 -7.2856586540642105 5.313295323616256 -1.0353619466464519 -4.442369277458587 -4.2895383543342 5.676657198160363 -7.262882811500317 -2.482412126867519 0.8081386751267754 -6.409293756031602 -7.5246906730105945 -5.311950592652785 -5.903571924940105 -4.90083793614189 -9.401408697169913 -6.906084018414034 8.041561288537778 -9.58524756850788 -5.4722611420019245 0.30494032540669025 -3.6578429905421235 -4.663991535572885 -3.35174405749078 -5.679648931023431 -4.34581590083345 -6.02139907588829 -5.374977584193781 -8.960675142846654 8.717782347093014 8.286018969323536 -1.946438374114944 -6.162398942715235 -1.9722441726970903 7.674966841897323 -3.8366127640593035 -4.903269709346361 6.738788289342821 -1.424851572982062 -0.42886970254423495 4.983450131130445 2.587870954282945 -4.544622208192697 -1.8094646703240471 1.912615184272834 5.657724350762743 -7.205859452042129 6.686681371998976 -3.0828650653694094 7.925434608123144 -6.796295588326988 4.961227657483793 6.494849510275959 
-4.662480482288906 -6.390046887753879 6.392687889943552 -3.804533085879811 1.1234778773374643 6.901188475510814 6.918204774096459 -7.262882811500317 2.6242833245936303 0.6913052526688563 -6.7441481586546725 -7.5246906730105945 -9.484835255496396 -0.6825317159491622 -4.90083793614189 -3.4278788327096477 -5.4398408415885875 -8.931415650637929 -9.58524756850788 -1.1653653393985746 -6.533021220955176 -7.376235945581193 -4.663991535572885 -3.35174405749078 -4.303089134807861 -0.841134724666702 -5.033422479171796 -9.875872789552835 -9.921767581528522 2.4768879779395636 -8.770995385105946 -3.357804183026425 5.859541337722531 -6.2607643567414195 5.083839815015935 1.5579311298257732 -4.903269709346361 7.5525594418184205 -0.4569888280495267 -8.897140052617665 4.983450131130445 -6.36428052884586 2.4407820050237223 -1.8094646703240471 2.5781952808460353 8.159432866675537 5.250294528026501 -4.608280501746966 -0.8967245460783069 -7.698924272075088 3.275852675557191 1.4060432721135037 6.631323348933723 
-4.662480482288906 -6.390046887753879 6.392687889943552 -3.804533085879811 1.1234778773374643 6.901188475510814 6.918204774096459 -7.262882811500317 0.15391949220333956 0.6913052526688563 -6.409293756031602 -7.5246906730105945 -9.484835255496396 -6.0171003766285285 -4.90083793614189 -3.4278788327096477 -5.4398408415885875 3.070042078871957 -9.58524756850788 -2.8397226402554914 -2.499785907759346 -7.376235945581193 -6.068778060552322 -3.35174405749078 -4.303089134807861 -0.841134724666702 -5.033422479171796 -5.374977584193781 -7.932256801634738 2.4768879779395636 -8.770995385105946 -3.357804183026425 2.2991349857189682 -6.2607643567414195 -1.9323209065544091 1.5579311298257732 -4.903269709346361 -0.7564095030900191 -0.4569888280495267 -8.897140052617665 4.983450131130445 -6.170304016644572 -9.143496684534309 7.207579491504596 -7.653555359091464 8.159432866675537 5.250294528026501 -4.608280501746966 8.092615420004332 7.925434608123144 3.275852675557191 4.961227657483793 6.494849510275959 
-7.31104204232627 -6.390046887753879 6.392687889943552 -3.804533085879811 1.1234778773374643 6.901188475510814 7.442695727738339 -7.262882811500317 -2.482412126867519 0.6913052526688563 -6.7441481586546725 -7.5246906730105945 -9.484835255496396 -0.6825317159491622 -4.90083793614189 -3.4278788327096477 -5.4398408415885875 3.070042078871957 -9.58524756850788 -1.1653653393985746 -6.533021220955176 -7.376235945581193 -6.068778060552322 -3.35174405749078 -3.7342804746751597 -0.841134724666702 -9.155801538050113 -5.374977584193781 -7.932256801634738 -0.07204517508458252 -8.770995385105946 9.65730942560199 2.2991349857189682 -6.2607643567414195 1.518831949361898 1.5579311298257732 -4.903269709346361 7.5525594418184205 -0.4569888280495267 -8.897140052617665 4.983450131130445 5.552091456324979 9.616993964784527 7.207579491504596 2.5781952808460353 -5.208835920885637 5.250294528026501 6.055202488982609 8.092615420004332 -7.698924272075088 -6.796295588326988 4.961227657483793 6.494849510275959 
-4.662480482288906 5.311237177099626 6.392687889943552 -3.804533085879811 3.497637137127235 6.901188475510814 7.442695727738339 -7.262882811500317 -2.482412126867519 0.6913052526688563 -6.7441481586546725 -7.5246906730105945 -9.484835255496396 -0.6825317159491622 -4.90083793614189 -8.83082961248499 -5.4398408415885875 3.070042078871957 -9.58524756850788 -1.1653653393985746 0.36965786377980336 -7.376235945581193 7.573142445441793 -3.35174405749078 -4.303089134807861 -0.841134724666702 -9.155801538050113 -5.374977584193781 -7.932256801634738 2.4768879779395636 -8.770995385105946 7.273762512166073 5.859541337722531 -6.2607643567414195 5.083839815015935 -6.769604597282772 9.859369236791213 7.5525594418184205 -0.4569888280495267 -8.897140052617665 4.983450131130445 -6.170304016644572 2.4407820050237223 -1.8094646703240471 2.5781952808460353 6.194615729846767 5.250294528026501 -4.608280501746966 8.092615420004332 7.925434608123144 -6.796295588326988 4.961227657483793 0.19196656794492029 
-4.662480482288906 -6.390046887753879 -3.2988813955199037 -3.804533085879811 -4.442369277458587 6.901188475510814 7.442695727738339 -7.262882811500317 -2.482412126867519 0.6913052526688563 -6.7441481586546725 -7.5246906730105945 -9.484835255496396 -5.903571924940105 -4.90083793614189 8.212891803567647 -6.906084018414034 8.041561288537778 -9.58524756850788 -1.1653653393985746 0.30494032540669025 -7.376235945581193 -6.068778060552322 -3.35174405749078 -4.303089134807861 -0.841134724666702 -9.155801538050113 -5.374977584193781 -7.932256801634738 2.4768879779395636 -8.770995385105946 -3.357804183026425 -6.316123122095531 -1.9722441726970903 5.083839815015935 -3.8366127640593035 -4.903269709346361 7.5525594418184205 -0.4569888280495267 -8.897140052617665 -0.1019743522689982 -6.170304016644572 2.4407820050237223 -1.8094646703240471 2.5781952808460353 6.194615729846767 5.250294528026501 -4.608280501746966 8.092615420004332 7.925434608123144 3.275852675557191 4.961227657483793 6.494849510275959 
-4.662480482288906 -6.390046887753879 0.9847264260987849 -3.804533085879811 1.1234778773374643 6.901188475510814 7.442695727738339 -7.262882811500317 -2.482412126867519 0.6913052526688563 -6.7441481586546725 4.370036186535703 -9.647697564178259 -0.6825317159491622 -4.90083793614189 -3.4278788327096477 -6.906084018414034 3.070042078871957 -9.58524756850788 -1.1653653393985746 -6.533021220955176 -7.376235945581193 -6.068778060552322 -3.35174405749078 -1.9624308808856377 1.2847590279748076 8.970847326271631 -5.938863781146897 2.7495054658957265 4.060939712080188 8.286018969323536 -3.357804183026425 2.2991349857189682 -6.2607643567414195 7.674966841897323 1.5579311298257732 -4.903269709346361 6.738788289342821 -1.424851572982062 -0.42886970254423495 4.983450131130445 2.587870954282945 -4.544622208192697 -1.8094646703240471 2.5781952808460353 6.194615729846767 5.250294528026501 2.975933616077562 8.092615420004332 7.925434608123144 3.275852675557191 4.961227657483793 6.494849510275959 
-4.662480482288906 -6.390046887753879 6.392687889943552 -3.804533085879811 1.1234778773374643 6.901188475510814 7.442695727738339 -7.262882811500317 -7.113812778794086 0.6913052526688563 -6.7441481586546725 -7.5246906730105945 -9.484835255496396 -0.6825317159491622 -4.90083793614189 -3.4278788327096477 -5.4398408415885875 3.070042078871957 -9.58524756850788 -9.084449531090433 -6.533021220955176 -7.376235945581193 -6.068778060552322 -3.35174405749078 -4.303089134807861 -0.841134724666702 -9.155801538050113 -5.374977584193781 -7.932256801634738 2.4768879779395636 -8.770995385105946 -3.7180456583150567 2.2991349857189682 -6.2607643567414195 5.083839815015935 1.5579311298257732 -4.903269709346361 7.5525594418184205 -0.4569888280495267 -8.897140052617665 4.983450131130445 2.587870954282945 2.4407820050237223 7.207579491504596 2.5781952808460353 6.194615729846767 5.250294528026501 -4.608280501746966 8.092615420004332 -7.698924272075088 -6.796295588326988 1.0912417463978024 6.494849510275959 
2.4574542831705024 -6.390046887753879 6.392687889943552 -3.804533085879811 1.1234778773374643 6.901188475510814 6.918204774096459 -7.262882811500317 0.15391949220333956 0.6913052526688563 -6.7441481586546725 -7.5246906730105945 -9.484835255496396 -2.453693703225783 -4.90083793614189 -3.4278788327096477 5.265714666230327 3.070042078871957 -9.58524756850788 -9.084449531090433 -6.533021220955176 -7.376235945581193 -6.068778060552322 0.4980351588445249 -3.3860435813125704 -0.841134724666702 -9.155801538050113 -5.374977584193781 -2.4922685338393187 2.4768879779395636 -8.770995385105946 -3.357804183026425 2.2991349857189682 -1.9722441726970903 5.083839815015935 -6.515882437394504 -4.903269709346361 7.5525594418184205 -0.4569888280495267 -8.897140052617665 4.983450131130445 6.6110161160857785 2.4407820050237223 -1.8094646703240471 2.5781952808460353 6.194615729846767 5.250294528026501 2.8875897026013657 8.092615420004332 7.925434608123144 3.275852675557191 4.961227657483793 2.0936714139041452 
-4.662480482288906 -6.390046887753879 0.9847264260987849 -3.804533085879811 1.1234778773374643 6.901188475510814 5.676657198160363 -7.262882811500317 -2.482412126867519 0.6913052526688563 -6.7441481586546725 -7.5246906730105945 -9.484835255496396 -0.6825317159491622 -4.90083793614189 -3.4278788327096477 -5.4398408415885875 8.041561288537778 -9.58524756850788 -1.1653653393985746 -6.533021220955176 -7.376235945581193 -4.663991535572885 -3.35174405749078 -4.303089134807861 -0.841134724666702 -9.155801538050113 -5.374977584193781 -7.932256801634738 2.4768879779395636 -8.770995385105946 -3.357804183026425 2.2991349857189682 -2.9013550100823853 5.083839815015935 -6.064781280796914 -4.903269709346361 -0.29413469805840187 -0.4569888280495267 -8.897140052617665 4.983450131130445 -6.170304016644572 2.4407820050237223 7.207579491504596 2.5781952808460353 5.657724350762743 5.250294528026501 -6.481111404217845 8.092615420004332 7.925434608123144 3.275852675557191 2.799828328968667 6.494849510275959 
9.10073341266726 -2.079569001950256 0.9847264260987849 -3.804533085879811 1.1234778773374643 -9.788335541065578 6.918204774096459 -3.897273615157868 -2.482412126867519 -3.368843443034746 -6.409293756031602 -1.2198972192053148 -9.647697564178259 -1.8047819367584736 -4.90083793614189 -3.4278788327096477 -6.906084018414034 8.041561288537778 -9.58524756850788 -5.4722611420019245 0.30494032540669025 -7.376235945581193 -4.663991535572885 -3.35174405749078 -5.679648931023431 -4.699658713853405 -4.242352949102628 -5.374977584193781 -8.960675142846654 4.060939712080188 8.286018969323536 -3.357804183026425 5.859541337722531 -2.9013550100823853 1.2819516031433196 0.12142260104447544 0.07260516920303495 7.5525594418184205 -1.424851572982062 3.4042752293281335 8.200509770240132 -6.36428052884586 -4.544622208192697 -8.82142185245425 1.912615184272834 5.657724350762743 -5.024618927406155 6.686681371998976 -3.0828650653694094 7.925434608123144 7.466990239316374 4.961227657483793 4.015498401898528 
9.10073341266726 -7.2856586540642105 0.9847264260987849 -1.0353619466464519 -4.442369277458587 -9.788335541065578 6.585059414600355 -7.262882811500317 -2.482412126867519 9.754117871246663 -6.409293756031602 -1.2198972192053148 -9.647697564178259 -6.122236918688557 5.165770307981838 -3.4278788327096477 -6.906084018414034 3.070042078871957 -9.58524756850788 -5.4722611420019245 0.30494032540669025 -7.376235945581193 -4.663991535572885 -3.35174405749078 -4.303089134807861 -3.7261441188658173 -4.242352949102628 -0.017436412100867216 -8.960675142846654 8.717782347093014 8.286018969323536 8.702430223796036 -6.162398942715235 -2.9013550100823853 7.674966841897323 -6.515882437394504 -4.903269709346361 6.67239544432357 -1.424851572982062 -0.42886970254423495 4.983450131130445 2.587870954282945 -4.544622208192697 -1.8094646703240471 1.912615184272834 0.8608091978239614 5.250294528026501 6.686681371998976 -3.0828650653694094 7.925434608123144 -6.796295588326988 4.961227657483793 6.494849510275959 
-7.31104204232627 -7.2856586540642105 6.361843068999253 -1.0353619466464519 -9.253232302597 6.901188475510814 4.634498983460988 -7.262882811500317 -6.286210677948092 0.6913052526688563 -6.409293756031602 -1.2198972192053148 -9.647697564178259 -5.903571924940105 0.21234601449054935 -3.4278788327096477 -6.906084018414034 -6.239470633134399 -9.58524756850788 -5.4722611420019245 0.30494032540669025 -7.376235945581193 -4.663991535572885 -3.35174405749078 -5.679648931023431 -4.34581590083345 -4.242352949102628 -5.374977584193781 -8.960675142846654 -0.07204517508458252 8.286018969323536 9.65730942560199 5.59855605424702 -2.9013550100823853 7.674966841897323 -8.732758464259618 -2.6619107739614956 6.738788289342821 -1.424851572982062 -0.42886970254423495 4.983450131130445 2.587870954282945 -4.544622208192697 7.207579491504596 1.912615184272834 1.47952044311873 -7.205859452042129 -1.649287016902722 -3.0828650653694094 7.925434608123144 -6.796295588326988 1.0912417463978024 -4.027236655294859 
9.10073341266726 -7.2856586540642105 0.9847264260987849 -1.0353619466464519 -4.621083428929287 -9.788335541065578 7.804804371837829 -7.262882811500317 -2.482412126867519 0.6913052526688563 -6.409293756031602 -7.5246906730105945 -5.311950592652785 -5.903571924940105 -4.90083793614189 -3.4278788327096477 -6.906084018414034 8.041561288537778 -9.58524756850788 -9.084449531090433 -4.097400343297535 -7.376235945581193 -4.663991535572885 -3.35174405749078 -5.679648931023431 -4.34581590083345 -4.242352949102628 -5.374977584193781 -7.932256801634738 4.060939712080188 1.9496610016567395 -0.9920135819152964 -6.162398942715235 -2.9013550100823853 7.674966841897323 -8.732758464259618 -4.903269709346361 7.5525594418184205 -1.424851572982062 -0.42886970254423495 -6.442193124506927 2.587870954282945 -4.544622208192697 -1.8094646703240471 1.912615184272834 5.657724350762743 5.972425603976214 6.686681371998976 -3.0828650653694094 7.925434608123144 3.732961723570048 1.0912417463978024 5.441966337790927 
5.304663018049652 -7.2856586540642105 0.9847264260987849 -1.0353619466464519 -4.442369277458587 -9.788335541065578 5.676657198160363 3.3217247439946895 -2.482412126867519 0.6913052526688563 -6.409293756031602 -1.2198972192053148 -9.647697564178259 -5.903571924940105 -4.90083793614189 -3.4278788327096477 -6.906084018414034 8.041561288537778 -9.58524756850788 -5.4722611420019245 0.30494032540669025 -7.376235945581193 -4.663991535572885 -3.35174405749078 -5.679648931023431 -4.34581590083345 -4.242352949102628 -5.374977584193781 -8.960675142846654 8.717782347093014 8.286018969323536 8.704279280818781 -6.162398942715235 -2.9013550100823853 7.674966841897323 -9.880786896171392 -4.903269709346361 4.386955166703576 -1.424851572982062 -0.42886970254423495 4.983450131130445 2.587870954282945 -4.544622208192697 -3.7969163868221045 1.912615184272834 5.657724350762743 -7.205859452042129 6.686681371998976 -3.0828650653694094 7.925434608123144 -6.796295588326988 4.961227657483793 6.494849510275959 
9.10073341266726 -3.537393645033136 6.392687889943552 -1.0353619466464519 -9.18867463650387 6.901188475510814 5.676657198160363 -7.262882811500317 -2.482412126867519 0.6913052526688563 -2.709948440351752 -1.2198972192053148 -9.647697564178259 -0.6825317159491622 -4.90083793614189 -3.4278788327096477 -6.906084018414034 8.041561288537778 -9.58524756850788 3.6419982038418475 -6.533021220955176 -7.376235945581193 -4.663991535572885 -3.35174405749078 -5.679648931023431 -4.34581590083345 -4.242352949102628 -5.374977584193781 -8.960675142846654 -0.9983296914267541 -8.770995385105946 -3.357804183026425 -6.162398942715235 -2.9013550100823853 7.583251542028485 1.5579311298257732 -4.903269709346361 6.738788289342821 -0.4569888280495267 -8.897140052617665 4.983450131130445 -6.170304016644572 -4.544622208192697 -1.8094646703240471 1.912615184272834 5.657724350762743 5.250294528026501 -4.608280501746966 0.8954787485826117 7.925434608123144 3.275852675557191 4.961227657483793 6.494849510275959 
6.280249089471649 -7.2856586540642105 0.9847264260987849 -1.0353619466464519 -4.442369277458587 6.901188475510814 2.035205626434424 -7.262882811500317 -2.482412126867519 0.6913052526688563 -6.260165097137406 -1.2198972192053148 -9.647697564178259 -5.903571924940105 -4.90083793614189 -3.4278788327096477 -6.906084018414034 3.070042078871957 -9.58524756850788 -9.084449531090433 0.30494032540669025 -4.339623608588743 -4.663991535572885 -3.35174405749078 0.4195479527505448 -4.34581590083345 -4.242352949102628 -5.374977584193781 -8.960675142846654 -0.07204517508458252 -5.343420013723135 3.1968141349947885 -6.162398942715235 -1.9722441726970903 0.6578075823126301 -8.732758464259618 -2.6619107739614956 6.738788289342821 -1.424851572982062 -8.897140052617665 -9.508160240989534 2.587870954282945 -4.544622208192697 -1.8094646703240471 1.912615184272834 -2.3412731247777625 3.3980779940760204 6.686681371998976 -3.0828650653694094 8.410218335057916 -6.796295588326988 4.961227657483793 6.494849510275959 
-4.662480482288906 -7.2856586540642105 0.9847264260987849 -1.0353619466464519 -4.442369277458587 -9.788335541065578 5.676657198160363 -7.262882811500317 -3.2572061977640354 0.6913052526688563 -6.260165097137406 -1.2198972192053148 -9.647697564178259 -1.4235295899768516 -4.90083793614189 -3.4278788327096477 -4.397470685823142 8.041561288537778 -9.58524756850788 -5.4722611420019245 0.30494032540669025 -7.376235945581193 -4.663991535572885 -3.35174405749078 -4.303089134807861 -4.34581590083345 -5.033422479171796 -5.374977584193781 -8.960675142846654 4.060939712080188 -0.4012844013159871 -3.357804183026425 -6.162398942715235 -2.9013550100823853 7.674966841897323 -8.732758464259618 -9.263657840380917 6.738788289342821 -0.4569888280495267 -8.897140052617665 4.983450131130445 2.587870954282945 -4.544622208192697 -3.0751022197948146 1.912615184272834 5.657724350762743 5.250294528026501 6.686681371998976 -3.0828650653694094 7.925434608123144 -6.796295588326988 4.961227657483793 6.494849510275959 
9.10073341266726 -7.2856586540642105 0.9847264260987849 -1.0353619466464519 -4.442369277458587 -9.788335541065578 5.676657198160363 -7.262882811500317 -2.482412126867519 0.6913052526688563 6.012644165042843 -7.5246906730105945 -9.647697564178259 -5.903571924940105 -4.90083793614189 -3.4278788327096477 -9.49436804298222 8.041561288537778 -9.58524756850788 -5.4722611420019245 0.30494032540669025 -7.376235945581193 -4.663991535572885 2.390886003375668 -5.679648931023431 -4.34581590083345 -4.242352949102628 -5.374977584193781 -8.960675142846654 4.060939712080188 8.286018969323536 -3.357804183026425 -6.162398942715235 -2.9013550100823853 7.674966841897323 -8.732758464259618 -4.903269709346361 6.738788289342821 6.339917762908019 -0.42886970254423495 4.983450131130445 2.587870954282945 -4.544622208192697 -1.8094646703240471 1.912615184272834 5.657724350762743 -7.205859452042129 6.686681371998976 -3.0828650653694094 7.925434608123144 -6.796295588326988 4.961227657483793 6.494849510275959 
-7.31104204232627 0.5673855966236481 6.361843068999253 -3.804533085879811 -2.535068844559256 6.901188475510814 2.035205626434424 -7.262882811500317 -2.482412126867519 0.6913052526688563 -6.260165097137406 -7.5246906730105945 -5.311950592652785 -5.399551228613257 -9.707627324628564 -3.4278788327096477 -5.4398408415885875 3.070042078871957 -2.770259035208511 -0.8722738860286938 -6.533021220955176 -7.376235945581193 -4.663991535572885 -3.35174405749078 0.4195479527505448 -6.19735840629242 -5.033422479171796 -5.374977584193781 -7.932256801634738 -0.07204517508458252 -5.343420013723135 -3.953483172382999 -6.162398942715235 -2.9013550100823853 0.6578075823126301 0.5529250382119937 -2.6619107739614956 7.276275523521541 -0.33954884089998316 -8.579804368496296 -0.6278795326388753 2.587870954282945 -4.544622208192697 -8.82142185245425 9.622425545495638 5.657724350762743 3.3980779940760204 2.8875897026013657 8.092615420004332 -7.698924272075088 -6.796295588326988 0.4086056051061586 6.631323348933723 
-7.31104204232627 7.822005093021708 6.361843068999253 -3.804533085879811 -9.136055976870878 6.901188475510814 2.035205626434424 -7.262882811500317 -2.482412126867519 4.600687259589185 -6.260165097137406 -7.5246906730105945 -5.311950592652785 -5.399551228613257 -9.707627324628564 -3.4278788327096477 -5.4398408415885875 3.070042078871957 -9.58524756850788 -6.478024587676707 -6.533021220955176 -7.376235945581193 7.399605373094317 -3.35174405749078 0.4195479527505448 -6.19735840629242 -5.033422479171796 -6.877770033654471 -7.932256801634738 8.717782347093014 -5.343420013723135 8.240724113763392 5.859541337722531 -1.9722441726970903 0.6578075823126301 -6.515882437394504 -2.6619107739614956 7.276275523521541 -0.33954884089998316 -8.897140052617665 -9.508160240989534 6.6110161160857785 -4.544622208192697 7.207579491504596 1.912615184272834 5.657724350762743 5.250294528026501 6.686681371998976 8.092615420004332 -7.698924272075088 6.761699217654712 1.0912417463978024 6.494849510275959 
-7.31104204232627 0.5673855966236481 6.361843068999253 -3.804533085879811 -9.136055976870878 6.901188475510814 -9.035937102665352 -7.262882811500317 -2.482412126867519 0.6913052526688563 -6.260165097137406 -7.5246906730105945 -5.311950592652785 -5.399551228613257 -5.070722597083583 -3.4278788327096477 -5.4398408415885875 3.070042078871957 -9.58524756850788 -9.084449531090433 -6.533021220955176 -1.266266538235982 -4.663991535572885 -3.35174405749078 0.4195479527505448 -6.19735840629242 -5.033422479171796 -5.374977584193781 -7.932256801634738 -0.07204517508458252 4.356866340463892 -3.357804183026425 -6.162398942715235 -1.9722441726970903 0.6578075823126301 0.5529250382119937 -2.6619107739614956 7.276275523521541 -0.33954884089998316 0.7898791959407987 4.983450131130445 2.587870954282945 -4.544622208192697 7.207579491504596 1.912615184272834 -5.709703297266245 3.3980779940760204 2.8875897026013657 -7.856026362827766 -7.698924272075088 -6.796295588326988 1.0912417463978024 -4.027236655294859 
-4.662480482288906 -8.589633160361172 0.9847264260987849 -3.804533085879811 -9.136055976870878 6.901188475510814 2.035205626434424 -7.262882811500317 -2.482412126867519 0.6913052526688563 -6.260165097137406 -7.5246906730105945 1.375615997349069 -5.399551228613257 -9.707627324628564 -3.4278788327096477 -6.906084018414034 3.070042078871957 -9.58524756850788 -9.084449531090433 -6.533021220955176 -7.376235945581193 -4.663991535572885 -3.35174405749078 3.9794124805517974 -6.19735840629242 -5.033422479171796 -5.374977584193781 -7.932256801634738 -0.07204517508458252 8.225622763052229 -3.953483172382999 -6.162398942715235 -1.9722441726970903 -9.368148471876278 0.5529250382119937 -2.6619107739614956 7.276275523521541 -0.33954884089998316 -8.897140052617665 -9.508160240989534 2.587870954282945 -4.544622208192697 7.207579491504596 1.912615184272834 8.159432866675537 -8.425841521077327 2.8875897026013657 -4.745941481102339 -7.698924272075088 -6.796295588326988 1.0912417463978024 6.494849510275959 
9.10073341266726 -7.2856586540642105 6.361843068999253 -3.804533085879811 -4.442369277458587 6.901188475510814 2.035205626434424 -7.262882811500317 -2.482412126867519 0.6913052526688563 -6.260165097137406 -7.5246906730105945 -9.647697564178259 -5.399551228613257 -4.90083793614189 -3.4278788327096477 -5.4398408415885875 3.070042078871957 -9.58524756850788 -9.084449531090433 -6.533021220955176 -7.376235945581193 -4.663991535572885 -3.35174405749078 0.4195479527505448 -6.19735840629242 -5.033422479171796 -5.374977584193781 -7.932256801634738 8.717782347093014 -5.343420013723135 -3.357804183026425 1.9822509768725904 9.775155706590148 7.674966841897323 -3.8366127640593035 -2.6619107739614956 7.276275523521541 -0.33954884089998316 -8.897140052617665 -9.508160240989534 5.486470363695313 -4.544622208192697 7.207579491504596 1.912615184272834 5.657724350762743 3.3980779940760204 2.8875897026013657 8.092615420004332 -7.698924272075088 -6.796295588326988 5.2351831253293355 6.494849510275959 
-7.31104204232627 -6.390046887753879 6.392687889943552 -3.804533085879811 -9.136055976870878 6.901188475510814 2.035205626434424 -7.262882811500317 9.825156951661615 0.6913052526688563 -6.260165097137406 6.286050009479908 -5.311950592652785 -0.6825317159491622 -9.707627324628564 -3.4278788327096477 -5.4398408415885875 3.070042078871957 -9.58524756850788 -9.084449531090433 -6.533021220955176 -7.376235945581193 -4.663991535572885 -3.35174405749078 0.4195479527505448 -0.841134724666702 -5.033422479171796 -5.374977584193781 -7.932256801634738 -0.07204517508458252 -8.770995385105946 8.0204904913886 -6.162398942715235 -1.9722441726970903 0.6578075823126301 1.5579311298257732 -2.9867426787909324 7.276275523521541 -0.33954884089998316 -8.897140052617665 -9.508160240989534 2.587870954282945 -4.544622208192697 7.207579491504596 2.5781952808460353 5.657724350762743 5.250294528026501 2.8875897026013657 8.092615420004332 -7.698924272075088 -6.796295588326988 4.961227657483793 6.494849510275959 
-7.31104204232627 0.5673855966236481 6.361843068999253 -3.804533085879811 -9.136055976870878 6.901188475510814 0.9626853076480213 -7.262882811500317 -2.482412126867519 0.6913052526688563 -6.409293756031602 -7.5246906730105945 -9.647697564178259 -5.399551228613257 -9.707627324628564 -3.4278788327096477 -5.4398408415885875 3.070042078871957 -9.58524756850788 -5.4722611420019245 -6.533021220955176 -7.376235945581193 -4.663991535572885 -3.35174405749078 -5.679648931023431 -6.19735840629242 -5.033422479171796 -5.374977584193781 9.843792070214352 -0.07204517508458252 8.286018969323536 -3.357804183026425 -6.162398942715235 -2.9013550100823853 0.6578075823126301 0.5529250382119937 -2.6619107739614956 7.276275523521541 -0.33954884089998316 -8.897140052617665 -9.508160240989534 2.587870954282945 -3.2614549173740244 7.207579491504596 1.912615184272834 5.657724350762743 -5.94675993435875 -9.521746102903762 8.092615420004332 -7.698924272075088 -6.796295588326988 1.0912417463978024 6.494849510275959 
-7.31104204232627 0.5673855966236481 6.361843068999253 -3.804533085879811 1.1234778773374643 6.901188475510814 7.738979266439024 -7.262882811500317 0.15391949220333956 0.6913052526688563 -6.260165097137406 -1.514492079213671 -5.311950592652785 2.1464818231590286 -4.453948976729844 -3.4278788327096477 -5.4398408415885875 3.070042078871957 -9.58524756850788 -9.084449531090433 -6.533021220955176 -7.376235945581193 8.501767870165803 -3.35174405749078 0.4195479527505448 -6.19735840629242 -5.033422479171796 -5.374977584193781 -8.426454831147739 -0.07204517508458252 -5.343420013723135 -3.357804183026425 -6.162398942715235 -1.9722441726970903 0.6578075823126301 0.5529250382119937 9.271389393364238 7.5525594418184205 -0.4569888280495267 -8.897140052617665 -9.508160240989534 6.6110161160857785 -4.544622208192697 7.207579491504596 1.912615184272834 5.657724350762743 3.3980779940760204 2.8875897026013657 8.092615420004332 -7.698924272075088 0.8007913848255672 1.0912417463978024 6.494849510275959 
-7.31104204232627 0.5673855966236481 6.361843068999253 -1.0353619466464519 -4.442369277458587 6.901188475510814 2.035205626434424 -7.262882811500317 -2.482412126867519 0.6913052526688563 -6.260165097137406 -7.5246906730105945 3.7914827000569247 -6.122236918688557 -9.707627324628564 -3.4278788327096477 -5.4398408415885875 8.041561288537778 -9.58524756850788 -9.084449531090433 -6.533021220955176 -2.8443723930357434 -4.663991535572885 -3.35174405749078 7.338843211211191 -6.19735840629242 -5.033422479171796 -5.374977584193781 -7.932256801634738 -0.07204517508458252 -5.343420013723135 -3.357804183026425 -6.162398942715235 -1.9722441726970903 7.674966841897323 0.5529250382119937 -4.903269709346361 7.276275523521541 -0.33954884089998316 -8.897140052617665 -9.508160240989534 2.587870954282945 -4.544622208192697 7.207579491504596 1.912615184272834 5.657724350762743 -7.205859452042129 2.8875897026013657 2.4032296698552376 0.08283959361235915 -6.796295588326988 1.0912417463978024 6.494849510275959 
-5.246551899740329 -7.2856586540642105 0.9847264260987849 -3.804533085879811 1.1234778773374643 6.901188475510814 -0.06284418589866902 -7.262882811500317 -7.607997347423772 0.6913052526688563 -6.409293756031602 -7.5246906730105945 -5.311950592652785 -5.399551228613257 -4.453948976729844 -3.4278788327096477 -5.4398408415885875 3.070042078871957 -9.58524756850788 -9.084449531090433 -2.499785907759346 -7.376235945581193 -6.068778060552322 -3.35174405749078 -4.303089134807861 -0.841134724666702 2.601684084931824 -8.437709916729448 -9.921767581528522 3.40560719455841 4.921029047430732 -3.357804183026425 -6.162398942715235 -3.067022813760989 1.2819516031433196 -6.515882437394504 -9.841724887210791 7.5525594418184205 -0.4569888280495267 -8.897140052617665 4.983450131130445 6.6110161160857785 -4.544622208192697 7.207579491504596 2.465276507394126 5.657724350762743 5.250294528026501 2.8875897026013657 8.092615420004332 -7.698924272075088 -6.796295588326988 1.0912417463978024 6.494849510275959 
-4.662480482288906 7.197894063909601 6.361843068999253 7.286905758837378 1.1234778773374643 6.901188475510814 6.918204774096459 -7.262882811500317 0.15391949220333956 0.6913052526688563 -6.260165097137406 -7.5246906730105945 -5.311950592652785 -6.122236918688557 -4.091457992670184 -3.4278788327096477 -6.906084018414034 3.070042078871957 -9.58524756850788 7.46271385418212 -2.499785907759346 -7.376235945581193 4.116152932044145 -3.35174405749078 -4.303089134807861 -0.841134724666702 -5.033422479171796 -5.374977584193781 -7.932256801634738 3.40560719455841 4.921029047430732 -3.357804183026425 -6.162398942715235 2.846086889917226 1.2819516031433196 -6.515882437394504 -9.841724887210791 7.5525594418184205 -0.4569888280495267 -8.897140052617665 4.983450131130445 6.6110161160857785 -4.544622208192697 7.207579491504596 2.465276507394126 5.657724350762743 5.250294528026501 2.8875897026013657 8.092615420004332 -2.3945310187684354 -6.796295588326988 4.961227657483793 6.494849510275959 
-7.31104204232627 -7.2856586540642105 6.361843068999253 -3.804533085879811 1.1234778773374643 6.901188475510814 8.884363604842378 -7.262882811500317 -2.482412126867519 0.6913052526688563 -6.260165097137406 -7.5246906730105945 -5.311950592652785 -6.122236918688557 -4.453948976729844 -3.4278788327096477 -5.4398408415885875 3.070042078871957 -9.58524756850788 -9.084449531090433 -2.499785907759346 -7.376235945581193 -6.068778060552322 -3.35174405749078 -4.303089134807861 -0.841134724666702 -5.033422479171796 -5.374977584193781 -7.932256801634738 -3.1014383365911264 4.921029047430732 -3.357804183026425 -6.162398942715235 -1.9722441726970903 1.2819516031433196 -6.515882437394504 -9.841724887210791 7.276275523521541 -0.4569888280495267 -8.897140052617665 4.983450131130445 -9.7868048295227 -4.544622208192697 7.207579491504596 2.465276507394126 5.657724350762743 5.250294528026501 2.8875897026013657 8.092615420004332 7.925434608123144 -6.796295588326988 1.0912417463978024 6.494849510275959 
-4.662480482288906 -7.2856586540642105 0.9847264260987849 -3.804533085879811 4.746237738686114 -4.2895383543342 6.918204774096459 -7.262882811500317 0.15391949220333956 0.6913052526688563 6.9550100157264865 -5.863284524576223 -5.311950592652785 -6.122236918688557 -4.453948976729844 -3.4278788327096477 -5.4398408415885875 3.070042078871957 -9.58524756850788 -9.084449531090433 -2.499785907759346 -7.376235945581193 -6.068778060552322 -3.35174405749078 -4.303089134807861 -0.841134724666702 -5.033422479171796 -5.374977584193781 -7.932256801634738 3.40560719455841 6.189865600719273 4.55270870431554 5.859541337722531 -1.9722441726970903 7.291452239358314 -6.515882437394504 -9.841724887210791 7.5525594418184205 -0.4569888280495267 -8.897140052617665 5.251471413420369 6.6110161160857785 -4.544622208192697 7.207579491504596 -8.967574671286016 8.159432866675537 5.250294528026501 2.8875897026013657 8.092615420004332 7.925434608123144 -6.796295588326988 1.0912417463978024 6.494849510275959 
-4.662480482288906 -7.2856586540642105 6.361843068999253 -3.804533085879811 1.1234778773374643 6.901188475510814 6.918204774096459 -7.262882811500317 0.15391949220333956 0.6913052526688563 -6.260165097137406 -7.5246906730105945 -5.311950592652785 -6.122236918688557 -4.453948976729844 -3.4278788327096477 -5.4398408415885875 3.070042078871957 -9.58524756850788 -5.4722611420019245 -2.499785907759346 -7.376235945581193 -4.663991535572885 -3.35174405749078 -4.303089134807861 6.071168352514125 -5.033422479171796 -5.374977584193781 -7.932256801634738 3.40560719455841 8.286018969323536 -5.908797162332197 -6.162398942715235 -1.9722441726970903 7.674966841897323 -6.515882437394504 -9.841724887210791 7.5525594418184205 -0.4569888280495267 -3.1607025770689745 4.983450131130445 6.6110161160857785 -4.544622208192697 7.207579491504596 1.912615184272834 -3.787479008763559 -7.205859452042129 2.8875897026013657 -3.0828650653694094 7.925434608123144 -6.796295588326988 4.961227657483793 6.494849510275959 
-4.662480482288906 -7.2856586540642105 6.361843068999253 -3.804533085879811 1.1234778773374643 6.901188475510814 6.918204774096459 -7.262882811500317 0.15391949220333956 8.718115601803522 -6.260165097137406 -7.5246906730105945 -5.311950592652785 -0.6825317159491622 -4.453948976729844 -3.4278788327096477 4.5597036193907226 3.070042078871957 -9.58524756850788 -9.084449531090433 -2.499785907759346 8.470304738567446 -4.636630774035019 -3.35174405749078 -4.303089134807861 -0.841134724666702 -5.033422479171796 -5.374977584193781 -7.932256801634738 -1.406816709347872 -8.770995385105946 -3.357804183026425 -5.652889336822935 -1.9722441726970903 1.2819516031433196 -6.515882437394504 -9.841724887210791 7.5525594418184205 -0.4569888280495267 -8.897140052617665 4.983450131130445 6.6110161160857785 2.4407820050237223 -1.8094646703240471 2.5781952808460353 6.194615729846767 8.54227898476018 2.8875897026013657 8.092615420004332 7.925434608123144 3.275852675557191 1.0912417463978024 6.494849510275959 
-4.662480482288906 -7.2856586540642105 6.361843068999253 -3.804533085879811 1.1234778773374643 6.901188475510814 6.918204774096459 -7.262882811500317 -2.482412126867519 0.6913052526688563 -6.260165097137406 -1.2198972192053148 -5.311950592652785 -5.903571924940105 -4.453948976729844 -3.4278788327096477 -5.4398408415885875 8.041561288537778 -7.087412842007232 -9.084449531090433 0.30494032540669025 -7.376235945581193 -6.068778060552322 -3.35174405749078 -4.303089134807861 -0.841134724666702 8.140515328071068 -5.374977584193781 -7.932256801634738 3.40560719455841 8.286018969323536 -3.357804183026425 -6.162398942715235 -1.9722441726970903 1.2819516031433196 -6.515882437394504 -9.841724887210791 7.5525594418184205 -0.4569888280495267 -8.897140052617665 4.983450131130445 5.99989717741286 -4.544622208192697 -1.8094646703240471 1.912615184272834 5.657724350762743 5.250294528026501 0.25799804351535016 8.092615420004332 7.925434608123144 -6.796295588326988 1.0912417463978024 6.494849510275959 
-7.31104204232627 -7.2856586540642105 6.361843068999253 -3.804533085879811 1.1234778773374643 6.901188475510814 6.918204774096459 -7.262882811500317 0.15391949220333956 0.6913052526688563 -6.260165097137406 -7.5246906730105945 -5.311950592652785 1.7872581948330524 -4.453948976729844 -3.4278788327096477 -5.4398408415885875 3.070042078871957 -9.58524756850788 -6.56035561012938 -2.499785907759346 -7.376235945581193 -6.068778060552322 -3.35174405749078 0.4195479527505448 -6.19735840629242 -5.033422479171796 -5.374977584193781 -7.932256801634738 3.40560719455841 -5.052542688390864 -3.357804183026425 -6.162398942715235 -1.9722441726970903 1.2819516031433196 -6.515882437394504 -9.841724887210791 7.276275523521541 -0.4569888280495267 -8.897140052617665 4.983450131130445 6.6110161160857785 -4.544622208192697 7.207579491504596 2.465276507394126 5.657724350762743 5.250294528026501 2.8875897026013657 8.092615420004332 7.925434608123144 -6.796295588326988 1.0912417463978024 6.494849510275959 
-4.662480482288906 -7.2856586540642105 6.361843068999253 -3.804533085879811 -4.442369277458587 6.901188475510814 6.918204774096459 -7.262882811500317 0.15391949220333956 0.6913052526688563 -6.260165097137406 -7.5246906730105945 -5.311950592652785 -6.122236918688557 -4.90083793614189 -3.4278788327096477 -5.4398408415885875 3.070042078871957 -9.58524756850788 -9.084449531090433 -2.499785907759346 -1.1672108186565922 -6.068778060552322 -3.35174405749078 -4.303089134807861 6.776529393088843 1.7052637280113387 -5.374977584193781 -8.960675142846654 8.717782347093014 8.286018969323536 -3.357804183026425 -6.162398942715235 -1.9722441726970903 1.2819516031433196 -6.064781280796914 4.734703543666264 7.5525594418184205 -0.4569888280495267 -5.914682698621543 4.983450131130445 -3.6868818980521105 -4.544622208192697 7.207579491504596 2.465276507394126 5.657724350762743 5.250294528026501 6.686681371998976 8.092615420004332 7.925434608123144 -6.796295588326988 1.0912417463978024 6.494849510275959 
9.10073341266726 0.5673855966236481 0.9847264260987849 -3.804533085879811 -4.442369277458587 6.901188475510814 5.676657198160363 -7.262882811500317 -2.482412126867519 0.6913052526688563 -6.409293756031602 -7.5246906730105945 -5.311950592652785 -6.122236918688557 -4.90083793614189 -3.4278788327096477 2.3506179532070313 1.8358880727977027 -9.58524756850788 -5.4722611420019245 0.30494032540669025 -7.376235945581193 3.566379745267925 -3.35174405749078 -9.693755845317716 -4.34581590083345 -4.242352949102628 -5.374977584193781 -8.960675142846654 8.717782347093014 8.286018969323536 -3.953483172382999 5.859541337722531 -2.9013550100823853 7.674966841897323 -6.064781280796914 -4.903269709346361 7.5525594418184205 -9.25047536399185 -0.42886970254423495 4.983450131130445 0.8145974370932052 -4.544622208192697 7.207579491504596 1.912615184272834 5.657724350762743 -7.205859452042129 6.686681371998976 -3.0828650653694094 7.925434608123144 -6.796295588326988 4.070673086322998 6.494849510275959 
9.10073341266726 -7.2856586540642105 0.9847264260987849 -1.0353619466464519 7.953738142694547 6.901188475510814 6.918204774096459 -7.262882811500317 -2.482412126867519 0.6913052526688563 -6.409293756031602 -7.5246906730105945 -5.311950592652785 -6.122236918688557 -4.90083793614189 -3.4278788327096477 -6.906084018414034 8.041561288537778 -9.58524756850788 -5.4722611420019245 0.30494032540669025 -7.376235945581193 -4.663991535572885 -3.35174405749078 -4.303089134807861 -4.34581590083345 -5.033422479171796 -5.374977584193781 -8.960675142846654 8.717782347093014 -8.770995385105946 -8.169897315338092 5.859541337722531 -5.169588866730265 7.674966841897323 -6.064781280796914 -4.903269709346361 7.5525594418184205 -1.424851572982062 -8.897140052617665 4.983450131130445 2.587870954282945 -3.752726500478296 7.207579491504596 1.912615184272834 1.357436738485367 -7.205859452042129 6.686681371998976 -3.0828650653694094 7.925434608123144 3.1905031205509093 4.961227657483793 6.759388635381114 
-7.31104204232627 -7.2856586540642105 0.9847264260987849 -1.0353619466464519 -4.442369277458587 -5.6629860130948035 5.676657198160363 -7.262882811500317 -2.482412126867519 0.6913052526688563 -6.409293756031602 -7.5246906730105945 -5.311950592652785 -6.122236918688557 -4.90083793614189 -3.4278788327096477 -6.906084018414034 8.041561288537778 2.692787751060937 -5.4722611420019245 0.30494032540669025 -7.376235945581193 -4.663991535572885 -3.35174405749078 -5.679648931023431 -4.34581590083345 -4.242352949102628 -0.5755528929876501 -7.932256801634738 8.717782347093014 -5.343420013723135 -3.953483172382999 -6.162398942715235 -2.9013550100823853 5.378614430759161 -6.064781280796914 -4.903269709346361 9.661717167491812 -1.424851572982062 -0.42886970254423495 4.983450131130445 2.587870954282945 -4.544622208192697 7.207579491504596 1.912615184272834 5.657724350762743 -7.205859452042129 6.686681371998976 8.092615420004332 -7.698924272075088 8.6997387149712 1.0912417463978024 -4.027236655294859 
9.10073341266726 -7.2856586540642105 0.9847264260987849 -3.804533085879811 3.497637137127235 6.901188475510814 5.676657198160363 -7.262882811500317 -2.482412126867519 -5.565379030349897 -6.409293756031602 -7.5246906730105945 -5.311950592652785 -6.122236918688557 -4.90083793614189 -3.4278788327096477 -6.906084018414034 8.041561288537778 -9.58524756850788 -9.084449531090433 0.30494032540669025 -7.376235945581193 -4.663991535572885 -3.35174405749078 -4.303089134807861 -4.34581590083345 -4.242352949102628 1.7402415143409673 -8.960675142846654 -2.1478922549972967 8.286018969323536 -3.953483172382999 5.859541337722531 -2.9013550100823853 7.674966841897323 -6.515882437394504 -4.903269709346361 7.5525594418184205 7.530905793462772 -0.42886970254423495 4.983450131130445 -6.36428052884586 -4.544622208192697 7.207579491504596 1.912615184272834 8.159432866675537 -7.205859452042129 6.686681371998976 -3.0828650653694094 7.925434608123144 -6.796295588326988 1.0912417463978024 6.494849510275959 
9.10073341266726 -7.2856586540642105 0.9847264260987849 -1.0353619466464519 -4.442369277458587 6.901188475510814 5.676657198160363 -7.262882811500317 -2.482412126867519 0.6913052526688563 -6.409293756031602 -7.5246906730105945 -5.311950592652785 -6.122236918688557 -4.90083793614189 -3.4278788327096477 -6.906084018414034 8.041561288537778 -9.58524756850788 -5.4722611420019245 0.30494032540669025 -7.376235945581193 -4.663991535572885 -3.35174405749078 -5.679648931023431 -4.34581590083345 -6.02139907588829 -5.374977584193781 -8.960675142846654 8.717782347093014 8.286018969323536 -3.953483172382999 -6.162398942715235 -1.9722441726970903 7.674966841897323 -6.064781280796914 -4.903269709346361 6.738788289342821 -1.424851572982062 1.7561109020120558 4.983450131130445 2.587870954282945 -4.544622208192697 -1.8094646703240471 1.912615184272834 5.657724350762743 -7.205859452042129 6.686681371998976 -3.0828650653694094 7.925434608123144 -6.796295588326988 1.0912417463978024 6.494849510275959 
9.10073341266726 -7.2856586540642105 0.9847264260987849 -1.0353619466464519 -4.442369277458587 6.901188475510814 1.7539929204151488 -7.262882811500317 -2.482412126867519 0.6913052526688563 -6.409293756031602 -9.88384577629867 -9.484835255496396 0.5527708971317438 -4.90083793614189 -3.4278788327096477 -6.906084018414034 3.070042078871957 -2.8748097337972167 -1.1653653393985746 0.30494032540669025 -7.376235945581193 -6.068778060552322 -3.35174405749078 -5.679648931023431 -3.28544278019129 -4.242352949102628 -5.374977584193781 -8.960675142846654 8.717782347093014 8.286018969323536 2.6364136921081194 -6.162398942715235 -2.9013550100823853 5.083839815015935 -6.064781280796914 -4.903269709346361 -7.707252782758276 -1.424851572982062 -8.897140052617665 4.983450131130445 2.587870954282945 -4.544622208192697 -1.8094646703240471 2.5781952808460353 5.657724350762743 -7.205859452042129 0.2993804517718388 -3.0828650653694094 7.925434608123144 3.275852675557191 1.0912417463978024 6.494849510275959 
9.10073341266726 -7.2856586540642105 0.9847264260987849 -1.0353619466464519 -4.442369277458587 6.901188475510814 5.676657198160363 -7.262882811500317 -2.482412126867519 0.6913052526688563 -6.368330508885673 -7.5246906730105945 -5.311950592652785 -5.903571924940105 -4.90083793614189 -3.4278788327096477 -6.906084018414034 8.041561288537778 -9.58524756850788 -5.4722611420019245 0.30494032540669025 -7.376235945581193 -4.663991535572885 -3.35174405749078 -5.679648931023431 -4.34581590083345 -4.242352949102628 -5.374977584193781 -8.960675142846654 8.11685878127053 8.286018969323536 -3.953483172382999 1.2633479061399289 9.510393230836158 7.674966841897323 -8.709027360699741 -4.903269709346361 7.5525594418184205 -1.424851572982062 -0.42886970254423495 4.983450131130445 2.587870954282945 -4.544622208192697 7.207579491504596 -4.189568232504788 5.657724350762743 -7.205859452042129 -1.1648042107194438 -3.0828650653694094 7.287132439871769 -6.796295588326988 1.0912417463978024 7.5546554703085 
9.10073341266726 -7.2856586540642105 0.9847264260987849 -1.0353619466464519 -4.442369277458587 6.901188475510814 5.676657198160363 -7.262882811500317 1.2221526914190477 0.6913052526688563 -6.409293756031602 -8.658751157493043 -5.311950592652785 -5.399551228613257 -4.90083793614189 -3.4278788327096477 -6.906084018414034 8.041561288537778 -9.58524756850788 -5.4722611420019245 0.30494032540669025 -7.376235945581193 -4.663991535572885 -3.35174405749078 -5.679648931023431 -4.34581590083345 -5.033422479171796 -5.374977584193781 -8.960675142846654 8.717782347093014 8.286018969323536 -3.357804183026425 -6.162398942715235 -2.9013550100823853 7.674966841897323 0.5529250382119937 -4.248828516558563 7.5525594418184205 -1.424851572982062 -0.42886970254423495 1.1926821422402192 2.587870954282945 -4.544622208192697 7.207579491504596 1.912615184272834 5.657724350762743 -7.205859452042129 6.686681371998976 8.092615420004332 7.925434608123144 -6.796295588326988 9.17731592191452 6.494849510275959 
-4.662480482288906 1.128173091714629 0.9847264260987849 -4.277606982477895 4.289172339753581 6.901188475510814 9.168024809365356 -7.262882811500317 -2.482412126867519 0.6913052526688563 -6.260165097137406 -7.5246906730105945 -5.311950592652785 -6.122236918688557 -1.2734236768118485 -3.4278788327096477 -6.906084018414034 3.070042078871957 -9.58524756850788 -9.084449531090433 0.30494032540669025 4.873781458307283 -4.663991535572885 -3.35174405749078 -5.679648931023431 -4.34581590083345 -4.242352949102628 -5.374977584193781 -7.932256801634738 8.717782347093014 8.286018969323536 1.7655440900358759 -6.162398942715235 -1.9722441726970903 7.674966841897323 -6.064781280796914 -4.903269709346361 7.5525594418184205 -1.424851572982062 -0.42886970254423495 4.983450131130445 3.0425129101783472 -4.544622208192697 7.207579491504596 1.912615184272834 5.657724350762743 5.250294528026501 6.686681371998976 -3.0828650653694094 7.925434608123144 -6.796295588326988 1.0912417463978024 6.494849510275959 
