6.624483637842722 -7.683442298740153 -5.748012153305009 -0.3114600601433679 -5.021322122486747 -6.158629363812198 2.6933602995027446 -9.59535879592504 -2.482412126867519 -5.835239646950921 -8.493940263273505 -3.6643041373830654 -5.311950592652785 -3.262629574183391 -9.707627324628564 -3.4278788327096477 -8.408182771159113 -3.7152437005048338 -9.58524756850788 7.0256996855147875 -8.67207132184908 -5.403847635619785 -8.140820748355953 -9.492869108375672 -9.33973611107713 -5.406569781397376 1.1694926489149982 -1.5754404414814154 -6.908360634559583 3.7171010727668943 8.518416588553812 -6.36182409749138 2.589080929155765 7.678228927758806 1.741795983712377 -6.607364056631044 -8.097269759049704 -2.8769815521204585 6.013603528067339 -3.4341919743944356 -4.064765814027291 2.587870954282945 -4.544622208192697 -5.895886593440219 1.912615184272834 0.13525901178840982 0.08359345417144404 0.3594222910814988 7.926644140589808 -2.127167621686759 -2.1842853717047 -4.5670006136620405 6.631323348933723 
6.624483637842722 2.990598145779238 -5.748012153305009 -3.0859192636212196 -0.8863536150552669 2.535226245456643 -8.123174987581303 -9.59535879592504 -2.482412126867519 -7.330930024778029 -8.493940263273505 -3.6643041373830654 -5.311950592652785 -0.6425017128918693 -9.707627324628564 -3.4278788327096477 -8.69170252502217 -1.889072538288314 -9.58524756850788 -8.096142828596998 -2.004206761349055 -5.403847635619785 -8.140820748355953 -3.35174405749078 -9.33973611107713 -2.6402216541322705 -5.033422479171796 -2.292805181343316 -6.908360634559583 -0.8380113630225665 -1.9006358591864458 9.303590043414374 0.3007229790752781 7.050093994150902 -7.399678679089236 -6.607364056631044 2.6144026315516182 -1.8954927158997297 -5.690658352014406 -8.166477017619627 6.645550174146287 2.587870954282945 -4.544622208192697 7.88964248108671 1.912615184272834 0.13525901178840982 0.08359345417144404 -3.5609895701681786 5.6260647584323635 4.194288247603771 -2.1842853717047 -4.5670006136620405 6.631323348933723 
4.295162962290908 -8.874336961250147 -5.748012153305009 -0.3114600601433679 7.355199297917011 -6.158629363812198 2.6933602995027446 -9.59535879592504 2.1537910979242074 0.6913052526688563 -4.917008894025347 -3.6643041373830654 -5.311950592652785 -3.262629574183391 1.9032259116758325 -3.4278788327096477 -8.352518445438722 2.2985498865361045 -9.58524756850788 8.578707933987868 -8.67207132184908 -5.558325049150035 -8.140820748355953 -7.57248556624851 -9.672819092728904 -9.513609295636885 -0.653731333312507 -1.5754404414814154 1.704769137044389 4.100982563520786 -3.599856584634205 -4.7261034697930215 -5.0018421312944135 0.3262353069457049 -7.399678679089236 9.299525427717612 -8.097269759049704 8.309513190437517 -3.9900020352104075 -8.166477017619627 -8.891174056109868 -2.607470528280511 -4.544622208192697 -5.895886593440219 1.912615184272834 -9.630548077056806 0.08359345417144404 0.3594222910814988 -0.5902113860794795 4.194288247603771 -2.1842853717047 -8.649839626579702 6.631323348933723 
6.624483637842722 -8.874336961250147 -5.748012153305009 -0.3114600601433679 5.101555408123151 -6.158629363812198 2.6933602995027446 -9.59535879592504 -2.482412126867519 0.6913052526688563 0.572733279969885 -3.6643041373830654 -2.3484751589657655 -4.377060427221828 -9.707627324628564 -3.4278788327096477 -8.352518445438722 -3.7152437005048338 -9.58524756850788 1.2171977413904482 -8.67207132184908 -5.516777572712684 -6.88275298819784 -3.35174405749078 -9.33973611107713 -5.406569781397376 -5.033422479171796 -1.5754404414814154 -6.908360634559583 3.7171010727668943 -5.6803714178734 -3.953483172382999 4.212270433998151 4.49244414177482 5.899765535611481 -6.607364056631044 -8.097269759049704 -1.8954927158997297 -3.9900020352104075 -5.543431094197013 6.645550174146287 -9.2609023477757 -4.544622208192697 -5.895886593440219 1.359537440569504 -2.5128568444595896 0.08359345417144404 -6.30662504473592 -9.276043203837386 2.4494861880116314 -5.260094374886403 -4.5670006136620405 1.6839174370464889 
6.624483637842722 -8.874336961250147 -5.748012153305009 -0.3114600601433679 7.355199297917011 -6.158629363812198 2.6933602995027446 -9.59535879592504 -2.482412126867519 0.6913052526688563 -8.493940263273505 -3.6643041373830654 -5.311950592652785 -3.262629574183391 -9.707627324628564 -3.4278788327096477 -7.299879373889024 -3.7152437005048338 -9.58524756850788 -3.554246712605278 1.6706484265081034 -5.403847635619785 -8.140820748355953 -9.121937551090387 -9.33973611107713 -5.406569781397376 -5.033422479171796 -6.685609380037965 -6.908360634559583 4.100982563520786 -1.9006358591864458 -1.078289631102109 0.3007229790752781 7.678228927758806 -7.399678679089236 -6.607364056631044 -4.966676720713481 -1.8954927158997297 9.409779078803393 4.9764937126300275 8.712169972747812 2.587870954282945 -4.544622208192697 -1.440671472346061 7.2641932898796675 0.13525901178840982 1.3040604511232736 -2.2332028203077003 7.926644140589808 4.194288247603771 -6.697573463735438 -3.227752900883041 0.5941862397247419 
-7.93296788617547 -8.874336961250147 -5.748012153305009 -0.3114600601433679 5.101555408123151 -6.158629363812198 2.6933602995027446 -5.225777562227371 -8.172088790866203 -7.142451599861504 -8.493940263273505 3.61303241139929 -5.311950592652785 -8.955174458750815 -8.61817535604035 -3.4278788327096477 -8.352518445438722 3.070042078871957 -9.58524756850788 1.2171977413904482 -8.67207132184908 -5.516777572712684 -8.140820748355953 -6.372651618966927 -3.76857293444359 -2.6402216541322705 -5.033422479171796 -1.5805033459316693 -6.908360634559583 4.100982563520786 -1.9006358591864458 7.034817762853695 8.651376656524285 -2.9013550100823853 0.3358498090212336 -6.607364056631044 -8.097269759049704 -6.175391854617727 -3.9900020352104075 -8.166477017619627 6.645550174146287 2.587870954282945 -6.014316371773436 -5.895886593440219 1.912615184272834 5.657724350762743 6.755009608108363 0.3594222910814988 7.926644140589808 4.194288247603771 9.371496893182655 -4.5670006136620405 6.631323348933723 
-7.93296788617547 -8.874336961250147 -4.484141760308802 -0.3114600601433679 5.101555408123151 6.901188475510814 2.6933602995027446 -9.59535879592504 -7.721354124312516 -5.835239646950921 0.572733279969885 -4.304465208039623 -5.311950592652785 -3.262629574183391 -8.61817535604035 -9.055504301513128 -5.4398408415885875 3.070042078871957 -9.58524756850788 1.2171977413904482 -8.67207132184908 -5.516777572712684 0.8429550338935758 -3.35174405749078 -3.76857293444359 -2.6402216541322705 -5.033422479171796 -1.5754404414814154 -6.908360634559583 3.7171010727668943 0.24483556403178142 4.0475478883390466 8.651376656524285 -2.9013550100823853 0.3358498090212336 -0.5158449135477348 -8.097269759049704 8.67063431413953 -9.25047536399185 4.703631979349751 6.645550174146287 2.587870954282945 -4.544622208192697 -5.895886593440219 1.912615184272834 5.657724350762743 6.755009608108363 0.3594222910814988 -0.2513434317369878 0.4499897817632288 -2.1842853717047 -4.0912695014215394 6.631323348933723 
-7.93296788617547 -3.632836454520991 -4.92721245626649 7.10750448535812 -9.253232302597 6.901188475510814 5.692910972278957 -9.59535879592504 -2.482412126867519 -5.835239646950921 -8.345083555995217 -0.47682235987635124 -8.207207622456831 -5.399551228613257 -8.61817535604035 -3.7219542368560976 -4.199598968883587 -7.7919707242824865 -9.58524756850788 8.578707933987868 -1.06204754505071 -3.4939913315380933 -8.003310966507138 -0.5206154416051234 -6.221128248712972 -2.6402216541322705 -5.033422479171796 -1.5754404414814154 -6.908360634559583 5.4655231075360895 -6.48684076974027 5.7472800404023445 -3.028736753318033 -1.9722441726970903 2.442883933251771 0.16419546562587684 -4.903269709346361 4.666063590082732 -8.355280267544813 -8.897140052617665 -5.907204925833733 3.0240007575794863 1.7700850115965174 -8.82142185245425 -5.085202411165344 0.13525901178840982 6.755009608108363 -4.501182705001616 8.092615420004332 -7.698924272075088 8.830494622532992 -8.952716433436516 1.0441857293496568 
7.599314456683352 3.3787391203982224 -1.5327613770204724 -5.806206412732704 -0.21192409025670322 0.2895187959421506 6.918204774096459 -7.081713598690669 -5.976397244841863 -4.422385776139269 -2.669714036758273 -4.222339949039002 -5.311950592652785 -9.013555284239219 -8.798073061514218 -9.48867383064221 -8.69170252502217 3.070042078871957 -9.58524756850788 8.511898429300548 -8.67207132184908 -2.907011079596062 -8.003310966507138 -6.099908260636157 -4.771514708467215 1.913708427564341 -8.70913690983265 -2.292805181343316 1.2782067270235409 -8.706757905473552 8.962977625494094 -9.329736995251988 -4.937913521678854 -4.623651423405509 -7.399678679089236 -2.4333790616579654 -2.6619107739614956 -8.984530536160637 3.5100106166954035 -3.324495843894595 6.177878874137036 8.020470215779579 2.034761528848996 -2.475116533699677 -3.3015630284141118 5.657724350762743 8.261243094872228 -3.5609895701681786 -4.461639250213905 2.1362991360300736 3.8427617417822866 8.805349181570762 8.065679548287982 
7.121731163371624 -1.0117527493592924 -3.2088061802001207 -5.6011385539194825 2.9853557929715038 -0.2564381958839679 8.233712753907842 -9.59535879592504 -5.1526106121163 -4.759273781805248 -2.0819894306963738 -7.5246906730105945 -5.311950592652785 -3.262629574183391 -8.61817535604035 -0.8376695604754492 -8.69170252502217 3.070042078871957 -9.58524756850788 8.511898429300548 -1.7447008559010602 -6.543453872684195 -8.003310966507138 -1.2349434729512936 -3.76857293444359 -2.6402216541322705 -7.597168696472874 -1.5754404414814154 -1.7901161287946703 3.7171010727668943 -0.2205628170874654 -9.058966448038298 4.640818235430302 -4.884528699430595 -7.399678679089236 -2.4333790616579654 -7.434508053735202 8.309513190437517 4.817318721186432 -0.18111813932728538 6.177878874137036 1.3008328884975189 7.376046701105494 -2.475116533699677 1.912615184272834 6.596087580457773 -2.7849857013836026 -3.5609895701681786 5.6260647584323635 -7.698924272075088 3.8427617417822866 8.805349181570762 6.631323348933723 
8.552165587241355 2.719741114157543 -9.2215220216816 6.074957812497921 7.775491928916928 -3.385824854622199 -5.4493232263500735 -6.424102596061669 -0.40624413199139653 2.4720339532327316 -7.256843824528465 -3.179204759672376 -3.7958546157837265 -0.06533829734053143 0.8128366302914181 -8.363491459123175 6.7091253759705545 -0.35567575946150853 -9.57353179902874 8.30463010806136 -2.3702381496592073 -6.1828705291690556 -6.104327105268061 0.7117647448152304 -5.0761094039162575 -1.016777293455016 -8.26937908385977 -2.291887620248758 -3.203325357618068 -3.956613196515118 -0.6053711406639231 -1.1343454869206795 5.124611575515095 4.299169961903566 -3.238573867179886 -6.274878565540101 3.7512655626536535 -0.5893202311202757 -0.6437795564728859 -4.515582524470334 -3.8347112535616272 8.306054382626709 -9.71726829321549 -9.326191276432137 7.850118214440073 0.9548713613386628 -3.939351459938858 -8.39792392661552 -5.673874176246418 6.560707721677272 -4.851819044535503 -0.5732599288399669 -2.7138639197143437 
-0.9656380562362425 2.719741114157543 7.135505166761391 9.620274899835039 8.67310523953438 -5.881267584104723 -5.4493232263500735 -5.638908368407396 -0.40624413199139653 2.4720339532327316 -9.241713781684325 -3.179204759672376 -9.191086523921982 -0.06533829734053143 0.8128366302914181 -9.042333836838361 -4.484023606251235 -0.35567575946150853 -8.325386713239403 8.30463010806136 -2.3702381496592073 -6.1828705291690556 -4.676222990567929 -8.450615851357988 -5.0761094039162575 -2.3978192281964494 -6.709256266441397 -2.291887620248758 -3.203325357618068 -6.864056524100439 7.358695261133484 -1.1343454869206795 6.09343041183369 4.299169961903566 -3.238573867179886 -6.274878565540101 3.7512655626536535 -6.292064117539995 -0.6437795564728859 -4.515582524470334 -9.510754976592983 8.306054382626709 -9.71726829321549 -9.326191276432137 7.850118214440073 3.3529731651172767 -3.939351459938858 1.9620282103490219 -8.5145499463533 6.560707721677272 -4.851819044535503 -0.5732599288399669 -2.7138639197143437 
-0.9656380562362425 2.719741114157543 -7.088953275845309 6.074957812497921 7.775491928916928 -3.385824854622199 -5.4493232263500735 -7.814449932310441 -0.40624413199139653 2.4720339532327316 -9.241713781684325 -3.179204759672376 -4.2014464202079775 -5.152982833193105 0.8128366302914181 -6.787487149880156 -5.254744152044697 -9.267276889215864 -9.57353179902874 8.30463010806136 -2.3702381496592073 -6.1828705291690556 -4.676222990567929 -2.036363202189313 -5.0761094039162575 -2.3978192281964494 -6.709256266441397 -2.291887620248758 -3.203325357618068 -3.956613196515118 -0.6053711406639231 -1.1343454869206795 6.09343041183369 4.299169961903566 -3.238573867179886 -6.274878565540101 3.7512655626536535 -6.292064117539995 -0.6437795564728859 -5.977768781684989 2.2552683621161567 -1.4011584778798962 -9.71726829321549 -9.326191276432137 7.850118214440073 3.3529731651172767 -3.939351459938858 -8.39792392661552 2.023047465530256 6.560707721677272 -4.851819044535503 -0.5732599288399669 -2.7138639197143437 
8.552165587241355 6.177611362351918 -2.4725451414533755 6.074957812497921 7.775491928916928 -1.690295780180671 -1.128045267421939 -5.638908368407396 2.2064974269814925 2.4720339532327316 -9.241713781684325 -3.179204759672376 -9.191086523921982 2.1032455115902433 -5.061998905389869 -9.042333836838361 -4.484023606251235 -0.35567575946150853 -9.57353179902874 -8.961962231736393 -2.3702381496592073 -6.1828705291690556 -4.676222990567929 -2.036363202189313 -5.0761094039162575 -2.3978192281964494 9.505291072632957 -2.291887620248758 -3.203325357618068 8.611186585343727 -2.516825600484271 5.288191312095346 6.09343041183369 4.299169961903566 -3.238573867179886 -6.274878565540101 3.7512655626536535 -6.292064117539995 -0.6437795564728859 -6.100986212437491 -3.8347112535616272 7.614927658878546 -9.71726829321549 -9.326191276432137 7.850118214440073 3.3529731651172767 -3.939351459938858 -5.66847369544295 -8.5145499463533 9.63289013229285 -4.851819044535503 -0.5732599288399669 -2.7138639197143437 
3.956699196022381 2.719741114157543 -7.088953275845309 6.074957812497921 2.484325815608173 -2.415888655484048 -1.128045267421939 -5.638908368407396 -0.40624413199139653 2.4720339532327316 -9.241713781684325 -3.179204759672376 6.907622914317699 -0.06533829734053143 0.8128366302914181 -9.042333836838361 -4.484023606251235 1.663347636451011 -9.57353179902874 8.30463010806136 -2.3702381496592073 5.771027399163376 -4.676222990567929 -2.036363202189313 -5.0761094039162575 -2.3978192281964494 -6.709256266441397 -2.291887620248758 -1.455015173128107 -3.956613196515118 -0.6053711406639231 -1.1343454869206795 6.09343041183369 4.299169961903566 -9.410192006429313 -6.274878565540101 3.7512655626536535 -6.292064117539995 -0.6437795564728859 -4.515582524470334 -3.8347112535616272 8.306054382626709 -9.71726829321549 -9.326191276432137 7.850118214440073 3.3529731651172767 -4.983227747544381 3.3158429931776805 -8.5145499463533 6.560707721677272 -4.851819044535503 -0.5732599288399669 3.0648847366002148 
8.552165587241355 6.431046174682919 -2.4725451414533755 9.620274899835039 7.580153280413562 4.140998024032367 -5.4493232263500735 -5.638908368407396 -0.40624413199139653 -2.4890698057772376 -9.241713781684325 -3.179204759672376 -9.191086523921982 -0.06533829734053143 0.8128366302914181 -9.042333836838361 -8.11406702677157 -0.35567575946150853 -9.57353179902874 2.9757892125254752 -2.3702381496592073 -6.1828705291690556 -4.676222990567929 8.757494753325524 -5.0761094039162575 -2.3978192281964494 -2.0051593565550396 -2.291887620248758 -3.203325357618068 -3.956613196515118 -2.0577840214188807 -8.276635767067692 6.09343041183369 4.299169961903566 3.2312937065971283 -6.274878565540101 3.7512655626536535 -6.292064117539995 -0.6437795564728859 -4.515582524470334 -3.8347112535616272 7.380480947527339 8.865163837858066 -9.326191276432137 7.850118214440073 3.3529731651172767 -3.939351459938858 -8.39792392661552 -7.617553014583502 6.560707721677272 -4.851819044535503 -0.5732599288399669 -2.7138639197143437 
8.552165587241355 2.719741114157543 -2.4725451414533755 6.074957812497921 -6.69685726934357 -0.11857464554057451 -5.4493232263500735 -5.638908368407396 -0.40624413199139653 -4.754827252169607 -6.301847953404883 -3.179204759672376 -9.191086523921982 -5.152982833193105 0.8128366302914181 -9.042333836838361 -4.484023606251235 -8.03480872198141 -9.57353179902874 -8.961962231736393 -2.3702381496592073 -6.1828705291690556 -4.676222990567929 -3.054176022807596 -3.162243353222916 -2.3978192281964494 -5.627317008839738 -4.896627377909574 -3.203325357618068 6.6450506286174225 -0.6053711406639231 -1.1343454869206795 6.09343041183369 4.299169961903566 -3.238573867179886 -6.274878565540101 3.7512655626536535 -6.292064117539995 -0.6437795564728859 -4.515582524470334 -3.8347112535616272 8.306054382626709 -9.71726829321549 9.050489881264795 7.850118214440073 0.9548713613386628 -3.939351459938858 0.600618446197462 -8.5145499463533 6.560707721677272 -5.596460703211266 -0.5732599288399669 -2.7138639197143437 
4.685427363339068 2.719741114157543 -2.4725451414533755 -6.515338702086398 -4.872746087353463 -2.449337403193188 -5.4493232263500735 -7.814449932310441 -5.623700732702623 2.4720339532327316 -9.241713781684325 -3.179204759672376 -9.191086523921982 -0.06533829734053143 0.8128366302914181 -9.042333836838361 -4.484023606251235 -9.267276889215864 -9.57353179902874 8.30463010806136 -2.3702381496592073 -6.1828705291690556 -4.676222990567929 -8.065815907831 1.2362237067414235 -1.4132430731033825 -6.709256266441397 -2.291887620248758 -3.203325357618068 -3.956613196515118 -0.6053711406639231 -8.276635767067692 6.09343041183369 4.299169961903566 -3.238573867179886 -6.274878565540101 3.7512655626536535 -6.292064117539995 -0.6437795564728859 -4.515582524470334 -3.8347112535616272 8.306054382626709 -9.71726829321549 -5.510231339384504 7.850118214440073 9.570758025987576 -3.939351459938858 3.3158429931776805 -8.5145499463533 6.560707721677272 1.040684275314348 -0.5732599288399669 3.0648847366002148 
8.552165587241355 2.719741114157543 0.4949512752395506 6.074957812497921 7.775491928916928 -3.385824854622199 -5.4493232263500735 -5.638908368407396 -0.40624413199139653 -2.4890698057772376 -9.241713781684325 -6.7443477042220135 -6.5946208838880676 -0.06533829734053143 -5.061998905389869 -9.042333836838361 8.284924223054887 -0.35567575946150853 -9.488636624745986 8.30463010806136 -2.8117872186256054 -6.1828705291690556 -4.676222990567929 -2.036363202189313 -3.162243353222916 -1.8884751686295402 -5.269845550565819 -9.27413040739162 -3.203325357618068 -3.956613196515118 -0.6053711406639231 -1.1343454869206795 6.09343041183369 4.299169961903566 -3.238573867179886 -7.484783404912978 3.7512655626536535 -6.292064117539995 -3.408620544350627 -4.515582524470334 1.2456035784771586 8.306054382626709 -1.3201559322997412 -9.326191276432137 7.850118214440073 3.3529731651172767 -3.939351459938858 -8.39792392661552 3.345918461661764 6.560707721677272 4.748563712014818 -0.5732599288399669 -2.7138639197143437 
5.630884868394981 -9.646569897346906 -2.4725451414533755 -2.710629213336402 7.768722962024498 -3.385824854622199 -1.128045267421939 -8.090539597014635 -1.2468603204895032 -0.2376126192731931 -7.256843824528465 -6.7443477042220135 -9.191086523921982 -2.1834297952321746 -5.061998905389869 -8.363491459123175 -5.254744152044697 -0.35567575946150853 -9.488636624745986 5.701478448184432 -2.8117872186256054 -6.1828705291690556 -6.104327105268061 0.7117647448152304 -5.0761094039162575 -1.016777293455016 0.9821017236266609 -4.203735207198884 -3.203325357618068 2.331041587387382 -0.6053711406639231 -8.144226221638409 8.577905949507777 4.299169961903566 -2.7992375813735038 0.7357908603603391 9.604421597105222 -6.316981705685092 -3.408620544350627 -4.515582524470334 4.667214532039646 8.306054382626709 -1.3201559322997412 -9.326191276432137 4.8965946719472 0.9548713613386628 -2.8886778821210797 6.648184600884424 -5.673874176246418 6.560707721677272 -4.851819044535503 -0.5732599288399669 -9.826039611428591 
5.630884868394981 -9.646569897346906 1.9391770056131978 9.620274899835039 8.67310523953438 -1.0519859204463895 -4.805182188707855 -8.090539597014635 2.918274303136105 -0.2376126192731931 -7.256843824528465 -6.7443477042220135 -6.5946208838880676 -2.1834297952321746 -5.061998905389869 -4.77500870321633 -7.495396978743846 -8.484806193229561 -8.325386713239403 -8.412601316103443 -2.8117872186256054 -4.394595306374294 -6.104327105268061 -8.450615851357988 -3.162243353222916 -1.016777293455016 0.9821017236266609 -8.84128550819462 -1.455015173128107 -6.864056524100439 5.499190168170802 8.245623886197073 8.577905949507777 -7.780539562932914 -3.5028032433999385 0.7357908603603391 9.604421597105222 -6.316981705685092 -9.025791231495727 -2.246249422042901 8.99387229955131 1.810659774292258 -1.3201559322997412 4.728765268858144 4.8965946719472 0.9548713613386628 6.525908997319046 6.648184600884424 -8.5145499463533 6.560707721677272 -5.866172462405885 6.9645345040346385 -2.9603116004239656 
5.630884868394981 9.169916281055176 1.9391770056131978 -2.710629213336402 7.768722962024498 -1.0519859204463895 -1.128045267421939 -7.814449932310441 -1.2468603204895032 -0.2376126192731931 -7.256843824528465 -3.179204759672376 -4.2014464202079775 -2.1834297952321746 -0.7641644074037597 -8.363491459123175 -5.254744152044697 -0.35567575946150853 -9.488636624745986 8.024616188147483 -2.8117872186256054 -4.394595306374294 -6.104327105268061 0.7117647448152304 -3.162243353222916 1.2544849581151691 0.5985827374286767 -8.84128550819462 -3.203325357618068 2.331041587387382 0.5393211111413994 -8.144226221638409 8.577905949507777 -6.961170216421586 -7.820461228373743 0.7357908603603391 9.604421597105222 -6.316981705685092 3.584160123135254 -2.246249422042901 2.2552683621161567 -8.345469744292044 -1.3201559322997412 4.728765268858144 -2.5873322864458643 0.9548713613386628 -3.653722703407201 -8.39792392661552 2.023047465530256 6.560707721677272 4.748563712014818 -8.020931347211071 -9.826039611428591 
5.630884868394981 6.177611362351918 1.9391770056131978 -2.710629213336402 7.768722962024498 -1.0519859204463895 -1.128045267421939 -8.090539597014635 -6.814504639635002 -0.2376126192731931 -7.256843824528465 -6.7443477042220135 -7.4619646372006905 -2.1834297952321746 -5.061998905389869 -8.363491459123175 -5.254744152044697 -0.35567575946150853 -9.488636624745986 5.701478448184432 -2.8117872186256054 -4.394595306374294 -6.104327105268061 0.7117647448152304 -3.162243353222916 -1.016777293455016 0.9821017236266609 -8.84128550819462 -3.203325357618068 2.331041587387382 -8.85987017283685 -8.276635767067692 8.577905949507777 -2.1463930069650283 -3.5028032433999385 -6.274878565540101 9.604421597105222 -6.316981705685092 -3.408620544350627 -2.246249422042901 -1.6404730433175807 1.810659774292258 -1.3201559322997412 -9.326191276432137 7.850118214440073 0.9548713613386628 -3.939351459938858 3.5582773964551 -5.673874176246418 6.560707721677272 -4.851819044535503 -8.020931347211071 -9.826039611428591 
5.630884868394981 -9.646569897346906 -7.088953275845309 3.036678108244086 5.557689559234785 -1.0519859204463895 -1.128045267421939 -8.090539597014635 -1.2468603204895032 -0.2376126192731931 -7.256843824528465 -6.951236915913297 -6.5946208838880676 -2.1834297952321746 1.2112291132667803 -8.363491459123175 -5.254744152044697 1.663347636451011 -9.488636624745986 5.701478448184432 -1.348127962269567 -4.394595306374294 -6.104327105268061 0.7117647448152304 -3.162243353222916 -3.8318096768570946 -4.881246169317204 -8.84128550819462 -1.455015173128107 2.331041587387382 4.401571845510844 9.177455781343909 8.577905949507777 -7.780539562932914 -5.688161216036589 0.7357908603603391 9.604421597105222 -6.316981705685092 -3.408620544350627 -2.246249422042901 -1.6404730433175807 1.810659774292258 -1.3201559322997412 4.728765268858144 4.8965946719472 0.9548713613386628 -2.8886778821210797 3.3158429931776805 4.372518392197048 6.560707721677272 -3.4355920728450062 -8.020931347211071 -9.826039611428591 
5.630884868394981 -9.646569897346906 7.135505166761391 -2.710629213336402 7.768722962024498 -1.0519859204463895 -1.128045267421939 -8.090539597014635 -1.2468603204895032 -2.4890698057772376 -7.256843824528465 -6.951236915913297 0.7319557003560178 -5.152982833193105 -5.061998905389869 -8.363491459123175 -5.254744152044697 -0.35567575946150853 -8.325386713239403 5.701478448184432 -2.8117872186256054 -4.394595306374294 -6.104327105268061 0.7117647448152304 -3.162243353222916 -1.016777293455016 0.9821017236266609 -8.84128550819462 8.00268341043628 2.331041587387382 0.5393211111413994 -4.99271392192756 -8.082854428646906 -7.780539562932914 -3.5028032433999385 0.7357908603603391 9.604421597105222 -6.316981705685092 -3.408620544350627 -2.246249422042901 -1.6404730433175807 1.810659774292258 -1.3201559322997412 -9.326191276432137 4.8965946719472 0.9548713613386628 -2.8886778821210797 8.532425741815768 -5.673874176246418 6.560707721677272 4.748563712014818 -8.020931347211071 -9.826039611428591 
5.630884868394981 -9.646569897346906 -2.4725451414533755 9.339126582891353 -6.69685726934357 -1.0519859204463895 -1.128045267421939 -8.090539597014635 -1.2468603204895032 7.90707254362864 1.3415505882488166 -6.7443477042220135 -6.5946208838880676 -2.1834297952321746 -1.2124253553036919 -8.363491459123175 -5.254744152044697 -0.35567575946150853 -9.57353179902874 5.701478448184432 -2.3702381496592073 -4.394595306374294 -6.104327105268061 0.7117647448152304 -3.162243353222916 -2.3978192281964494 0.9821017236266609 -8.84128550819462 -3.203325357618068 2.331041587387382 3.9762574841154823 -8.144226221638409 3.3716401323286256 -7.780539562932914 -3.5028032433999385 0.7357908603603391 9.604421597105222 -6.292064117539995 -3.408620544350627 -2.246249422042901 3.9795302239846 1.810659774292258 -1.3201559322997412 -6.51459668705548 4.8965946719472 2.8684208562408138 -3.939351459938858 0.600618446197462 -5.673874176246418 6.560707721677272 4.748563712014818 -8.020931347211071 -9.826039611428591 
5.630884868394981 -9.646569897346906 1.9391770056131978 -2.710629213336402 -4.872746087353463 -2.449337403193188 6.635422361458016 -7.12651966833969 -1.2468603204895032 -0.2376126192731931 -7.256843824528465 -6.7443477042220135 -5.311950592652785 -2.1834297952321746 -8.345328492991932 1.2942434349570533 -5.254744152044697 4.272201555126038 -9.488636624745986 5.701478448184432 -2.8117872186256054 -4.394595306374294 -6.104327105268061 0.7117647448152304 -3.162243353222916 -1.4132430731033825 0.9821017236266609 -8.84128550819462 -3.203325357618068 -7.287159135621117 0.5393211111413994 -8.144226221638409 -9.998851950783838 -7.780539562932914 -3.5028032433999385 0.7357908603603391 3.7512655626536535 5.6976272999951245 -2.4848254704209722 -2.246249422042901 -4.183413832697324 1.810659774292258 9.260423439558945 4.728765268858144 4.8965946719472 0.9548713613386628 -3.939351459938858 6.648184600884424 -8.5145499463533 6.560707721677272 4.748563712014818 -3.657304717512879 -9.826039611428591 
5.630884868394981 -9.646569897346906 1.9391770056131978 -2.710629213336402 7.768722962024498 -1.0519859204463895 -1.128045267421939 -8.090539597014635 -1.2468603204895032 -0.2376126192731931 -7.256843824528465 -6.7443477042220135 -6.5946208838880676 -4.466479523340954 -5.061998905389869 5.066233808306491 8.284924223054887 -0.35567575946150853 -9.488636624745986 5.701478448184432 -2.8117872186256054 -4.394595306374294 -6.104327105268061 0.7117647448152304 -2.2878091785908206 -1.016777293455016 0.9821017236266609 -9.27413040739162 -3.203325357618068 2.331041587387382 0.5393211111413994 3.452172950390164 8.577905949507777 -7.780539562932914 -3.5028032433999385 -7.484783404912978 9.604421597105222 -6.316981705685092 -3.408620544350627 -2.246249422042901 1.2456035784771586 4.824706276265022 1.908826929161222 2.0575655117272706 -1.9221660623553305 0.9548713613386628 -2.8886778821210797 6.648184600884424 0.8764264296930726 6.560707721677272 4.748563712014818 -8.020931347211071 -9.826039611428591 
8.552165587241355 3.9692854648589044 7.135505166761391 -4.734285005068319 8.67310523953438 -3.385824854622199 -4.805182188707855 -5.638908368407396 -3.0188134774102178 -2.4890698057772376 -6.848953282922743 -6.951236915913297 -9.191086523921982 -0.20296131964233766 -5.061998905389869 -9.042333836838361 -8.692698264618455 -0.35567575946150853 -8.325386713239403 4.886894545459139 -7.019131858157075 -4.394595306374294 -5.384981776485693 -2.036363202189313 -3.162243353222916 -2.3978192281964494 -2.0051593565550396 -5.693173939749263 -1.455015173128107 -6.864056524100439 5.499190168170802 -1.1343454869206795 -8.082854428646906 4.3366172419310764 -3.238573867179886 -6.274878565540101 3.7512655626536535 -8.954630511170581 5.953209729661042 9.082593706388355 -3.8347112535616272 1.810659774292258 4.380868172926231 -9.326191276432137 4.231199382206153 3.3529731651172767 -3.939351459938858 3.3158429931776805 -8.5145499463533 6.560707721677272 -0.6804063066887078 6.9645345040346385 -2.9603116004239656 
5.630884868394981 -9.646569897346906 7.135505166761391 -2.710629213336402 8.67310523953438 7.834105010608486 -4.805182188707855 -5.638908368407396 2.918274303136105 -0.2376126192731931 -6.848953282922743 -6.951236915913297 0.7319557003560178 -0.20296131964233766 -5.061998905389869 -9.042333836838361 -5.254744152044697 -0.35567575946150853 -9.488636624745986 -9.642782172060855 -7.019131858157075 -4.394595306374294 -5.384981776485693 -8.450615851357988 -3.162243353222916 -1.016777293455016 -2.0051593565550396 -5.693173939749263 -1.455015173128107 -6.864056524100439 0.5393211111413994 -8.276635767067692 -8.082854428646906 -7.780539562932914 -5.2009896361752155 0.7357908603603391 -0.17931095287084986 -6.292064117539995 -3.408620544350627 -2.246249422042901 1.8287360835668132 1.810659774292258 4.380868172926231 4.728765268858144 4.231199382206153 3.3529731651172767 6.525908997319046 3.3158429931776805 -5.673874176246418 6.560707721677272 -0.6804063066887078 6.9645345040346385 -2.9603116004239656 
-0.9656380562362425 2.719741114157543 7.135505166761391 9.620274899835039 8.67310523953438 7.834105010608486 -4.805182188707855 -5.638908368407396 2.918274303136105 -2.4890698057772376 -6.848953282922743 -6.951236915913297 0.7319557003560178 -5.152982833193105 -4.719054714013497 -9.042333836838361 -5.254744152044697 -0.35567575946150853 -8.239779788518955 6.055775499065366 -1.348127962269567 -4.394595306374294 -5.384981776485693 0.7117647448152304 -3.162243353222916 -2.3978192281964494 -2.0051593565550396 -5.693173939749263 -1.455015173128107 -6.864056524100439 5.499190168170802 -8.276635767067692 -8.082854428646906 -2.1463930069650283 -7.820461228373743 -6.274878565540101 3.7512655626536535 -6.292064117539995 5.953209729661042 -7.774608035559279 2.2552683621161567 1.810659774292258 4.380868172926231 -6.895527890804958 4.231199382206153 5.079563722204938 6.525908997319046 3.3158429931776805 -8.5145499463533 6.560707721677272 4.040812255827479 6.9645345040346385 -2.9603116004239656 
-0.9656380562362425 2.919912492310539 7.135505166761391 9.339126582891353 8.67310523953438 3.416729470739984 -1.128045267421939 -5.638908368407396 2.918274303136105 -4.754827252169607 -6.848953282922743 -6.951236915913297 0.7319557003560178 -0.20296131964233766 -3.0195991175462016 -9.042333836838361 -5.254744152044697 -8.03480872198141 -8.325386713239403 -8.961962231736393 -7.019131858157075 -4.394595306374294 -5.384981776485693 -8.450615851357988 -3.162243353222916 -2.3978192281964494 -9.350457082555561 -5.693173939749263 -1.455015173128107 -6.864056524100439 5.499190168170802 -8.276635767067692 -8.082854428646906 4.3366172419310764 7.617537608309213 -6.274878565540101 3.7512655626536535 -6.292064117539995 6.989284856565806 -7.774608035559279 1.8287360835668132 1.810659774292258 4.380868172926231 -9.326191276432137 7.850118214440073 3.3529731651172767 6.525908997319046 3.5582773964551 -8.5145499463533 -4.94492144367646 -4.851819044535503 6.9645345040346385 -2.9603116004239656 
-0.9656380562362425 -3.8690083581030503 4.445653896745135 3.036678108244086 8.67310523953438 -2.415888655484048 -9.83156915750337 -9.602812726273186 2.918274303136105 -7.104242437466688 -6.848953282922743 -6.951236915913297 0.7319557003560178 -0.20296131964233766 -5.061998905389869 -9.042333836838361 -5.254744152044697 1.663347636451011 -8.325386713239403 4.886894545459139 -7.019131858157075 -4.394595306374294 -5.384981776485693 -8.450615851357988 -5.6924680882811245 -9.542835345496389 -2.0051593565550396 -5.693173939749263 -1.455015173128107 -6.864056524100439 5.499190168170802 -8.276635767067692 -8.082854428646906 4.3366172419310764 -9.410192006429313 -6.274878565540101 3.7512655626536535 -6.292064117539995 5.953209729661042 -7.774608035559279 1.8287360835668132 7.59450699458101 4.380868172926231 -9.326191276432137 4.231199382206153 3.3529731651172767 6.525908997319046 -8.155879663654439 8.608904412684048 6.560707721677272 -3.4355920728450062 6.9645345040346385 -2.9603116004239656 
0.24069266634692355 6.431046174682919 7.135505166761391 9.620274899835039 8.67310523953438 7.834105010608486 -4.805182188707855 -5.638908368407396 2.918274303136105 -2.4890698057772376 -6.848953282922743 -6.951236915913297 0.7319557003560178 -0.20296131964233766 -5.061998905389869 -9.042333836838361 8.182974584477513 -0.35567575946150853 -8.325386713239403 4.886894545459139 -7.019131858157075 -1.9216947383134944 -5.384981776485693 -8.450615851357988 -3.162243353222916 -2.3978192281964494 -2.0051593565550396 -5.693173939749263 5.394929530053469 -6.864056524100439 5.499190168170802 -8.276635767067692 -8.082854428646906 4.3366172419310764 -9.410192006429313 -6.274878565540101 3.7512655626536535 -6.292064117539995 5.953209729661042 3.8328785566218375 1.8287360835668132 1.810659774292258 4.380868172926231 -9.326191276432137 4.231199382206153 3.3529731651172767 6.525908997319046 8.532425741815768 0.04751721017472477 6.560707721677272 -4.953653775000248 6.9645345040346385 -2.9603116004239656 
-0.9656380562362425 2.919912492310539 7.135505166761391 9.339126582891353 -6.69685726934357 7.834105010608486 5.874124073925046 -5.638908368407396 -0.40624413199139653 -2.4890698057772376 -9.241713781684325 -2.717378445768757 1.612206286973839 -5.152982833193105 -5.061998905389869 -9.042333836838361 -5.254744152044697 -0.35567575946150853 -8.325386713239403 4.886894545459139 -7.019131858157075 -4.394595306374294 -4.676222990567929 -3.054176022807596 -3.162243353222916 -2.3978192281964494 -2.0051593565550396 -5.693173939749263 -1.455015173128107 -6.864056524100439 5.499190168170802 -8.276635767067692 -6.361453147196514 4.299169961903566 -9.410192006429313 -6.274878565540101 3.7512655626536535 -6.292064117539995 8.91316506577897 -7.774608035559279 1.8287360835668132 1.810659774292258 4.380868172926231 -6.51459668705548 4.231199382206153 3.3529731651172767 6.525908997319046 3.3158429931776805 -8.5145499463533 6.560707721677272 -0.6804063066887078 6.9645345040346385 -2.9603116004239656 
4.685427363339068 2.919912492310539 7.135505166761391 9.620274899835039 8.67310523953438 7.834105010608486 -4.805182188707855 -5.638908368407396 2.918274303136105 -2.4890698057772376 -6.848953282922743 -6.951236915913297 -5.311950592652785 -0.20296131964233766 -5.061998905389869 1.2942434349570533 -5.254744152044697 -0.35567575946150853 -5.894140241682749 4.886894545459139 -7.019131858157075 -4.394595306374294 -4.676222990567929 -8.065815907831 -3.162243353222916 -2.3978192281964494 -2.0051593565550396 -0.9961332316615028 -6.981515904899991 -7.287159135621117 5.499190168170802 -4.796946031658484 -8.082854428646906 4.3366172419310764 -9.410192006429313 -6.274878565540101 0.3002343673788648 5.6976272999951245 5.953209729661042 1.9527086735233041 -4.183413832697324 1.810659774292258 4.806797839799923 -9.326191276432137 5.918627086442946 0.9548713613386628 -3.939351459938858 3.3158429931776805 -8.5145499463533 6.560707721677272 -0.6804063066887078 -3.657304717512879 -2.9603116004239656 
4.534990393164691 2.919912492310539 7.135505166761391 9.620274899835039 6.238456645070624 7.834105010608486 -4.805182188707855 -5.638908368407396 2.918274303136105 -2.4890698057772376 -3.235597636270655 -6.951236915913297 0.7319557003560178 -0.20296131964233766 -5.061998905389869 -9.042333836838361 -5.254744152044697 -0.35567575946150853 -9.488636624745986 5.952449351674058 -7.019131858157075 -6.6070085664093225 -5.384981776485693 -8.450615851357988 -3.162243353222916 -1.8884751686295402 -2.0051593565550396 -5.693173939749263 -1.455015173128107 5.074304804842756 5.499190168170802 6.466737964936581 -8.082854428646906 4.3366172419310764 -9.410192006429313 -6.274878565540101 3.7512655626536535 -6.292064117539995 5.953209729661042 -7.774608035559279 1.2456035784771586 1.810659774292258 4.380868172926231 -9.326191276432137 -1.9221660623553305 3.3529731651172767 4.4942858038107065 -8.2858117963953 -0.44111619027038884 6.560707721677272 -0.6804063066887078 6.9645345040346385 -9.826039611428591 
-0.9656380562362425 2.719741114157543 -2.4725451414533755 2.5051612549705133 7.775491928916928 -3.385824854622199 -5.4493232263500735 -7.814449932310441 -7.12462699329814 -2.4890698057772376 -9.241713781684325 -3.179204759672376 -4.2014464202079775 -5.152982833193105 -4.719054714013497 1.2942434349570533 -4.484023606251235 -9.267276889215864 -9.57353179902874 8.024616188147483 -1.348127962269567 -4.394595306374294 -4.676222990567929 0.7117647448152304 -3.162243353222916 -2.3978192281964494 0.5985827374286767 -5.856933939110299 -8.000177045656097 -2.575044910949094 -0.5408827700624776 -1.1343454869206795 -8.082854428646906 -2.1463930069650283 -7.820461228373743 -6.274878565540101 -6.960076188204162 -5.576692932644618 3.584160123135254 -5.977768781684989 -3.8347112535616272 -1.4011584778798962 -9.71726829321549 -9.326191276432137 7.850118214440073 0.6743774368071307 -3.939351459938858 -8.39792392661552 -8.5145499463533 9.63289013229285 4.040812255827479 -0.5732599288399669 9.937839535052035 
-0.9656380562362425 2.719741114157543 -7.088953275845309 8.34473990645748 7.768722962024498 -7.806394614504201 -4.805182188707855 -7.814449932310441 -7.12462699329814 -2.4890698057772376 -7.256843824528465 -3.179204759672376 -4.2014464202079775 -5.152982833193105 -4.719054714013497 1.2942434349570533 -5.254744152044697 -0.35567575946150853 -2.906730176940256 8.024616188147483 -2.8117872186256054 -4.394595306374294 -1.9738007124620882 0.7117647448152304 -3.162243353222916 -1.016777293455016 0.5985827374286767 -8.84128550819462 -8.000177045656097 -2.575044910949094 9.176658138332566 4.457838310520174 -8.082854428646906 -2.1463930069650283 -3.5028032433999385 -6.274878565540101 -6.960076188204162 1.437211108950038 3.584160123135254 -5.977768781684989 2.1033495255441217 -1.4011584778798962 -1.3201559322997412 -9.326191276432137 -2.5873322864458643 5.079563722204938 -3.653722703407201 -8.39792392661552 -5.673874176246418 -4.565136912459433 4.040812255827479 -2.857753228222075 -9.826039611428591 
-0.9656380562362425 2.919912492310539 -7.7985789922532245 2.5051612549705133 7.775491928916928 -7.806394614504201 -4.805182188707855 -7.814449932310441 2.918274303136105 -2.4890698057772376 -6.848953282922743 -3.179204759672376 0.7319557003560178 -5.152982833193105 -4.719054714013497 1.2942434349570533 -5.254744152044697 -9.267276889215864 -8.325386713239403 8.024616188147483 -1.348127962269567 -4.394595306374294 -5.384981776485693 6.826633750541802 -3.162243353222916 -2.3978192281964494 0.5985827374286767 -6.611352774428463 -8.000177045656097 -2.575044910949094 -6.7349320230051335 -8.276635767067692 -8.082854428646906 -2.1463930069650283 -9.410192006429313 -6.274878565540101 -6.960076188204162 -6.292064117539995 3.584160123135254 -5.977768781684989 2.2552683621161567 -1.4011584778798962 6.965086680308623 -7.050422063413649 4.231199382206153 5.079563722204938 -3.653722703407201 -8.39792392661552 -8.5145499463533 9.63289013229285 4.040812255827479 -2.857753228222075 9.937839535052035 
-0.9656380562362425 6.177611362351918 -2.4725451414533755 2.5051612549705133 7.775491928916928 -7.806394614504201 -2.231711119055266 -7.814449932310441 -7.12462699329814 -2.4890698057772376 -9.241713781684325 -3.179204759672376 -7.4619646372006905 -5.152982833193105 -5.061998905389869 1.2942434349570533 -5.254744152044697 -9.267276889215864 -8.239779788518955 8.024616188147483 -2.3702381496592073 -4.394595306374294 -4.676222990567929 0.7117647448152304 -3.162243353222916 -5.032120615154816 0.5985827374286767 -2.291887620248758 -3.203325357618068 8.611186585343727 8.869323265572351 -8.276635767067692 -8.082854428646906 -2.1463930069650283 7.617537608309213 -6.274878565540101 -6.960076188204162 1.437211108950038 3.584160123135254 -5.977768781684989 -3.8347112535616272 -1.4011584778798962 -1.3201559322997412 -9.326191276432137 7.850118214440073 5.079563722204938 -3.653722703407201 3.5582773964551 -8.5145499463533 9.63289013229285 4.040812255827479 -2.857753228222075 -2.7138639197143437 
-0.9656380562362425 -3.8690083581030503 -7.088953275845309 3.036678108244086 7.775491928916928 -7.806394614504201 -1.128045267421939 -7.814449932310441 -7.12462699329814 -2.4890698057772376 -9.241713781684325 -3.179204759672376 -4.2014464202079775 -5.152982833193105 -5.061998905389869 1.2942434349570533 2.158859300371738 -9.267276889215864 -8.239779788518955 8.024616188147483 -1.348127962269567 -4.394595306374294 -1.9738007124620882 5.442626286498202 -3.162243353222916 -2.3978192281964494 0.5985827374286767 -9.444219675691912 -5.529817671077781 -2.575044910949094 8.869323265572351 9.177455781343909 -8.082854428646906 -3.9610446324410775 -7.820461228373743 -6.274878565540101 3.7512655626536535 9.262311020686674 3.584160123135254 -5.977768781684989 2.2552683621161567 -1.4011584778798962 4.806797839799923 -9.607220831786558 4.231199382206153 5.079563722204938 -3.653722703407201 -8.39792392661552 2.023047465530256 9.63289013229285 4.040812255827479 -7.801264651530975 9.937839535052035 
-0.9656380562362425 2.719741114157543 7.135505166761391 -4.045480643615356 7.580153280413562 -7.806394614504201 -4.805182188707855 -5.638908368407396 -0.40624413199139653 -2.4890698057772376 -9.241713781684325 -3.179204759672376 -4.2014464202079775 -5.152982833193105 -4.719054714013497 -9.042333836838361 -5.254744152044697 -9.267276889215864 -8.239779788518955 8.024616188147483 -1.348127962269567 -4.394595306374294 -4.676222990567929 0.7117647448152304 -3.162243353222916 -2.3978192281964494 0.5985827374286767 -5.856933939110299 -1.455015173128107 -6.864056524100439 8.869323265572351 -8.276635767067692 -8.082854428646906 -2.1463930069650283 9.603993347928977 -6.274878565540101 -9.34549326525508 1.437211108950038 3.584160123135254 -5.977768781684989 1.8287360835668132 -5.455289934878458 8.90740221795032 -9.326191276432137 -2.5873322864458643 5.079563722204938 -3.653722703407201 -8.39792392661552 2.023047465530256 9.63289013229285 4.040812255827479 -2.857753228222075 9.937839535052035 
-0.9656380562362425 2.719741114157543 -2.4725451414533755 2.5051612549705133 7.775491928916928 -7.806394614504201 -1.128045267421939 -5.638908368407396 -0.40624413199139653 -2.4890698057772376 -9.241713781684325 -3.179204759672376 -4.2014464202079775 -5.152982833193105 -4.719054714013497 2.860785991067205 -5.254744152044697 -9.267276889215864 4.113568620252128 -2.904682172626698 -2.3702381496592073 -4.394595306374294 -1.9738007124620882 -3.054176022807596 -3.162243353222916 -2.3978192281964494 -5.627317008839738 -5.856933939110299 -8.000177045656097 -7.976750322908868 2.3347072871815815 -8.276635767067692 -8.082854428646906 -2.1463930069650283 -7.820461228373743 -5.255400203463063 -6.960076188204162 -6.292064117539995 3.584160123135254 -5.977768781684989 2.2552683621161567 -1.4011584778798962 4.806797839799923 -9.326191276432137 -2.5873322864458643 5.079563722204938 -3.939351459938858 -8.39792392661552 -8.5145499463533 9.63289013229285 4.040812255827479 -2.857753228222075 -9.826039611428591 
-0.9656380562362425 -7.9560520291381875 -7.088953275845309 2.5051612549705133 7.775491928916928 -7.806394614504201 0.3293197836824113 -7.814449932310441 -7.12462699329814 -2.4890698057772376 -9.241713781684325 -3.179204759672376 -4.2014464202079775 -5.152982833193105 9.97340978090989 1.2942434349570533 -5.254744152044697 -9.267276889215864 -8.239779788518955 8.024616188147483 -1.348127962269567 -4.394595306374294 -1.9738007124620882 -8.065815907831 -3.162243353222916 -2.3978192281964494 -9.965498278440146 -0.9961332316615028 -8.000177045656097 -2.575044910949094 -9.475795137830676 -8.276635767067692 -9.998851950783838 -2.1463930069650283 -7.820461228373743 -6.274878565540101 5.828573407929639 -7.284322376583745 3.584160123135254 -5.977768781684989 -4.183413832697324 -1.4011584778798962 4.806797839799923 -5.510231339384504 -2.5873322864458643 0.9548713613386628 9.26941921419909 -8.39792392661552 2.023047465530256 9.63289013229285 4.040812255827479 -2.857753228222075 3.0648847366002148 
-0.9656380562362425 2.719741114157543 -7.088953275845309 2.5051612549705133 7.775491928916928 -7.806394614504201 -4.805182188707855 -7.814449932310441 -7.12462699329814 -2.4890698057772376 -9.241713781684325 -6.7443477042220135 -4.2014464202079775 -5.152982833193105 -4.719054714013497 -9.103887850589562 -5.254744152044697 -9.267276889215864 -8.239779788518955 8.024616188147483 -1.348127962269567 -6.6070085664093225 -1.0504840799958348 0.7117647448152304 -3.162243353222916 5.290687788237324 0.5985827374286767 -9.27413040739162 3.855203218688457 -7.749906911562887 8.869323265572351 -8.276635767067692 -8.082854428646906 -2.1463930069650283 -7.820461228373743 -6.274878565540101 -6.960076188204162 1.437211108950038 3.584160123135254 -5.977768781684989 2.2552683621161567 2.080870262373221 -1.3201559322997412 -9.326191276432137 -2.5873322864458643 5.079563722204938 -3.653722703407201 6.648184600884424 2.023047465530256 9.63289013229285 4.748563712014818 -2.857753228222075 9.937839535052035 
-0.9656380562362425 6.177611362351918 -2.4725451414533755 9.339126582891353 7.775491928916928 -9.895057797342394 -1.128045267421939 -5.638908368407396 -0.40624413199139653 2.4720339532327316 -9.241713781684325 -3.179204759672376 -7.4619646372006905 -5.152982833193105 -5.061998905389869 -9.042333836838361 5.739527177661161 -8.03480872198141 -9.57353179902874 8.417783871249366 -2.3702381496592073 -4.394595306374294 -4.676222990567929 -2.036363202189313 -3.162243353222916 -2.3978192281964494 0.5985827374286767 -2.291887620248758 -3.203325357618068 8.611186585343727 -2.516825600484271 2.8403937344508616 -8.082854428646906 -9.67013765770686 7.617537608309213 -5.277783242634477 3.7512655626536535 -6.292064117539995 -4.4083180831966295 -4.043362315240941 -3.8347112535616272 7.614927658878546 -1.3201559322997412 -9.326191276432137 7.850118214440073 3.3529731651172767 -3.939351459938858 -8.39792392661552 -8.5145499463533 9.63289013229285 -4.851819044535503 -1.104348561965633 -2.7138639197143437 
5.630884868394981 6.177611362351918 1.9391770056131978 9.339126582891353 -8.914756894686516 -1.0519859204463895 4.448180975314953 5.392777425525479 -0.40624413199139653 -0.2376126192731931 -3.352653591248531 -3.179204759672376 -7.4619646372006905 -5.152982833193105 -5.061998905389869 -9.042333836838361 -5.254744152044697 -8.03480872198141 -9.488636624745986 -8.961962231736393 -2.3702381496592073 -4.394595306374294 -6.104327105268061 -3.054176022807596 -3.162243353222916 -2.6273799878943453 0.9821017236266609 -8.84128550819462 -3.203325357618068 2.331041587387382 -2.516825600484271 -8.276635767067692 8.577905949507777 -2.1463930069650283 7.617537608309213 -6.274878565540101 9.604421597105222 -6.292064117539995 -4.4083180831966295 3.4540196034018926 -3.8347112535616272 7.614927658878546 -1.3201559322997412 -9.326191276432137 7.850118214440073 3.3529731651172767 -2.8886778821210797 3.5582773964551 3.5693322571145423 9.63289013229285 4.748563712014818 -8.913227172165609 -9.826039611428591 
-0.9656380562362425 6.177611362351918 -2.4725451414533755 9.620274899835039 -8.914756894686516 -1.690295780180671 -1.128045267421939 -5.638908368407396 -2.649089128473914 -2.4890698057772376 2.3854457927699197 -6.951236915913297 -7.4619646372006905 -5.152982833193105 -5.061998905389869 -9.042333836838361 -5.254744152044697 -8.03480872198141 -8.325386713239403 -8.961962231736393 -2.3702381496592073 -4.394595306374294 -5.384981776485693 -3.054176022807596 -3.162243353222916 -2.6273799878943453 0.5985827374286767 -2.291887620248758 -3.203325357618068 8.611186585343727 5.499190168170802 -8.276635767067692 -8.082854428646906 -2.1463930069650283 -9.410192006429313 -6.274878565540101 3.7512655626536535 -6.292064117539995 -4.4083180831966295 -6.100986212437491 -6.186511225433722 7.614927658878546 4.380868172926231 -9.326191276432137 7.850118214440073 3.3529731651172767 6.525908997319046 5.019996872740826 -8.5145499463533 9.63289013229285 -4.851819044535503 -0.17989386656745765 -2.9603116004239656 
-0.9656380562362425 -3.3967238598054568 -2.4725451414533755 -3.3600775371467018 -8.914756894686516 9.232439883012137 -4.805182188707855 -5.638908368407396 5.977151950190676 3.5822359082420867 -9.241713781684325 -3.179204759672376 -7.4619646372006905 -5.152982833193105 -4.719054714013497 -9.042333836838361 -5.254744152044697 -8.03480872198141 -9.57353179902874 8.024616188147483 -2.3702381496592073 -4.394595306374294 -1.9738007124620882 -3.054176022807596 -8.82022325483165 -2.6273799878943453 0.5985827374286767 -5.856933939110299 -0.5874001478718327 8.611186585343727 8.869323265572351 -8.276635767067692 -9.617860446417183 -2.1463930069650283 7.617537608309213 -6.274878565540101 3.7512655626536535 1.437211108950038 -4.4083180831966295 -6.100986212437491 2.2552683621161567 7.614927658878546 -1.3201559322997412 -9.326191276432137 7.850118214440073 3.3529731651172767 -3.939351459938858 3.5582773964551 -8.5145499463533 -7.634240596318782 -4.851819044535503 -0.17989386656745765 0.635120747131694 
-0.9656380562362425 6.177611362351918 -2.4725451414533755 3.036678108244086 2.484325815608173 -1.690295780180671 -1.128045267421939 -9.602812726273186 -0.40624413199139653 8.966946138630522 -9.241713781684325 -3.179204759672376 4.742603090212343 -8.653137695915357 -5.061998905389869 -7.401766768436017 -0.8122865077096257 -8.03480872198141 -8.372118853145867 -8.961962231736393 -2.3702381496592073 -4.394595306374294 -4.676222990567929 -8.065815907831 -3.162243353222916 -2.6273799878943453 0.5985827374286767 -2.291887620248758 -3.203325357618068 8.611186585343727 -2.516825600484271 9.177455781343909 -8.082854428646906 -2.1463930069650283 7.617537608309213 4.340951296971873 3.7512655626536535 0.5646199094452093 -4.4083180831966295 -6.100986212437491 -4.95274431896048 1.810659774292258 -1.3201559322997412 2.263090471033342 7.850118214440073 3.3529731651172767 -3.939351459938858 3.5582773964551 1.867367958386252 9.63289013229285 -4.851819044535503 -0.17989386656745765 -2.7138639197143437 
-0.9656380562362425 6.431046174682919 -2.4725451414533755 9.339126582891353 -8.914756894686516 2.701536741078634 -1.4857787339655086 -5.638908368407396 -0.40624413199139653 -4.754827252169607 -9.241713781684325 -6.951236915913297 0.7319557003560178 -5.152982833193105 -4.576311698761415 -9.042333836838361 -5.254744152044697 -8.03480872198141 -9.57353179902874 -8.961962231736393 -0.3707709801631953 -4.394595306374294 -4.676222990567929 -3.054176022807596 -3.162243353222916 -2.6273799878943453 0.5985827374286767 -5.693173939749263 -3.203325357618068 -6.864056524100439 -2.516825600484271 -8.276635767067692 -8.082854428646906 -9.273352895865816 -7.241624382022016 -6.274878565540101 3.7512655626536535 -6.292064117539995 3.584160123135254 -8.742227179724125 -3.8347112535616272 -9.788975726398599 -1.3201559322997412 -9.326191276432137 -4.4118395651363285 3.3529731651172767 6.525908997319046 3.5582773964551 -8.5145499463533 9.63289013229285 -4.851819044535503 -0.17989386656745765 9.937839535052035 
-0.9656380562362425 6.177611362351918 -2.4725451414533755 9.339126582891353 -8.914756894686516 -1.690295780180671 -1.128045267421939 -5.638908368407396 -0.40624413199139653 -4.754827252169607 -9.241713781684325 -3.179204759672376 -7.4619646372006905 -5.152982833193105 -5.061998905389869 3.086261264134343 -5.254744152044697 -8.03480872198141 -9.57353179902874 -8.961962231736393 -2.3702381496592073 -4.394595306374294 -4.676222990567929 -3.054176022807596 -3.162243353222916 -2.6273799878943453 0.5985827374286767 -2.291887620248758 -3.203325357618068 -7.976750322908868 -2.516825600484271 -8.276635767067692 -8.082854428646906 4.299169961903566 7.617537608309213 -6.274878565540101 3.7512655626536535 9.783337059252787 -4.4083180831966295 -6.100986212437491 -3.8347112535616272 1.810659774292258 -1.3201559322997412 -9.326191276432137 7.850118214440073 3.3529731651172767 -3.939351459938858 3.5582773964551 -8.5145499463533 9.63289013229285 4.748563712014818 -0.17989386656745765 -9.826039611428591 
-0.9656380562362425 0.8286142596813129 -7.088953275845309 3.686332193341906 -8.914756894686516 -1.690295780180671 -4.805182188707855 -5.638908368407396 -0.40624413199139653 -4.067889575745934 -9.241713781684325 -3.179204759672376 -7.4619646372006905 -5.152982833193105 -5.061998905389869 1.2942434349570533 -5.254744152044697 -8.03480872198141 -9.57353179902874 -8.961962231736393 -2.3702381496592073 1.9212577586674762 -4.676222990567929 -3.054176022807596 -3.162243353222916 -2.6273799878943453 -9.965498278440146 -9.13465032873545 -3.203325357618068 8.611186585343727 1.0401626914129292 -8.276635767067692 -9.998851950783838 1.1281104368417623 7.617537608309213 -8.806214339108342 3.7512655626536535 -6.292064117539995 -2.4848254704209722 -6.100986212437491 -4.183413832697324 7.614927658878546 -1.3201559322997412 -9.326191276432137 7.850118214440073 0.9548713613386628 1.970651022028937 3.5582773964551 -2.589258448134819 9.63289013229285 -4.851819044535503 -3.657304717512879 -2.7138639197143437 
5.630884868394981 6.177611362351918 0.4949512752395506 9.339126582891353 5.880682632050247 -1.690295780180671 -1.128045267421939 -5.638908368407396 -0.40624413199139653 -4.754827252169607 -9.241713781684325 -3.179204759672376 -7.4619646372006905 -5.152982833193105 0.9781449618022684 -9.042333836838361 -5.254744152044697 -0.35567575946150853 -9.57353179902874 -8.961962231736393 -2.8117872186256054 -4.394595306374294 -1.0504840799958348 -3.054176022807596 -3.162243353222916 -2.6273799878943453 0.5985827374286767 -2.291887620248758 -3.203325357618068 -7.749906911562887 -2.516825600484271 -8.276635767067692 -8.082854428646906 -7.780539562932914 7.617537608309213 -7.484783404912978 -4.425879204322792 -6.292064117539995 -4.4083180831966295 -6.100986212437491 1.2456035784771586 7.614927658878546 -1.3201559322997412 4.728765268858144 7.850118214440073 3.3529731651172767 -3.939351459938858 3.5582773964551 3.345918461661764 6.560707721677272 6.377516080691972 -8.020931347211071 -2.7138639197143437 
-5.08146960496989 -0.6661080483378221 -7.088953275845309 3.036678108244086 2.484325815608173 -2.415888655484048 -5.4493232263500735 -9.602812726273186 -0.40624413199139653 -7.104242437466688 -9.241713781684325 -3.179204759672376 4.742603090212343 -8.653137695915357 0.8128366302914181 -7.234742092997846 -4.484023606251235 1.663347636451011 4.595143616750226 8.30463010806136 -1.348127962269567 -4.394595306374294 2.1903455871326827 -9.676453189175582 -3.162243353222916 -9.542835345496389 -4.881246169317204 -9.444219675691912 -1.455015173128107 -4.6880597827736 -0.6053711406639231 9.177455781343909 -8.082854428646906 -3.9610446324410775 -9.410192006429313 4.340951296971873 3.7512655626536535 -6.292064117539995 3.584160123135254 4.339638880163248 -3.8347112535616272 1.810659774292258 -0.6449261920037301 -9.326191276432137 0.7374583315156098 3.3529731651172767 -4.983227747544381 3.3158429931776805 -8.5145499463533 6.560707721677272 -4.851819044535503 -7.801264651530975 3.0648847366002148 
-5.08146960496989 -3.8690083581030503 -7.088953275845309 -6.141311313491869 7.768722962024498 -1.0519859204463895 -1.128045267421939 -8.090539597014635 -1.2468603204895032 -7.104242437466688 -9.241713781684325 -6.951236915913297 4.742603090212343 -8.653137695915357 -5.061998905389869 -7.234742092997846 2.158859300371738 1.663347636451011 -9.488636624745986 -8.257181693839197 -1.348127962269567 -4.394595306374294 -6.104327105268061 0.7117647448152304 4.729809078047113 -9.542835345496389 -4.881246169317204 -9.444219675691912 -3.203325357618068 -4.6880597827736 4.401571845510844 -8.144226221638409 8.02131853133207 -3.9610446324410775 -3.5028032433999385 4.340951296971873 9.604421597105222 -6.316981705685092 3.584160123135254 4.339638880163248 -4.95274431896048 -2.502293248469229 -0.6449261920037301 -9.607220831786558 4.231199382206153 -4.124677003341921 -2.8886778821210797 3.3158429931776805 3.8973679476309364 6.560707721677272 -3.4355920728450062 -8.020931347211071 3.0648847366002148 
-5.08146960496989 -3.8690083581030503 -7.088953275845309 9.620274899835039 2.484325815608173 -2.415888655484048 -1.128045267421939 -9.602812726273186 -0.40624413199139653 -7.104242437466688 -9.241713781684325 -6.951236915913297 4.742603090212343 -8.653137695915357 -5.061998905389869 -7.234742092997846 9.991465738432886 1.663347636451011 -8.372118853145867 -8.257181693839197 -1.348127962269567 -4.394595306374294 -5.384981776485693 -8.065815907831 -3.162243353222916 -2.3978192281964494 -4.881246169317204 -9.444219675691912 -1.455015173128107 -4.6880597827736 4.401571845510844 9.177455781343909 -8.082854428646906 -3.9610446324410775 -9.410192006429313 4.340951296971873 3.7512655626536535 6.436018420423714 3.584160123135254 4.339638880163248 -4.95274431896048 1.810659774292258 -0.6449261920037301 -9.607220831786558 4.231199382206153 3.3529731651172767 -4.983227747544381 3.3158429931776805 3.5105928198624063 6.560707721677272 -3.4355920728450062 6.9645345040346385 3.0648847366002148 
-0.9656380562362425 -3.8690083581030503 -7.088953275845309 3.036678108244086 2.484325815608173 -2.415888655484048 -1.128045267421939 -7.814449932310441 -0.40624413199139653 -7.104242437466688 -9.241713781684325 -3.179204759672376 -4.2014464202079775 -8.653137695915357 -5.061998905389869 -7.234742092997846 2.158859300371738 1.663347636451011 -8.372118853145867 -8.257181693839197 -1.348127962269567 -4.394595306374294 -4.676222990567929 -8.065815907831 -3.162243353222916 -2.3978192281964494 -4.881246169317204 -9.444219675691912 -1.455015173128107 -4.6880597827736 4.401571845510844 9.177455781343909 -8.082854428646906 -3.9610446324410775 -9.410192006429313 4.340951296971873 -6.960076188204162 1.7716727178515885 3.584160123135254 -5.977768781684989 2.2552683621161567 1.810659774292258 -0.6449261920037301 -9.607220831786558 -2.5873322864458643 -4.124677003341921 -4.983227747544381 3.3158429931776805 2.023047465530256 6.560707721677272 4.040812255827479 -7.801264651530975 3.0648847366002148 
-0.9656380562362425 -3.8690083581030503 -7.088953275845309 3.036678108244086 -8.914756894686516 -2.415888655484048 -1.128045267421939 -9.602812726273186 9.91075724260456 -7.104242437466688 -9.241713781684325 -6.951236915913297 4.742603090212343 -8.653137695915357 -5.061998905389869 -9.042333836838361 2.158859300371738 -8.03480872198141 -8.372118853145867 -8.257181693839197 7.730974585441416 -4.394595306374294 -4.676222990567929 -8.065815907831 -3.162243353222916 -9.542835345496389 -4.881246169317204 -9.444219675691912 -1.455015173128107 -4.6880597827736 4.401571845510844 9.177455781343909 -8.082854428646906 -3.9610446324410775 -9.410192006429313 4.340951296971873 3.7512655626536535 1.7716727178515885 3.584160123135254 4.339638880163248 -4.95274431896048 7.614927658878546 -0.6449261920037301 -9.607220831786558 7.850118214440073 -4.124677003341921 -3.939351459938858 3.3158429931776805 3.5105928198624063 6.560707721677272 -3.4355920728450062 -7.801264651530975 3.0648847366002148 
-5.08146960496989 -3.8690083581030503 -7.088953275845309 9.620274899835039 2.484325815608173 -2.415888655484048 -1.0521079775155844 -9.602812726273186 -0.40624413199139653 -7.104242437466688 -9.241713781684325 -6.951236915913297 4.742603090212343 -8.653137695915357 -5.061998905389869 -7.234742092997846 -5.254744152044697 -0.35567575946150853 -8.372118853145867 -8.257181693839197 -7.019131858157075 -4.394595306374294 -4.676222990567929 -8.065815907831 -3.926172502839611 -9.542835345496389 -4.881246169317204 -9.444219675691912 -1.455015173128107 -4.6880597827736 4.401571845510844 -8.276635767067692 -8.082854428646906 -3.9610446324410775 -9.410192006429313 -6.274878565540101 3.7512655626536535 1.7716727178515885 2.4647219766526174 -2.987174139776842 -4.95274431896048 1.810659774292258 -0.6449261920037301 -9.607220831786558 4.231199382206153 -4.124677003341921 6.525908997319046 3.3158429931776805 3.5105928198624063 6.560707721677272 -3.4355920728450062 -7.801264651530975 3.0648847366002148 
-5.08146960496989 2.719741114157543 -2.4725451414533755 3.036678108244086 2.484325815608173 -2.415888655484048 -1.128045267421939 -5.638908368407396 -0.40624413199139653 -7.104242437466688 -9.241713781684325 -6.951236915913297 4.742603090212343 -8.653137695915357 -1.2124253553036919 -7.234742092997846 2.158859300371738 1.663347636451011 -8.372118853145867 -8.257181693839197 -1.348127962269567 -4.394595306374294 -4.676222990567929 -8.065815907831 -3.162243353222916 -9.542835345496389 -5.627317008839738 -9.444219675691912 -1.455015173128107 -4.6880597827736 2.3347072871815815 9.177455781343909 -8.082854428646906 -3.9610446324410775 -9.410192006429313 4.340951296971873 3.7512655626536535 1.7716727178515885 3.584160123135254 4.339638880163248 -7.985809839171953 1.810659774292258 -1.3201559322997412 -6.51459668705548 4.231199382206153 -4.124677003341921 -3.939351459938858 0.600618446197462 -8.5145499463533 6.560707721677272 -3.334166643337997 -7.801264651530975 3.0648847366002148 
4.685427363339068 -3.8690083581030503 -7.088953275845309 3.036678108244086 2.484325815608173 -2.449337403193188 -4.805182188707855 -9.602812726273186 -0.40624413199139653 -7.104242437466688 -3.2323835610438545 -6.951236915913297 4.742603090212343 -8.653137695915357 -5.061998905389869 1.2942434349570533 2.9824382763945643 1.663347636451011 -8.372118853145867 -8.257181693839197 -1.348127962269567 -4.394595306374294 -4.676222990567929 -8.065815907831 0.4434173662055425 -1.4132430731033825 -4.881246169317204 -9.444219675691912 -1.455015173128107 -4.6880597827736 4.401571845510844 9.177455781343909 -8.082854428646906 -3.9610446324410775 -9.410192006429313 4.340951296971873 3.7512655626536535 5.6976272999951245 -2.4848254704209722 4.339638880163248 -4.95274431896048 1.810659774292258 -0.6449261920037301 -5.510231339384504 4.231199382206153 -4.124677003341921 -3.939351459938858 3.3158429931776805 -8.5145499463533 3.918657851748417 -3.4355920728450062 -7.801264651530975 3.0648847366002148 
-5.08146960496989 -3.8690083581030503 -7.088953275845309 3.036678108244086 2.484325815608173 -2.415888655484048 -1.128045267421939 -0.0010494230580064823 -0.40624413199139653 -7.104242437466688 -9.241713781684325 -6.951236915913297 4.742603090212343 -5.480488592181498 -5.061998905389869 -7.234742092997846 2.158859300371738 1.663347636451011 -8.372118853145867 0.2175467426933757 -2.8117872186256054 -6.6070085664093225 -4.676222990567929 1.8379760932841283 -3.162243353222916 -1.8884751686295402 -4.881246169317204 -9.444219675691912 -1.455015173128107 -4.6880597827736 0.5393211111413994 9.177455781343909 -8.082854428646906 -7.780539562932914 -9.410192006429313 4.340951296971873 3.7512655626536535 1.7716727178515885 -3.408620544350627 4.339638880163248 -0.25378647626928696 1.810659774292258 -0.6449261920037301 -9.607220831786558 4.231199382206153 -4.124677003341921 -4.983227747544381 3.3158429931776805 3.5105928198624063 6.560707721677272 4.748563712014818 -7.801264651530975 -9.826039611428591 
8.526389673509925 6.431046174682919 7.135505166761391 6.074957812497921 7.580153280413562 7.834105010608486 -4.805182188707855 -5.638908368407396 -0.40624413199139653 -2.4890698057772376 -9.696583130687985 -6.951236915913297 -1.9663532215238 -0.4917323286270765 -5.061998905389869 -9.042333836838361 -2.8980080805845905 -0.37144564717852546 -8.325386713239403 2.9757892125254752 -7.019131858157075 -6.1828705291690556 -4.676222990567929 -8.450615851357988 -5.0761094039162575 -2.3978192281964494 -6.709256266441397 -5.693173939749263 -3.203325357618068 -6.864056524100439 5.499190168170802 -1.1343454869206795 -8.082854428646906 -1.954783180641268 -9.410192006429313 4.4001969541671535 3.7512655626536535 -6.292064117539995 3.584160123135254 3.8328785566218375 1.8287360835668132 8.306054382626709 4.380868172926231 -9.326191276432137 7.850118214440073 3.3529731651172767 6.525908997319046 8.532425741815768 2.7742365498921036 6.560707721677272 -2.286744601054707 6.9645345040346385 8.460223743644598 
0.24069266634692355 6.431046174682919 7.135505166761391 9.620274899835039 7.580153280413562 7.834105010608486 -4.805182188707855 -8.090539597014635 -0.40624413199139653 -2.4890698057772376 -9.241713781684325 -6.951236915913297 0.7319557003560178 -5.152982833193105 -5.061998905389869 -9.042333836838361 -5.254744152044697 -0.35567575946150853 -8.325386713239403 2.9757892125254752 -7.019131858157075 -4.394595306374294 -4.676222990567929 -5.362780132027931 -6.443338968402433 -2.3978192281964494 -2.0051593565550396 -8.84128550819462 -1.455015173128107 -6.864056524100439 5.499190168170802 6.725027243865732 8.577905949507777 -1.954783180641268 -3.5028032433999385 -6.274878565540101 3.7512655626536535 -1.0413263905258656 3.584160123135254 3.8328785566218375 -1.6404730433175807 7.380480947527339 4.380868172926231 -9.326191276432137 6.328996552031491 3.3529731651172767 -9.338788378323324 8.532425741815768 -7.617553014583502 6.560707721677272 9.366850856061859 6.9645345040346385 9.937839535052035 
0.24069266634692355 2.919912492310539 7.135505166761391 9.620274899835039 8.67310523953438 -7.975507880504765 -4.805182188707855 -5.638908368407396 -0.40624413199139653 -2.4890698057772376 -9.241713781684325 -6.951236915913297 0.7319557003560178 -0.20296131964233766 -5.061998905389869 -9.042333836838361 -5.254744152044697 -0.35567575946150853 -8.325386713239403 2.9757892125254752 -7.019131858157075 -4.394595306374294 -4.676222990567929 -1.1698471696152168 -3.162243353222916 -2.3978192281964494 -2.0051593565550396 -5.693173939749263 -1.455015173128107 -6.864056524100439 5.499190168170802 -8.276635767067692 -8.082854428646906 -1.954783180641268 -9.410192006429313 -6.274878565540101 3.7512655626536535 -6.292064117539995 3.584160123135254 3.8328785566218375 -3.1549022572732044 7.380480947527339 4.380868172926231 -9.326191276432137 4.231199382206153 3.3529731651172767 6.525908997319046 8.532425741815768 -9.335151928771792 6.560707721677272 7.074410114072297 6.9645345040346385 9.937839535052035 
0.24069266634692355 6.431046174682919 -7.088953275845309 2.5051612549705133 7.580153280413562 7.834105010608486 -4.805182188707855 -7.814449932310441 -7.12462699329814 -1.5602939750870704 -9.241713781684325 -6.951236915913297 0.7319557003560178 -5.152982833193105 3.138570052173531 1.2942434349570533 -5.254744152044697 -9.267276889215864 -8.325386713239403 2.9757892125254752 -7.019131858157075 -4.394595306374294 -4.676222990567929 -8.450615851357988 -3.926172502839611 -2.3978192281964494 -2.0051593565550396 -5.856933939110299 -8.000177045656097 2.6532158511704083 5.499190168170802 -8.276635767067692 -8.082854428646906 -2.1463930069650283 -9.410192006429313 -6.274878565540101 3.7512655626536535 1.437211108950038 3.584160123135254 -4.794866990780107 1.8287360835668132 7.380480947527339 5.283016045235989 -9.326191276432137 6.328996552031491 3.3529731651172767 6.525908997319046 9.638251673540278 -7.617553014583502 6.560707721677272 -2.286744601054707 6.9645345040346385 9.937839535052035 
0.24069266634692355 6.431046174682919 -1.936028358033699 9.620274899835039 7.580153280413562 -1.690295780180671 -4.805182188707855 -5.638908368407396 -0.40624413199139653 -4.754827252169607 -9.241713781684325 -6.951236915913297 0.7319557003560178 -5.152982833193105 -5.061998905389869 -9.042333836838361 -5.254744152044697 -8.03480872198141 -8.325386713239403 2.9757892125254752 -2.3702381496592073 -4.394595306374294 -4.676222990567929 -3.054176022807596 2.012811217088796 -2.3978192281964494 -2.0051593565550396 -5.693173939749263 -1.455015173128107 -6.864056524100439 5.499190168170802 -8.276635767067692 -8.082854428646906 -2.1463930069650283 3.1673843273547693 -6.274878565540101 3.7512655626536535 -6.292064117539995 3.584160123135254 3.8328785566218375 1.8287360835668132 7.380480947527339 4.380868172926231 -7.385054588745811 6.328996552031491 3.3529731651172767 -4.049370799361391 8.532425741815768 -7.617553014583502 6.560707721677272 -2.286744601054707 -0.17989386656745765 9.937839535052035 
0.24069266634692355 -3.8690083581030503 -7.088953275845309 9.620274899835039 7.580153280413562 7.834105010608486 -1.128045267421939 -5.638908368407396 -0.40624413199139653 -2.4890698057772376 -9.241713781684325 -6.951236915913297 0.7319557003560178 -5.152982833193105 -5.061998905389869 -9.042333836838361 -5.254744152044697 -0.35567575946150853 -8.325386713239403 2.9757892125254752 2.1465132442113735 -4.394595306374294 -4.676222990567929 -8.450615851357988 -3.2807538858644563 -2.5799191884601207 -2.0051593565550396 -9.444219675691912 -6.733850754018 -4.6880597827736 5.499190168170802 9.177455781343909 -8.082854428646906 -3.9610446324410775 -9.410192006429313 8.372299680909762 3.7512655626536535 -6.292064117539995 3.584160123135254 3.8328785566218375 1.8287360835668132 3.243554808221349 4.380868172926231 -9.326191276432137 6.328996552031491 3.3529731651172767 6.525908997319046 8.532425741815768 -7.617553014583502 6.560707721677272 -2.286744601054707 6.9645345040346385 9.937839535052035 
0.24069266634692355 2.719741114157543 7.135505166761391 9.339126582891353 -6.69685726934357 7.834105010608486 -4.805182188707855 -5.638908368407396 -0.40624413199139653 -2.4890698057772376 -9.241713781684325 -6.951236915913297 -7.4619646372006905 -5.152982833193105 -5.061998905389869 -9.042333836838361 -5.254744152044697 -8.03480872198141 -8.325386713239403 -8.961962231736393 -7.019131858157075 -2.76536813799773 -0.6189349972384584 -3.054176022807596 -3.926172502839611 -2.3978192281964494 -2.0051593565550396 -5.693173939749263 -4.420633910806673 -6.864056524100439 2.3347072871815815 -8.276635767067692 -8.082854428646906 4.299169961903566 -9.410192006429313 -6.274878565540101 3.7512655626536535 -6.292064117539995 3.584160123135254 3.8328785566218375 -7.985809839171953 7.380480947527339 -1.3201559322997412 -6.51459668705548 6.328996552031491 3.3529731651172767 6.525908997319046 8.532425741815768 -7.617553014583502 6.560707721677272 -2.286744601054707 -6.847334882910772 9.937839535052035 
4.685427363339068 6.431046174682919 -7.088953275845309 9.620274899835039 7.580153280413562 -2.449337403193188 -9.417329617022885 -5.638908368407396 -8.795668247556724 -2.4890698057772376 -9.241713781684325 -6.951236915913297 0.7319557003560178 -5.152982833193105 -5.061998905389869 -9.042333836838361 -5.254744152044697 -0.35567575946150853 -8.325386713239403 2.9757892125254752 -1.348127962269567 -4.394595306374294 -4.676222990567929 -8.450615851357988 -3.162243353222916 -2.3978192281964494 -2.0051593565550396 -5.693173939749263 -8.000177045656097 -6.864056524100439 5.499190168170802 -8.276635767067692 -8.082854428646906 1.1281104368417623 0.5167675181270841 9.817735714893903 3.7512655626536535 -6.292064117539995 3.584160123135254 3.8328785566218375 -7.27376312735257 7.380480947527339 4.380868172926231 -5.510231339384504 5.918627086442946 3.3529731651172767 6.525908997319046 3.3158429931776805 -7.617553014583502 3.446137007501715 -2.286744601054707 6.9645345040346385 9.937839535052035 
0.24069266634692355 6.431046174682919 7.135505166761391 9.620274899835039 7.580153280413562 7.834105010608486 7.814513590364204 -8.090539597014635 -5.154710180022102 -2.4890698057772376 -9.241713781684325 -6.951236915913297 0.7319557003560178 -5.152982833193105 -5.061998905389869 -9.042333836838361 -5.254744152044697 -0.35567575946150853 -8.325386713239403 2.9757892125254752 7.307767403581757 -4.394595306374294 -4.676222990567929 0.7117647448152304 -3.926172502839611 -2.3978192281964494 -2.0051593565550396 -5.693173939749263 -1.6411858472150858 -6.864056524100439 5.499190168170802 -8.276635767067692 -8.082854428646906 -1.954783180641268 -3.5028032433999385 -6.274878565540101 3.7512655626536535 -6.292064117539995 -1.615997911824035 3.8328785566218375 1.2456035784771586 7.380480947527339 -1.3201559322997412 -9.326191276432137 6.328996552031491 3.3529731651172767 6.525908997319046 6.648184600884424 -7.617553014583502 -9.290867908250666 4.748563712014818 6.9645345040346385 9.937839535052035 
5.630884868394981 2.719741114157543 -2.4725451414533755 6.074957812497921 -6.69685726934357 -1.0519859204463895 -5.4493232263500735 -5.638908368407396 -0.40624413199139653 -4.754827252169607 -9.241713781684325 4.734585179961224 -9.191086523921982 -5.152982833193105 0.8128366302914181 -9.042333836838361 -5.254744152044697 -0.35567575946150853 -9.57353179902874 -8.961962231736393 9.538775999752943 -7.799523267255973 -4.676222990567929 -3.054176022807596 -3.162243353222916 -2.3978192281964494 -6.709256266441397 6.482787446218822 -3.203325357618068 -7.976750322908868 2.3347072871815815 -1.1343454869206795 -8.082854428646906 4.299169961903566 7.617537608309213 -5.255400203463063 -6.76754578469046 -6.292064117539995 8.91316506577897 -4.515582524470334 -7.985809839171953 8.306054382626709 -1.3201559322997412 -6.51459668705548 7.850118214440073 7.914777302784689 -3.939351459938858 0.600618446197462 0.2647013291443141 6.560707721677272 -1.1201600735815376 -0.5732599288399669 -2.7138639197143437 
5.630884868394981 2.719741114157543 -2.4725451414533755 9.339126582891353 7.768722962024498 -1.0519859204463895 -1.128045267421939 -5.638908368407396 -1.2468603204895032 -0.2376126192731931 -7.256843824528465 -3.179204759672376 -7.4619646372006905 -5.152982833193105 -1.2124253553036919 -9.042333836838361 -5.254744152044697 -8.03480872198141 -9.57353179902874 -8.961962231736393 6.577351735791105 -4.394595306374294 -4.676222990567929 -3.054176022807596 -3.162243353222916 -2.3978192281964494 -5.627317008839738 -8.84128550819462 3.7152311434911987 4.903778553223193 2.3347072871815815 -8.144226221638409 8.577905949507777 4.299169961903566 7.617537608309213 -5.255400203463063 3.7512655626536535 -6.292064117539995 8.91316506577897 -2.246249422042901 -1.6404730433175807 1.78074717628715 -1.3201559322997412 -6.51459668705548 7.850118214440073 0.9548713613386628 -2.8886778821210797 6.648184600884424 -8.5145499463533 6.560707721677272 9.950720852010797 0.009944537048085067 -9.826039611428591 
5.630884868394981 -4.040333288233953 -2.4725451414533755 9.339126582891353 -6.69685726934357 -1.0519859204463895 1.0861746743094063 -5.638908368407396 2.918274303136105 -4.754827252169607 -9.241713781684325 -3.179204759672376 -7.4619646372006905 -5.152982833193105 -5.061998905389869 -9.042333836838361 -5.254744152044697 -0.35567575946150853 5.5383323011828764 -8.961962231736393 -7.019131858157075 -4.394595306374294 -4.676222990567929 -3.054176022807596 -3.162243353222916 -2.3978192281964494 -2.0051593565550396 -4.896627377909574 -3.203325357618068 -7.976750322908868 -3.3541391360417716 6.617562485297427 -8.082854428646906 4.299169961903566 7.617537608309213 -6.274878565540101 3.7512655626536535 -2.505676807363562 8.91316506577897 -4.515582524470334 -7.985809839171953 1.810659774292258 4.380868172926231 -9.326191276432137 4.231199382206153 9.312208872239339 -3.939351459938858 0.600618446197462 -8.5145499463533 6.560707721677272 4.748563712014818 5.326120096452119 1.4697440563625825 
5.630884868394981 2.719741114157543 -8.320601410407045 9.339126582891353 -6.69685726934357 -7.806394614504201 -1.128045267421939 -5.638908368407396 -7.12462699329814 -4.754827252169607 -9.241713781684325 -3.179204759672376 7.632294606837448 -5.152982833193105 -4.719054714013497 -9.042333836838361 7.727201463527781 -8.03480872198141 -9.57353179902874 -8.961962231736393 6.8096694287701816 9.350848126930401 -4.676222990567929 -3.054176022807596 -3.162243353222916 -2.3978192281964494 0.5985827374286767 -5.856933939110299 -3.203325357618068 -7.976750322908868 2.3347072871815815 6.617562485297427 -8.082854428646906 4.299169961903566 7.617537608309213 -5.255400203463063 3.7512655626536535 -6.292064117539995 3.584160123135254 -4.515582524470334 -7.985809839171953 1.810659774292258 -1.3201559322997412 -6.51459668705548 7.850118214440073 0.9548713613386628 -3.939351459938858 -8.39792392661552 -8.5145499463533 6.560707721677272 4.040812255827479 0.009944537048085067 -9.826039611428591 
5.630884868394981 2.719741114157543 -2.4725451414533755 -7.992914961134325 -6.8499431581858445 -1.0519859204463895 -1.128045267421939 -5.638908368407396 -0.40624413199139653 -4.754827252169607 -9.241713781684325 -3.179204759672376 -7.4619646372006905 -5.152982833193105 -1.2124253553036919 -9.042333836838361 -5.254744152044697 -8.03480872198141 -9.57353179902874 -8.961962231736393 -2.3702381496592073 -4.394595306374294 -4.676222990567929 -3.054176022807596 -3.162243353222916 -2.3978192281964494 0.5985827374286767 -4.896627377909574 -3.203325357618068 -7.976750322908868 2.3347072871815815 6.617562485297427 -8.082854428646906 2.5143067284753666 7.617537608309213 -6.274878565540101 3.7512655626536535 -6.292064117539995 -4.4083180831966295 -4.515582524470334 -7.985809839171953 1.810659774292258 -1.3201559322997412 -6.51459668705548 7.850118214440073 0.9548713613386628 -5.071765627168745 0.600618446197462 7.924301841184228 9.63289013229285 4.748563712014818 0.009944537048085067 -9.826039611428591 
5.630884868394981 2.719741114157543 -7.088953275845309 9.339126582891353 -6.69685726934357 0.9938651159191707 0.023703082093653904 -5.638908368407396 -9.994496090764478 -4.754827252169607 -9.241713781684325 5.0154169867372715 4.742603090212343 -8.653137695915357 -1.5662769913288344 -7.234742092997846 -5.254744152044697 1.663347636451011 -9.57353179902874 -8.961962231736393 -2.3702381496592073 -4.394595306374294 -4.676222990567929 -3.054176022807596 -3.162243353222916 -9.542835345496389 -4.881246169317204 -9.444219675691912 -3.203325357618068 -7.976750322908868 2.3347072871815815 6.617562485297427 -8.082854428646906 4.299169961903566 -9.410192006429313 4.340951296971873 3.7512655626536535 -6.292064117539995 8.91316506577897 -1.9006200798227564 -7.985809839171953 1.810659774292258 -1.3201559322997412 -9.607220831786558 7.850118214440073 0.9548713613386628 -3.939351459938858 0.600618446197462 3.5105928198624063 6.560707721677272 4.748563712014818 0.009944537048085067 -9.826039611428591 
5.630884868394981 2.719741114157543 -2.4725451414533755 9.339126582891353 -6.69685726934357 7.834105010608486 -4.805182188707855 7.319787352143976 -0.40624413199139653 -4.754827252169607 -9.241713781684325 -3.179204759672376 -7.4619646372006905 -5.152982833193105 -1.2124253553036919 -9.042333836838361 -5.254744152044697 -1.9042893108591628 -9.57353179902874 -8.961962231736393 -7.019131858157075 -4.394595306374294 -4.676222990567929 -8.450615851357988 -3.162243353222916 -2.3978192281964494 -2.0051593565550396 -4.896627377909574 -3.203325357618068 -7.976750322908868 2.3347072871815815 6.617562485297427 -2.5227165407646783 4.299169961903566 -9.410192006429313 -5.255400203463063 3.7512655626536535 -6.292064117539995 3.584160123135254 -4.515582524470334 -7.985809839171953 7.380480947527339 4.380868172926231 -6.51459668705548 3.642878641126801 3.3529731651172767 6.525908997319046 8.532425741815768 -4.877873902081942 6.560707721677272 4.748563712014818 0.009944537048085067 -9.826039611428591 
5.630884868394981 1.5174073486423225 -2.4725451414533755 9.339126582891353 -6.69685726934357 -1.0519859204463895 -1.128045267421939 -5.638908368407396 -0.40624413199139653 -4.754827252169607 -9.241713781684325 -3.781595325549201 -7.4619646372006905 -5.152982833193105 -1.2124253553036919 -9.042333836838361 -5.254744152044697 -8.03480872198141 -9.57353179902874 -8.961962231736393 -1.348127962269567 -4.394595306374294 -4.676222990567929 -3.054176022807596 -3.162243353222916 -2.3978192281964494 -5.627317008839738 -0.9961332316615028 -3.203325357618068 -7.976750322908868 2.3347072871815815 6.617562485297427 -8.082854428646906 4.299169961903566 7.617537608309213 -5.255400203463063 3.7512655626536535 -6.292064117539995 8.91316506577897 -4.515582524470334 -4.183413832697324 9.67973981841443 5.115711334634259 -6.51459668705548 5.918627086442946 4.3251725541146495 4.053906678402516 0.600618446197462 -8.5145499463533 3.446137007501715 4.748563712014818 0.009944537048085067 -9.826039611428591 
5.630884868394981 -0.6391515839626205 -2.4725451414533755 8.301957882827121 -6.69685726934357 -0.0776529120909526 -1.128045267421939 -5.638908368407396 -0.40624413199139653 -2.4890698057772376 -9.241713781684325 -6.7443477042220135 -7.4619646372006905 -5.152982833193105 -1.2124253553036919 -9.042333836838361 8.284924223054887 5.4331512709247 -9.57353179902874 -8.961962231736393 -2.3702381496592073 -6.6070085664093225 -4.676222990567929 -3.054176022807596 -3.162243353222916 -2.3978192281964494 -5.627317008839738 -4.896627377909574 -3.203325357618068 -7.976750322908868 2.3347072871815815 6.617562485297427 8.577905949507777 4.299169961903566 7.617537608309213 -5.255400203463063 3.7512655626536535 -6.292064117539995 8.91316506577897 -4.515582524470334 -7.985809839171953 1.810659774292258 -1.3201559322997412 -6.51459668705548 -0.07294082642385646 0.9548713613386628 -3.939351459938858 0.600618446197462 -9.831817467800692 6.560707721677272 4.748563712014818 0.009944537048085067 8.651317712663115 
8.552165587241355 2.719741114157543 -7.088953275845309 3.686332193341906 -1.1633302821259246 -2.449337403193188 -4.805182188707855 -7.814449932310441 -0.40624413199139653 -6.190188953445341 -9.241713781684325 -3.179204759672376 -5.311950592652785 -5.152982833193105 0.8128366302914181 -3.493723725145575 -4.484023606251235 -9.267276889215864 -9.57353179902874 -1.1786615914199707 -1.348127962269567 -6.337343114242313 -4.676222990567929 -8.065815907831 -3.162243353222916 -7.7182616140032545 -9.965498278440146 -2.291887620248758 -8.000177045656097 -3.956613196515118 7.814429064849978 -8.276635767067692 -9.998851950783838 4.299169961903566 -3.238573867179886 -8.806214339108342 3.7512655626536535 5.6976272999951245 -0.6437795564728859 1.9519129544453477 -3.8347112535616272 8.306054382626709 4.806797839799923 -5.510231339384504 5.918627086442946 0.9548713613386628 -3.939351459938858 3.3158429931776805 -8.5145499463533 7.029692381902841 1.040684275314348 -3.657304717512879 3.0648847366002148 
4.685427363339068 -9.646569897346906 1.891935121105865 -2.710629213336402 7.768722962024498 -1.0519859204463895 -4.805182188707855 -8.090539597014635 -0.40624413199139653 4.79976428225946 -9.241713781684325 -3.179204759672376 -5.311950592652785 -2.1834297952321746 -8.345328492991932 -8.363491459123175 -5.254744152044697 -9.267276889215864 -9.57353179902874 -1.1786615914199707 -1.348127962269567 -4.394595306374294 -4.676222990567929 0.7117647448152304 -3.162243353222916 -8.18682705781445 0.9821017236266609 -0.9961332316615028 -3.203325357618068 -7.287159135621117 7.814429064849978 8.297602532456068 -9.998851950783838 1.1281104368417623 0.5167675181270841 0.7357908603603391 3.7512655626536535 5.2700575480214535 -3.408620544350627 1.9519129544453477 -4.183413832697324 9.67973981841443 4.806797839799923 4.728765268858144 5.918627086442946 0.9548713613386628 5.209284667679565 3.3158429931776805 -1.891923519811261 3.446137007501715 1.040684275314348 -3.657304717512879 3.0648847366002148 
-0.9656380562362425 -7.9560520291381875 -7.088953275845309 9.620274899835039 -4.872746087353463 -2.449337403193188 -4.805182188707855 -5.638908368407396 2.918274303136105 -2.4890698057772376 -9.241713781684325 -6.951236915913297 -5.311950592652785 -5.152982833193105 -5.061998905389869 -9.042333836838361 -5.254744152044697 -9.267276889215864 -8.325386713239403 -1.1786615914199707 -1.348127962269567 -4.394595306374294 -4.676222990567929 -8.450615851357988 -3.162243353222916 -2.3978192281964494 -9.965498278440146 -5.693173939749263 -8.000177045656097 8.396102958134978 5.499190168170802 -8.276635767067692 8.255633549757249 1.1281104368417623 0.5167675181270841 -8.806214339108342 3.7512655626536535 5.6976272999951245 -2.4848254704209722 1.9519129544453477 -4.183413832697324 9.67973981841443 4.380868172926231 -5.510231339384504 5.918627086442946 0.9548713613386628 0.8054852953590306 3.3158429931776805 -9.19692171076678 3.446137007501715 -4.989968026808722 6.9645345040346385 3.0648847366002148 
4.685427363339068 2.719741114157543 -7.088953275845309 3.686332193341906 -4.872746087353463 1.8911191954049134 -4.805182188707855 3.268970044832866 -7.12462699329814 -6.190188953445341 -9.241713781684325 -3.179204759672376 -4.2014464202079775 7.886747170081897 -8.345328492991932 1.2942434349570533 6.352831161134084 -9.267276889215864 -9.57353179902874 -1.1786615914199707 -1.348127962269567 -4.394595306374294 -4.676222990567929 0.7117647448152304 -3.162243353222916 -1.4132430731033825 0.5985827374286767 -0.9961332316615028 -8.000177045656097 -7.287159135621117 8.869323265572351 -8.276635767067692 -9.998851950783838 1.1281104368417623 2.408382335626982 -6.274878565540101 -6.960076188204162 5.6976272999951245 -2.4848254704209722 1.9519129544453477 7.6328678075279335 -1.4011584778798962 4.806797839799923 -5.510231339384504 -2.5873322864458643 0.9548713613386628 -3.939351459938858 3.3158429931776805 2.023047465530256 3.446137007501715 1.040684275314348 -3.657304717512879 3.0648847366002148 
4.685427363339068 -7.9560520291381875 -7.088953275845309 3.686332193341906 1.0134593509443874 -2.449337403193188 -1.128045267421939 -7.814449932310441 -0.40624413199139653 -4.754827252169607 -9.241713781684325 -3.179204759672376 -5.311950592652785 -5.152982833193105 -8.345328492991932 1.2942434349570533 -5.254744152044697 -9.267276889215864 -9.57353179902874 -6.569866126282456 -8.033002459500093 -4.394595306374294 -4.676222990567929 -8.065815907831 -3.162243353222916 -1.4132430731033825 -9.965498278440146 -0.9961332316615028 -3.203325357618068 -7.287159135621117 7.814429064849978 -8.276635767067692 -9.998851950783838 1.1281104368417623 0.5167675181270841 -6.274878565540101 3.7512655626536535 5.6976272999951245 -1.238050934411831 1.9519129544453477 -4.183413832697324 7.614927658878546 4.806797839799923 -5.510231339384504 5.918627086442946 0.9548713613386628 -3.939351459938858 3.3158429931776805 -8.5145499463533 3.446137007501715 -8.067736220255524 -3.657304717512879 3.0648847366002148 
4.685427363339068 -3.8690083581030503 -7.088953275845309 3.686332193341906 2.484325815608173 -2.449337403193188 -4.805182188707855 -7.814449932310441 -0.40624413199139653 -6.190188953445341 -9.241713781684325 -3.179204759672376 -5.311950592652785 -5.152982833193105 -8.345328492991932 -4.4593137129419524 -5.254744152044697 -9.267276889215864 -8.372118853145867 -1.1786615914199707 -1.348127962269567 -4.394595306374294 -4.676222990567929 -8.065815907831 -3.162243353222916 -1.4132430731033825 -9.965498278440146 -0.9961332316615028 -8.000177045656097 -7.287159135621117 7.814429064849978 -1.0673260480790532 -4.623473901797517 1.1281104368417623 -9.410192006429313 -9.534541389114992 3.7512655626536535 5.6976272999951245 3.584160123135254 1.9519129544453477 -4.183413832697324 9.67973981841443 4.806797839799923 -5.510231339384504 5.918627086442946 5.733303110768993 -3.939351459938858 3.3158429931776805 3.5105928198624063 3.446137007501715 1.040684275314348 -7.801264651530975 3.0648847366002148 
0.24069266634692355 6.431046174682919 -7.088953275845309 3.686332193341906 7.580153280413562 -4.694547891379608 -4.805182188707855 -7.814449932310441 -0.40624413199139653 -6.190188953445341 -9.241713781684325 -3.179204759672376 -5.311950592652785 -5.152982833193105 -8.345328492991932 1.2942434349570533 -5.254744152044697 -0.35567575946150853 -9.57353179902874 -1.1786615914199707 -1.348127962269567 -4.394595306374294 0.3595489669502747 -8.065815907831 -3.162243353222916 -2.3978192281964494 -2.0051593565550396 2.6870873928351617 -8.000177045656097 -7.287159135621117 7.814429064849978 -8.276635767067692 -8.082854428646906 -1.954783180641268 8.51670801373525 -8.806214339108342 3.7512655626536535 5.6976272999951245 -2.4848254704209722 1.9519129544453477 -4.183413832697324 7.380480947527339 4.806797839799923 -5.510231339384504 5.918627086442946 0.9548713613386628 -3.939351459938858 8.532425741815768 2.7591211358886234 3.446137007501715 -2.286744601054707 -3.657304717512879 -3.582654429123229 
4.685427363339068 -7.9560520291381875 -7.088953275845309 3.686332193341906 -4.872746087353463 -2.449337403193188 -4.805182188707855 -7.814449932310441 -0.40624413199139653 -6.190188953445341 -9.241713781684325 -3.179204759672376 -5.311950592652785 -6.387004419375288 -8.345328492991932 1.2942434349570533 -5.254744152044697 -9.267276889215864 -9.57353179902874 -1.1786615914199707 -1.348127962269567 8.246812487917111 -4.676222990567929 -8.065815907831 -3.162243353222916 -1.4132430731033825 -9.965498278440146 -8.086862822465456 -8.000177045656097 -7.287159135621117 2.3347072871815815 -8.276635767067692 -9.998851950783838 1.1281104368417623 0.5167675181270841 -8.806214339108342 3.7512655626536535 5.6976272999951245 -2.4848254704209722 1.9519129544453477 -4.183413832697324 9.67973981841443 4.806797839799923 -6.51459668705548 5.918627086442946 0.9548713613386628 -3.939351459938858 3.3158429931776805 0.002295727410901449 3.446137007501715 6.003407305834546 -3.657304717512879 0.4243502674723061 
4.685427363339068 -7.9560520291381875 -7.088953275845309 3.686332193341906 -8.418875604459554 4.638426538090371 1.0185973107631607 -7.814449932310441 -0.40624413199139653 -6.190188953445341 -9.241713781684325 -3.179204759672376 -5.311950592652785 -5.152982833193105 -5.061998905389869 1.2942434349570533 -5.254744152044697 -9.267276889215864 -9.57353179902874 -1.1786615914199707 -2.8117872186256054 -4.394595306374294 -4.676222990567929 -8.065815907831 -3.162243353222916 -2.6972002252614846 -5.269845550565819 -0.9961332316615028 -8.000177045656097 -7.287159135621117 7.814429064849978 6.617562485297427 -9.998851950783838 1.1281104368417623 0.5167675181270841 -7.484783404912978 3.7512655626536535 -6.316981705685092 -2.4848254704209722 1.9519129544453477 -4.183413832697324 9.67973981841443 -1.3201559322997412 4.728765268858144 5.918627086442946 0.9548713613386628 -3.939351459938858 3.3158429931776805 -8.5145499463533 3.446137007501715 4.748563712014818 -8.020931347211071 -2.4984046482239464 
5.630884868394981 1.2313135560008064 -2.4725451414533755 8.301957882827121 -9.550077718523287 6.118904270336646 7.814513590364204 -5.638908368407396 -6.311809414993624 -2.4890698057772376 -3.235597636270655 -6.7443477042220135 -9.191086523921982 -2.1834297952321746 -5.061998905389869 -9.103887850589562 -4.484023606251235 -0.35567575946150853 -9.57353179902874 5.701478448184432 -2.8117872186256054 -6.6070085664093225 -1.0504840799958348 0.7117647448152304 -3.162243353222916 -1.8884751686295402 -5.269845550565819 -9.27413040739162 -3.203325357618068 -3.956613196515118 -0.6053711406639231 -1.1343454869206795 8.577905949507777 -7.780539562932914 -3.238573867179886 -7.484783404912978 -4.425879204322792 -6.316981705685092 -3.408620544350627 7.8004646640157524 1.2456035784771586 2.080870262373221 -9.71726829321549 -7.440340159098251 7.850118214440073 3.3529731651172767 -9.099936417659261 6.648184600884424 4.531273073024039 6.560707721677272 4.748563712014818 -8.020931347211071 -9.826039611428591 
5.630884868394981 -0.6391515839626205 0.4949512752395506 8.301957882827121 5.880682632050247 6.118904270336646 -1.128045267421939 -8.090539597014635 -1.2468603204895032 -2.4890698057772376 -3.235597636270655 8.822320031639961 -6.5946208838880676 -2.1834297952321746 -5.061998905389869 -9.103887850589562 8.284924223054887 -0.35567575946150853 -9.488636624745986 5.701478448184432 -2.8117872186256054 -6.6070085664093225 -1.0504840799958348 0.7117647448152304 -3.162243353222916 -1.8884751686295402 -5.269845550565819 -9.27413040739162 -3.203325357618068 -7.749906911562887 0.5393211111413994 6.617562485297427 8.577905949507777 -7.780539562932914 -3.5028032433999385 -7.484783404912978 9.604421597105222 -6.316981705685092 -3.408620544350627 7.8004646640157524 1.2456035784771586 2.080870262373221 1.4078308777334883 -3.049803793139092 4.8965946719472 0.9548713613386628 -9.099936417659261 6.648184600884424 3.345918461661764 6.560707721677272 4.748563712014818 -8.020931347211071 -9.826039611428591 
5.630884868394981 9.858076368981369 0.4949512752395506 8.301957882827121 5.880682632050247 6.118904270336646 7.814513590364204 -8.090539597014635 -1.2468603204895032 -2.4890698057772376 -3.235597636270655 -6.7443477042220135 -6.5946208838880676 -0.20296131964233766 -5.575024550922434 -9.103887850589562 8.284924223054887 -0.35567575946150853 -9.488636624745986 5.701478448184432 9.667068059537495 -6.6070085664093225 -7.6152814298080145 0.7117647448152304 -3.162243353222916 -1.8884751686295402 -2.0051593565550396 -5.693173939749263 -3.203325357618068 -7.749906911562887 5.499190168170802 -8.276635767067692 3.267944073525907 -7.780539562932914 -9.410192006429313 -7.484783404912978 -4.425879204322792 -6.292064117539995 -3.408620544350627 7.8004646640157524 1.8287360835668132 2.080870262373221 -1.3201559322997412 4.728765268858144 -1.9221660623553305 0.9548713613386628 -6.775918332761681 6.648184600884424 3.345918461661764 6.560707721677272 4.748563712014818 6.9645345040346385 -9.826039611428591 
5.630884868394981 -0.6391515839626205 -7.088953275845309 8.301957882827121 1.955612668410879 6.118904270336646 -4.805182188707855 -8.090539597014635 -1.2468603204895032 -2.4890698057772376 -3.235597636270655 -6.7443477042220135 -4.2014464202079775 -5.152982833193105 -5.061998905389869 -9.103887850589562 8.284924223054887 -0.35567575946150853 -9.488636624745986 8.024616188147483 -2.8117872186256054 -6.6070085664093225 -1.9738007124620882 0.7117647448152304 0.41308202167714647 -1.8884751686295402 0.5985827374286767 6.486700668469368 -8.000177045656097 -7.749906911562887 0.5393211111413994 2.6895580752064863 8.298487272731116 -7.780539562932914 -7.820461228373743 -7.484783404912978 -4.425879204322792 -6.316981705685092 -3.408620544350627 7.8004646640157524 2.2552683621161567 2.080870262373221 -1.3201559322997412 -9.326191276432137 -1.9221660623553305 5.079563722204938 -9.099936417659261 6.648184600884424 -0.03896053869231686 6.560707721677272 4.748563712014818 -8.020931347211071 -9.826039611428591 
-0.9656380562362425 -0.6391515839626205 -2.4725451414533755 8.301957882827121 5.880682632050247 -1.690295780180671 7.814513590364204 -8.090539597014635 -6.396836389821732 -6.393190515671366 -9.820065378639464 -3.179204759672376 -6.5946208838880676 -2.1834297952321746 -5.061998905389869 -9.103887850589562 -5.254744152044697 -0.35567575946150853 -9.488636624745986 -8.961962231736393 -2.8117872186256054 -6.6070085664093225 -1.0504840799958348 7.609779302018911 -3.162243353222916 -2.6273799878943453 -5.269845550565819 -9.27413040739162 -3.203325357618068 -7.749906911562887 -2.516825600484271 6.617562485297427 -8.082854428646906 -1.3819021596672485 -3.5028032433999385 -7.484783404912978 3.7512655626536535 -6.316981705685092 -4.4083180831966295 7.8004646640157524 -2.328733901650571 2.080870262373221 -1.3201559322997412 4.728765268858144 -1.9221660623553305 0.9548713613386628 7.541533703630556 6.648184600884424 -5.800862289168254 6.560707721677272 4.748563712014818 -8.020931347211071 -9.826039611428591 
5.630884868394981 -0.6391515839626205 0.4949512752395506 3.036678108244086 5.880682632050247 6.118904270336646 -1.128045267421939 -9.602812726273186 -1.2468603204895032 -7.104242437466688 -3.235597636270655 -6.951236915913297 -6.5946208838880676 -2.1834297952321746 -5.061998905389869 -6.311812795791467 1.664567997474924 -0.35567575946150853 -9.488636624745986 -8.460487850406134 -2.8117872186256054 -5.458018154210045 -4.676222990567929 -8.065815907831 -3.162243353222916 -9.542835345496389 6.854599683733518 -9.444219675691912 -3.203325357618068 -7.749906911562887 0.5393211111413994 6.617562485297427 8.577905949507777 -3.9610446324410775 -3.5028032433999385 -7.484783404912978 -4.425879204322792 -6.316981705685092 -3.408620544350627 7.8004646640157524 1.2456035784771586 2.080870262373221 -1.3201559322997412 4.728765268858144 -1.9221660623553305 -9.05009395430785 -9.099936417659261 6.648184600884424 3.345918461661764 6.560707721677272 -3.4355920728450062 -8.020931347211071 -9.826039611428591 
5.630884868394981 -0.6391515839626205 0.4949512752395506 9.620274899835039 5.880682632050247 6.118904270336646 7.814513590364204 -8.090539597014635 1.9726898168337783 -2.4890698057772376 -3.235597636270655 -6.7443477042220135 -6.5946208838880676 -2.1834297952321746 4.151242873185099 -9.103887850589562 8.284924223054887 -0.35567575946150853 -8.325386713239403 5.701478448184432 -2.8117872186256054 -6.6070085664093225 -1.0504840799958348 0.7117647448152304 -3.926172502839611 -1.8884751686295402 -5.269845550565819 -9.27413040739162 -3.203325357618068 -6.864056524100439 5.499190168170802 -3.2410429444024107 -8.082854428646906 -7.780539562932914 -3.5028032433999385 -7.484783404912978 3.7512655626536535 -6.292064117539995 -3.408620544350627 4.495438979166181 1.2456035784771586 2.080870262373221 -1.3201559322997412 4.728765268858144 -1.9221660623553305 0.9548713613386628 -9.099936417659261 6.648184600884424 3.345918461661764 6.560707721677272 -2.286744601054707 6.9645345040346385 -4.854161465006889 
5.630884868394981 -0.6391515839626205 0.4949512752395506 8.301957882827121 5.880682632050247 -1.0519859204463895 7.814513590364204 -3.9549662551280544 -0.40624413199139653 -2.4890698057772376 -3.235597636270655 -6.7443477042220135 -6.5946208838880676 -2.1834297952321746 -1.2124253553036919 -9.103887850589562 8.284924223054887 -0.35567575946150853 -9.488636624745986 5.701478448184432 -2.8117872186256054 -6.6070085664093225 -4.676222990567929 0.7117647448152304 -3.162243353222916 -1.8884751686295402 -5.269845550565819 -9.27413040739162 -3.203325357618068 -7.976750322908868 0.5393211111413994 6.617562485297427 -8.082854428646906 -7.780539562932914 -3.5028032433999385 -7.484783404912978 -4.425879204322792 9.00745526104766 8.91316506577897 -4.515582524470334 1.2456035784771586 2.080870262373221 -1.3201559322997412 -6.51459668705548 -1.9221660623553305 0.9548713613386628 -9.099936417659261 5.586349522976658 3.345918461661764 6.560707721677272 4.748563712014818 -8.020931347211071 -9.826039611428591 
