8.001181507707567 6.479693709016342 -3.0352858965156244 0.9688478614263651 0.37805734935498947 -8.101575091919312 8.813402661507297 -8.392947691510905 3.4122561995733154 -3.6639545043088484 -6.409293756031602 -8.048630598786461 -6.360517316691929 -8.732047211252162 -2.9079153669225004 -6.6993215079766095 -6.906084018414034 1.0666159567772944 -9.783269102037817 2.8333393715168746 -4.097400343297535 -6.3832071446183924 -8.94592087236881 0.41211964288663694 -5.349574962277983 -7.897704574701175 -4.639838368038067 -6.9922538019333285 -8.960675142846654 -4.771521517685371 7.199753955469873 -0.5628141605329908 5.37065126688317 4.31666967305334 9.329474322461252 5.957870418642965 1.357085530605275 -4.442793376152359 5.624509471901238 -3.9828719851520162 8.926596074514922 0.0542551446394679 6.580975815749838 8.079803015890747 1.912615184272834 -3.0741058401870607 -5.0640090049174 9.648621769010738 5.479105140070695 -3.202045238308882 -8.975827494435652 4.689966952860063 1.6050262674274833 
-6.618890192314111 6.479693709016342 -6.3720998724776905 0.9688478614263651 0.37805734935498947 -8.101575091919312 1.0960576499292536 -8.392947691510905 4.991379031970219 -3.6639545043088484 -6.409293756031602 -8.048630598786461 -6.360517316691929 -5.903571924940105 -2.9079153669225004 -6.6993215079766095 -6.906084018414034 1.0666159567772944 -9.783269102037817 2.8333393715168746 -4.097400343297535 -6.3832071446183924 -5.300081201196887 0.41211964288663694 -5.349574962277983 -7.897704574701175 -4.639838368038067 -6.9922538019333285 -8.960675142846654 -4.771521517685371 7.199753955469873 -0.5628141605329908 5.37065126688317 4.31666967305334 6.011806033133812 1.6014050899537136 1.357085530605275 -4.442793376152359 1.1382900557440152 -1.6997758179979616 8.926596074514922 0.0542551446394679 7.135530011533483 8.079803015890747 2.4773057237899625 -3.0741058401870607 -5.0640090049174 9.648621769010738 5.479105140070695 -3.202045238308882 -8.975827494435652 4.079043209647505 1.6050262674274833 
8.001181507707567 6.479693709016342 -3.0352858965156244 8.473673830650434 0.37805734935498947 -8.101575091919312 1.0960576499292536 -8.392947691510905 4.991379031970219 -3.6639545043088484 -6.409293756031602 -8.048630598786461 -6.360517316691929 -5.903571924940105 -2.9079153669225004 -1.160685608730942 -6.906084018414034 3.5091137604307363 -9.783269102037817 2.8333393715168746 -4.097400343297535 -6.3832071446183924 -5.300081201196887 0.41211964288663694 -5.349574962277983 -7.897704574701175 -6.1696875529184325 2.843236704885907 -8.960675142846654 -9.92741444023762 -1.3592173038636446 -6.2220087701823985 5.109269602001401 4.31666967305334 9.329474322461252 4.366416502317872 3.5504915080522252 -4.442793376152359 0.8970269663818584 1.1473832506849728 8.926596074514922 0.0542551446394679 6.580975815749838 -3.0147514209024635 1.912615184272834 3.766676368299235 -5.0640090049174 5.472473481427491 5.479105140070695 -3.202045238308882 -8.975827494435652 4.079043209647505 1.6050262674274833 
-6.618890192314111 6.479693709016342 -3.0352858965156244 8.473673830650434 0.37805734935498947 -8.101575091919312 1.0960576499292536 -8.392947691510905 4.991379031970219 -3.6639545043088484 -6.409293756031602 -8.048630598786461 -7.325399800470336 -5.903571924940105 -2.9079153669225004 -1.160685608730942 -6.906084018414034 3.5091137604307363 -9.783269102037817 -9.893274308287292 -4.097400343297535 -6.3832071446183924 -5.300081201196887 0.41211964288663694 -5.349574962277983 -7.897704574701175 -6.1696875529184325 -8.192821149019947 -8.960675142846654 0.8824112620249185 -3.4465926659787183 -6.2220087701823985 -1.8656302625605559 3.7671182385852813 6.011806033133812 4.366416502317872 5.394940098744874 -4.442793376152359 0.8970269663818584 1.1473832506849728 8.926596074514922 8.946694565450862 9.962044652176097 -3.0147514209024635 -3.237648184409694 3.766676368299235 -1.939586333706993 5.472473481427491 5.479105140070695 -3.202045238308882 -0.5017455643446329 4.079043209647505 9.986162378356589 
8.001181507707567 6.479693709016342 -3.0352858965156244 -3.347548335431343 0.37805734935498947 -8.101575091919312 1.0960576499292536 -8.392947691510905 4.991379031970219 -3.6639545043088484 -6.409293756031602 -8.048630598786461 -6.360517316691929 -5.903571924940105 -2.9079153669225004 -1.160685608730942 -6.906084018414034 3.5091137604307363 -9.783269102037817 2.8333393715168746 -4.097400343297535 -6.3832071446183924 -5.300081201196887 0.41211964288663694 -5.349574962277983 -7.897704574701175 -6.1696875529184325 -8.192821149019947 -3.357734059691384 -4.771521517685371 -3.4465926659787183 3.0316826345184325 4.9371334073046125 4.31666967305334 6.011806033133812 4.366416502317872 1.357085530605275 -4.442793376152359 0.8970269663818584 1.1473832506849728 8.926596074514922 0.0542551446394679 7.135530011533483 5.862932444415714 1.912615184272834 3.766676368299235 -1.939586333706993 5.472473481427491 5.479105140070695 -3.202045238308882 -0.5017455643446329 4.079043209647505 1.6050262674274833 
-6.618890192314111 6.479693709016342 -3.0352858965156244 8.473673830650434 0.37805734935498947 -8.101575091919312 1.0960576499292536 -8.392947691510905 4.991379031970219 -3.6639545043088484 -6.409293756031602 -8.048630598786461 2.323091366612374 -5.903571924940105 -2.9079153669225004 -2.6245164067207805 -6.906084018414034 8.85721924316444 -9.783269102037817 2.8333393715168746 -4.097400343297535 -6.3832071446183924 -5.300081201196887 0.41211964288663694 -5.349574962277983 -7.897704574701175 -6.1696875529184325 -8.192821149019947 -2.411911796805402 -4.771521517685371 1.946749974868716 -6.2220087701823985 0.07517453400091512 4.31666967305334 6.011806033133812 4.366416502317872 1.357085530605275 -4.442793376152359 -8.477847280768708 1.1473832506849728 8.926596074514922 8.946694565450862 7.135530011533483 -3.0147514209024635 2.940173123294194 3.766676368299235 -1.939586333706993 9.648621769010738 5.479105140070695 9.925975427492709 -0.5017455643446329 4.079043209647505 -7.977610138391831 
-6.618890192314111 6.479693709016342 -3.0352858965156244 1.4055810026683808 0.37805734935498947 -8.101575091919312 0.14634666410026043 -8.392947691510905 -0.2566872079799225 0.6981998307205792 -6.409293756031602 -8.048630598786461 -6.360517316691929 6.967707361123736 -6.938960480964925 -1.160685608730942 -6.906084018414034 3.5091137604307363 -9.783269102037817 2.8333393715168746 -4.097400343297535 -6.3832071446183924 -5.300081201196887 0.41211964288663694 -5.349574962277983 -7.897704574701175 -4.242352949102628 -8.192821149019947 -8.960675142846654 -4.771521517685371 8.5083304847685 8.887172192913539 6.192952654799775 -6.863022976638242 9.329474322461252 4.366416502317872 7.29290212553483 -5.568900840279365 -7.469947624689048 -8.124007149448262 8.926596074514922 0.0542551446394679 7.135530011533483 8.079803015890747 3.6273543141082634 -4.612568157660368 -6.385008252882944 9.97322445285418 7.471731206335313 -3.202045238308882 5.671554180749514 0.06728164795575076 6.542290069912141 
8.001181507707567 6.479693709016342 -3.0352858965156244 1.4055810026683808 0.37805734935498947 -6.104095621883008 0.14634666410026043 -8.392947691510905 -0.2566872079799225 -2.4091291271478665 -6.409293756031602 -8.048630598786461 -6.360517316691929 3.7761737620327303 -6.938960480964925 -1.160685608730942 -6.906084018414034 3.5091137604307363 -9.783269102037817 3.7092260487383513 -4.097400343297535 -6.3832071446183924 -5.300081201196887 -4.968137528243856 -5.349574962277983 -7.897704574701175 -4.242352949102628 -6.9922538019333285 -8.960675142846654 4.0767256966988334 -0.8404811144114674 -5.840625456356214 -1.8656302625605559 -6.863022976638242 -0.19235997566306295 4.366416502317872 7.29290212553483 -5.568900840279365 -7.709076759215485 6.860768632234372 -1.825758504628487 0.0542551446394679 -7.190168315461571 8.079803015890747 -3.1069811921246115 3.7392364505400444 -6.385008252882944 9.97322445285418 1.2106159242281063 -3.202045238308882 5.671554180749514 0.06728164795575076 -7.558013975178035 
8.001181507707567 6.479693709016342 5.6398006221371855 -3.347548335431343 -7.3092567547515985 -4.049312892902936 8.813402661507297 -8.392947691510905 0.011705041768808044 -3.6639545043088484 -7.101552030957523 -8.048630598786461 -7.325399800470336 -5.903571924940105 -2.9079153669225004 8.236855100941966 -6.906084018414034 0.5953364716958696 -9.783269102037817 2.8333393715168746 -4.097400343297535 -6.3832071446183924 -5.300081201196887 -4.968137528243856 -5.349574962277983 -7.897704574701175 -4.639838368038067 -6.9922538019333285 -5.3716786821032265 0.8824112620249185 7.199753955469873 8.887172192913539 -1.8656302625605559 -8.849213028349395 9.329474322461252 -2.9637547133093882 5.394940098744874 -6.970739324985617 1.1382900557440152 6.860768632234372 -5.082901106915314 8.946694565450862 6.580975815749838 5.258163237432624 1.912615184272834 1.7899440732191874 -6.802897490565057 4.277069071623181 5.479105140070695 -3.202045238308882 -8.975827494435652 0.06728164795575076 8.436891664608574 
8.001181507707567 6.479693709016342 -3.0352858965156244 0.9688478614263651 0.37805734935498947 -8.101575091919312 8.813402661507297 -8.392947691510905 4.991379031970219 -3.6639545043088484 -6.409293756031602 -8.048630598786461 -6.360517316691929 -9.96991767001515 -2.9079153669225004 -6.6993215079766095 6.091814241984817 0.5953364716958696 -9.783269102037817 2.8333393715168746 -4.097400343297535 -6.3832071446183924 -5.300081201196887 0.41211964288663694 -5.349574962277983 -7.897704574701175 -4.639838368038067 -6.9922538019333285 -8.960675142846654 8.373322350864168 -3.4465926659787183 -8.98410916876438 -8.1725392274342 4.31666967305334 9.329474322461252 1.6014050899537136 1.357085530605275 -4.442793376152359 3.9089010331925405 -8.124007149448262 -7.151770359943863 8.946694565450862 -7.190168315461571 -3.1755903604159013 1.912615184272834 -3.0741058401870607 -6.802897490565057 9.648621769010738 5.479105140070695 -3.202045238308882 -8.975827494435652 0.06728164795575076 8.436891664608574 
8.652845987531393 5.2419551558187045 7.293035887868399 5.3666827888150905 -3.1869135015197747 -0.6584319680390909 0.5625310425167029 -9.41642528584859 -5.465848161127951 -5.149833942658402 -6.383750354063724 -4.062087661529919 -1.7484057900026055 -2.140045929503172 -5.1669142737714076 -6.68736854507598 -5.254744152044697 -2.2495449684123336 -5.155419609226413 6.1080322817170725 -9.032273795074781 -4.181568268309497 -1.950500886294309 -6.695981227259454 -5.267692787343556 -2.8461731373061365 -4.03588871688857 -1.804128486634207 -2.028809723146672 2.584135656373011 -2.842103179898821 -8.77466556171928 -7.643541539948906 9.269317206281855 4.157318350254782 -3.592122395173318 1.4398452073840353 -3.3582889072519384 -4.055283007109809 -1.4966524880900867 5.540508372562385 -9.011625910582197 -1.3159847356499945 -3.1451690289356087 -2.390988739281643 -2.1199684090891395 -9.69324566319713 7.919250204087696 2.5459007907474565 9.079115537735618 1.6254838752942966 4.483787731789445 -0.8762704499366603 
8.652845987531393 5.2419551558187045 0.2719750877618061 5.3666827888150905 -5.396384750545453 2.4720109525592875 0.5625310425167029 -7.596813898762078 -9.03250070732181 -3.863235040446476 -6.383750354063724 -4.062087661529919 -1.7484057900026055 -2.140045929503172 -5.1669142737714076 -6.68736854507598 -5.254744152044697 -2.2495449684123336 9.537480851514836 0.05192753662603167 -9.032273795074781 -4.181568268309497 -1.950500886294309 -1.3766814068545496 -5.267692787343556 -5.518998202526955 -4.03588871688857 -1.804128486634207 -4.060986630879999 2.584135656373011 -2.842103179898821 -8.77466556171928 -7.643541539948906 9.269317206281855 4.157318350254782 2.5736411803587966 3.1042004424837106 -3.3582889072519384 -4.42584051595643 -1.4966524880900867 5.540508372562385 9.06099913233508 -7.730077201032437 -3.1451690289356087 -2.390988739281643 1.1402425766905306 -8.134337415118774 7.919250204087696 -5.227051863339456 9.079115537735618 1.6254838752942966 -5.657436830304685 -0.8762704499366603 
8.652845987531393 5.2419551558187045 0.2719750877618061 5.3666827888150905 -3.1869135015197747 -0.6584319680390909 0.5625310425167029 -7.596813898762078 -5.465848161127951 -5.149833942658402 -3.7765861781535666 1.5800022856577698 -1.7484057900026055 -2.140045929503172 -5.1669142737714076 -6.68736854507598 -5.254744152044697 -2.2495449684123336 -5.155419609226413 0.05192753662603167 -9.032273795074781 -4.181568268309497 -1.950500886294309 -1.3766814068545496 -5.267692787343556 -5.518998202526955 -4.03588871688857 -1.804128486634207 -8.051501069692542 2.584135656373011 -2.9733082272852513 -1.1171577982657137 8.285239000004331 9.779493837861342 -9.240052538068808 2.5736411803587966 3.1042004424837106 -3.3582889072519384 -0.7651918020332342 -1.4966524880900867 5.540508372562385 -9.011625910582197 -7.730077201032437 -3.1451690289356087 -4.226750279215858 1.1402425766905306 -9.69324566319713 7.919250204087696 -5.227051863339456 9.079115537735618 -3.6225282850628338 -5.657436830304685 -0.8762704499366603 
8.652845987531393 5.2419551558187045 0.2719750877618061 5.3666827888150905 -3.1869135015197747 -3.6225230419874865 9.090178204208417 -7.596813898762078 -5.465848161127951 -5.149833942658402 -6.383750354063724 -4.062087661529919 -1.7484057900026055 -2.140045929503172 -5.1669142737714076 -6.68736854507598 -5.254744152044697 -2.2495449684123336 -5.155419609226413 6.1080322817170725 -9.032273795074781 -4.181568268309497 4.3912767125017 -9.399077354930728 -5.267692787343556 -5.518998202526955 -4.03588871688857 4.66781140841287 -4.060986630879999 2.584135656373011 -2.842103179898821 -8.77466556171928 -7.643541539948906 -4.187720720427743 2.957398213743055 2.5736411803587966 5.159139855958379 -2.2203241330099814 -4.42584051595643 -1.4966524880900867 5.540508372562385 -9.011625910582197 -7.730077201032437 -3.1451690289356087 -7.30928105866933 1.544552020398445 -9.69324566319713 7.919250204087696 2.5459007907474565 9.079115537735618 1.6254838752942966 -5.657436830304685 -0.8762704499366603 
8.652845987531393 5.2419551558187045 0.2719750877618061 5.3666827888150905 -3.1869135015197747 -0.6584319680390909 0.5625310425167029 -7.596813898762078 8.555793569242216 -5.149833942658402 -6.383750354063724 -4.062087661529919 -1.7484057900026055 -2.140045929503172 -5.1669142737714076 -6.68736854507598 -5.254744152044697 -2.2495449684123336 -5.155419609226413 0.05192753662603167 -3.8773775013374117 -4.181568268309497 -7.454845084482331 -1.3766814068545496 -5.267692787343556 -5.518998202526955 -4.03588871688857 -4.747436895161368 -1.2518776190610836 2.584135656373011 -2.842103179898821 -8.77466556171928 -7.643541539948906 9.779493837861342 4.157318350254782 2.5736411803587966 5.159139855958379 -3.3582889072519384 -4.42584051595643 -1.4966524880900867 5.540508372562385 9.06099913233508 2.9492378327929174 -3.1451690289356087 -2.390988739281643 -2.1199684090891395 -9.69324566319713 7.919250204087696 -5.227051863339456 9.079115537735618 1.6254838752942966 -5.657436830304685 -0.8762704499366603 
8.652845987531393 5.2419551558187045 0.2719750877618061 5.3666827888150905 -3.1869135015197747 -0.6584319680390909 0.5625310425167029 -7.596813898762078 8.555793569242216 -5.149833942658402 -6.383750354063724 -4.062087661529919 -1.7484057900026055 -2.140045929503172 -5.1669142737714076 0.1554347206562685 -5.254744152044697 -2.2495449684123336 -5.155419609226413 0.05192753662603167 -9.032273795074781 -5.72088981854929 -1.950500886294309 -1.3766814068545496 -5.267692787343556 -5.518998202526955 -4.03588871688857 -1.804128486634207 -4.060986630879999 2.584135656373011 -0.9864441157770099 -8.77466556171928 -7.643541539948906 9.269317206281855 4.157318350254782 2.5736411803587966 3.1042004424837106 -3.3582889072519384 -0.7651918020332342 -1.4966524880900867 5.540508372562385 -9.011625910582197 -7.730077201032437 -3.1451690289356087 -2.390988739281643 1.1402425766905306 -9.69324566319713 7.919250204087696 2.5459007907474565 -7.520673525142049 1.6254838752942966 -3.195434256153808 -9.282100067475394 
8.652845987531393 5.2419551558187045 0.2719750877618061 5.3666827888150905 -3.1869135015197747 -0.6584319680390909 -0.5733275168113501 -7.596813898762078 -5.465848161127951 -5.149833942658402 -6.383750354063724 -4.062087661529919 -1.7484057900026055 -2.140045929503172 -2.797291535986046 -5.941617405986612 -5.254744152044697 -2.2495449684123336 -9.57353179902874 6.1080322817170725 -9.032273795074781 -6.5547472728832945 -1.950500886294309 -1.3766814068545496 -5.267692787343556 -5.518998202526955 -4.03588871688857 -1.804128486634207 -4.060986630879999 1.7631232361672495 -2.842103179898821 -8.77466556171928 -7.643541539948906 -4.187720720427743 7.882994761119683 2.5736411803587966 3.1042004424837106 -3.3582889072519384 -4.42584051595643 -1.4966524880900867 5.540508372562385 -9.011625910582197 -7.730077201032437 1.0002878311193406 -2.390988739281643 -2.1199684090891395 -9.69324566319713 7.919250204087696 -5.227051863339456 9.079115537735618 1.6254838752942966 -5.657436830304685 6.275827087213443 
8.652845987531393 5.2419551558187045 0.2719750877618061 5.3666827888150905 -3.1869135015197747 -0.6584319680390909 0.5625310425167029 -7.596813898762078 8.555793569242216 -6.243479274012886 -3.7765861781535666 -4.062087661529919 -1.7484057900026055 -2.140045929503172 -5.1669142737714076 -6.68736854507598 -5.254744152044697 -2.2495449684123336 -5.155419609226413 0.05192753662603167 9.928860841559633 -2.272181680375043 -1.950500886294309 -1.3766814068545496 -5.267692787343556 -5.518998202526955 -4.03588871688857 -1.804128486634207 -4.060986630879999 2.584135656373011 -2.842103179898821 7.066473020712721 -7.643541539948906 9.269317206281855 4.157318350254782 2.5736411803587966 3.1042004424837106 -3.3582889072519384 -4.42584051595643 -1.4966524880900867 5.540508372562385 -9.011625910582197 -7.730077201032437 -3.1451690289356087 -2.390988739281643 -2.2261412065310227 9.825510743049094 7.919250204087696 -5.227051863339456 9.079115537735618 5.353569526792953 -5.657436830304685 -0.8762704499366603 
8.652845987531393 5.2419551558187045 0.2719750877618061 5.3666827888150905 2.1820359674932774 -0.6584319680390909 0.5625310425167029 -7.596813898762078 -5.465848161127951 -5.149833942658402 -6.383750354063724 -4.062087661529919 -1.7484057900026055 -2.140045929503172 -5.1669142737714076 -6.68736854507598 -5.254744152044697 -2.2495449684123336 -5.155419609226413 9.064307531926072 -9.032273795074781 -4.181568268309497 -1.950500886294309 -1.3766814068545496 -5.267692787343556 -5.518998202526955 -4.03588871688857 -1.804128486634207 -4.060986630879999 2.584135656373011 -2.842103179898821 -8.77466556171928 -7.643541539948906 -4.187720720427743 4.157318350254782 2.5736411803587966 3.1042004424837106 -3.3582889072519384 -4.42584051595643 -1.4966524880900867 5.540508372562385 -9.011625910582197 -7.730077201032437 -3.1451690289356087 -2.390988739281643 1.1402425766905306 -9.69324566319713 7.919250204087696 -5.227051863339456 9.079115537735618 1.6254838752942966 8.263267101044175 -0.8762704499366603 
8.652845987531393 5.2419551558187045 -0.7130398125523474 9.900892506954438 -3.1869135015197747 9.935597282189839 0.5625310425167029 -9.41642528584859 -5.465848161127951 -8.08679664662076 -6.383750354063724 -4.062087661529919 -1.7484057900026055 -6.2315689623904085 -5.1669142737714076 4.195762243193466 -5.254744152044697 -2.2495449684123336 -9.57353179902874 0.05192753662603167 -9.032273795074781 -4.181568268309497 -1.950500886294309 -3.545776240166692 -5.267692787343556 -5.518998202526955 -4.03588871688857 -1.804128486634207 -7.46308426569864 2.584135656373011 -0.1443912566903638 -8.77466556171928 -7.643541539948906 -4.187720720427743 -4.770572392874948 2.5736411803587966 7.013572524885621 -3.3582889072519384 -0.7651918020332342 -1.4966524880900867 4.372159625501338 -9.011625910582197 -7.730077201032437 -3.1451690289356087 -5.682460731934402 -2.1199684090891395 9.825510743049094 4.236455360699104 2.5459007907474565 9.079115537735618 1.6254838752942966 -5.657436830304685 8.028479374478476 
8.652845987531393 5.2419551558187045 0.2719750877618061 9.794572914311711 -8.407763782840966 9.935597282189839 0.5625310425167029 -9.41642528584859 -5.465848161127951 -8.08679664662076 -3.7765861781535666 9.496725812807803 -1.7484057900026055 -6.2315689623904085 -5.1669142737714076 4.195762243193466 -5.254744152044697 -2.2495449684123336 -9.57353179902874 0.05192753662603167 4.642912889964169 -8.832033537023499 -1.950500886294309 -1.3766814068545496 0.958739586200215 -2.8461731373061365 -8.19212119754733 -2.3303047701880253 -7.46308426569864 -8.151990187916752 -0.1443912566903638 -8.77466556171928 -7.643541539948906 7.786709289978447 -3.9993889196124055 -3.592122395173318 1.4398452073840353 -3.3582889072519384 -4.42584051595643 -1.4966524880900867 4.372159625501338 -0.3552443068487996 0.5049681899170171 -7.21455214168974 6.273550813259384 1.544552020398445 9.825510743049094 4.236455360699104 -1.2140114060857439 9.079115537735618 1.6254838752942966 -5.657436830304685 8.028479374478476 
8.652845987531393 5.2419551558187045 -0.7130398125523474 -1.8385768063911243 -3.1869135015197747 9.935597282189839 -0.5733275168113501 -9.41642528584859 8.555793569242216 -8.08679664662076 -6.383750354063724 -3.179204759672376 -1.7484057900026055 -2.140045929503172 -5.1669142737714076 0.012874134257943481 -5.254744152044697 -2.2495449684123336 -9.57353179902874 0.05192753662603167 -9.032273795074781 5.296299870348211 -1.950500886294309 -1.3766814068545496 -5.267692787343556 -2.8461731373061365 -4.03588871688857 -1.804128486634207 -7.46308426569864 2.584135656373011 -0.1443912566903638 -8.77466556171928 -7.643541539948906 9.779493837861342 -9.240052538068808 -3.592122395173318 1.4398452073840353 7.32593595462442 -0.7651918020332342 -1.4966524880900867 2.0038229732044783 -9.011625910582197 -2.0514279445370605 -7.21455214168974 6.273550813259384 -2.1199684090891395 9.825510743049094 4.236455360699104 2.5459007907474565 9.079115537735618 1.6254838752942966 -5.657436830304685 -5.512164416044931 
8.652845987531393 5.2419551558187045 -0.7130398125523474 5.3666827888150905 -3.1869135015197747 -3.6225230419874865 -0.5733275168113501 -7.596813898762078 -5.465848161127951 -8.08679664662076 -6.383750354063724 -3.179204759672376 -1.7484057900026055 -6.2315689623904085 -7.772863775169119 4.195762243193466 -5.254744152044697 -2.2495449684123336 -9.57353179902874 0.05192753662603167 -9.032273795074781 -4.181568268309497 -1.950500886294309 -1.3766814068545496 -5.267692787343556 -2.8461731373061365 -4.03588871688857 -1.804128486634207 -7.46308426569864 7.0183408793246045 -0.1443912566903638 -8.809923733616893 -7.643541539948906 -4.187720720427743 -4.770572392874948 -3.592122395173318 1.4398452073840353 -3.3582889072519384 7.970084289643701 -1.4966524880900867 5.479944808046611 -9.676849629269952 -7.730077201032437 -7.21455214168974 6.273550813259384 -8.593296948351753 0.874653521285822 4.236455360699104 2.5459007907474565 9.079115537735618 1.6254838752942966 9.91854825029591 8.028479374478476 
8.652845987531393 5.2419551558187045 -0.7130398125523474 -1.8385768063911243 -3.1869135015197747 -0.6584319680390909 -0.5733275168113501 -7.596813898762078 8.555793569242216 -8.08679664662076 -6.383750354063724 -3.179204759672376 -1.7484057900026055 -2.140045929503172 -5.1669142737714076 4.195762243193466 -5.254744152044697 -2.2495449684123336 5.514109434215319 0.05192753662603167 -9.032273795074781 -4.181568268309497 -2.997358263953018 -1.3766814068545496 -5.267692787343556 -2.8461731373061365 -4.03588871688857 -1.804128486634207 -7.46308426569864 2.584135656373011 -0.1443912566903638 -8.77466556171928 -7.643541539948906 -4.187720720427743 -4.770572392874948 -5.8749310328843185 1.4398452073840353 -3.3582889072519384 3.584437166100596 -8.29393539163387 4.372159625501338 -9.011625910582197 -6.615611577659333 -7.21455214168974 6.273550813259384 4.870707334356277 -4.678129546079055 4.236455360699104 -5.227051863339456 9.079115537735618 1.6254838752942966 -5.657436830304685 8.028479374478476 
8.652845987531393 -8.690007625719877 -0.7130398125523474 -1.8385768063911243 -3.1869135015197747 9.935597282189839 0.5625310425167029 9.140429486470147 -5.465848161127951 -8.08679664662076 -6.383750354063724 -3.179204759672376 -1.7484057900026055 -6.2315689623904085 -5.1669142737714076 4.195762243193466 -1.0605403366796757 -2.7274596702882015 -9.57353179902874 0.05192753662603167 -9.032273795074781 -4.181568268309497 -1.950500886294309 -1.3766814068545496 -5.267692787343556 -2.8461731373061365 -4.03588871688857 -1.804128486634207 -8.051501069692542 2.584135656373011 -2.842103179898821 -1.1171577982657137 -7.643541539948906 3.039265073441239 3.3264765919698505 -3.592122395173318 1.4398452073840353 7.32593595462442 -0.7651918020332342 -1.4966524880900867 4.372159625501338 -3.5504610011944804 -1.3159847356499945 -7.21455214168974 -1.5527932121261419 -3.375977303586401 9.825510743049094 -3.4107958141979156 2.5459007907474565 9.079115537735618 1.6254838752942966 -5.657436830304685 8.028479374478476 
8.652845987531393 5.2419551558187045 -0.7130398125523474 -1.8385768063911243 -3.1869135015197747 9.935597282189839 -0.5733275168113501 -9.41642528584859 -5.465848161127951 -6.243479274012886 -6.383750354063724 -3.179204759672376 -1.7484057900026055 -4.013290939960141 -5.1669142737714076 4.195762243193466 -9.829735433588535 -2.2495449684123336 -4.529360882084392 0.05192753662603167 -9.032273795074781 -4.181568268309497 -1.950500886294309 -1.3766814068545496 -9.267683753839421 -2.8461731373061365 -4.03588871688857 -1.804128486634207 -7.46308426569864 -7.703555377704614 -0.1443912566903638 9.965903652051516 -7.643541539948906 -4.187720720427743 7.882994761119683 -3.592122395173318 1.4398452073840353 -3.3582889072519384 -0.7651918020332342 -1.4966524880900867 4.372159625501338 -9.011625910582197 2.5374084892781106 -7.21455214168974 6.273550813259384 -2.1199684090891395 9.825510743049094 4.236455360699104 2.5459007907474565 9.079115537735618 1.6254838752942966 -5.657436830304685 8.028479374478476 
8.652845987531393 5.2419551558187045 -0.7130398125523474 -1.8385768063911243 -3.1869135015197747 9.319366244509023 -0.5733275168113501 -9.41642528584859 -5.465848161127951 -8.08679664662076 -3.7765861781535666 -4.857121933467066 -1.7484057900026055 -0.14780620182237136 -5.1669142737714076 4.195762243193466 -5.254744152044697 -2.2495449684123336 -9.57353179902874 0.05192753662603167 -9.032273795074781 -4.181568268309497 -1.950500886294309 -1.3766814068545496 -5.267692787343556 -2.8461731373061365 -4.03588871688857 -8.661313381013617 -7.46308426569864 4.500968195039034 -0.1443912566903638 -8.77466556171928 -7.643541539948906 4.993366150349088 7.882994761119683 -3.592122395173318 -8.534068491658592 -3.3582889072519384 -0.7651918020332342 -1.4966524880900867 4.372159625501338 -9.011625910582197 -1.3159847356499945 -3.7324918210636433 -7.30928105866933 -2.1199684090891395 9.825510743049094 4.236455360699104 2.5459007907474565 9.079115537735618 1.6254838752942966 -5.657436830304685 -5.284424115266795 
8.652845987531393 5.2419551558187045 -0.7130398125523474 -1.8385768063911243 -3.1869135015197747 -0.6584319680390909 -0.5733275168113501 -8.273278825512833 -5.465848161127951 -8.08679664662076 -6.383750354063724 4.114839735401459 -1.7104648871252497 -6.2315689623904085 -5.1669142737714076 4.195762243193466 -5.254744152044697 -2.2495449684123336 -9.57353179902874 0.05192753662603167 -9.032273795074781 -4.181568268309497 -1.950500886294309 -9.591029614688553 -5.267692787343556 -2.8461731373061365 -4.03588871688857 -1.804128486634207 -7.46308426569864 4.500968195039034 -0.1443912566903638 -8.77466556171928 -7.643541539948906 -4.187720720427743 -4.770572392874948 -3.592122395173318 5.159139855958379 -3.3582889072519384 -0.7651918020332342 -1.4966524880900867 4.372159625501338 -9.011625910582197 2.5374084892781106 -7.21455214168974 -7.838232692972027 -2.1199684090891395 9.825510743049094 -1.53202176027607 2.5459007907474565 9.079115537735618 1.6254838752942966 3.9361152191068793 8.028479374478476 
8.652845987531393 5.2419551558187045 0.2719750877618061 5.3666827888150905 -8.407763782840966 -0.6584319680390909 0.5625310425167029 -7.596813898762078 -5.465848161127951 -5.149833942658402 -3.7765861781535666 -9.158829399151525 -9.865522703589422 -2.140045929503172 -5.1669142737714076 -5.941617405986612 -5.254744152044697 -2.2495449684123336 -9.57353179902874 0.05192753662603167 1.7223220044028515 -4.181568268309497 -5.954430117960423 -4.544396363366694 -5.267692787343556 -5.518998202526955 -4.03588871688857 -2.3303047701880253 -4.060986630879999 2.584135656373011 -2.842103179898821 -8.77466556171928 -7.643541539948906 -6.020837999664566 2.2773875285510456 5.084422232693731 5.159139855958379 -3.3582889072519384 -4.42584051595643 -1.4966524880900867 5.540508372562385 -7.568840306107032 -7.730077201032437 -3.1451690289356087 4.490510371816182 1.544552020398445 -1.6180801277176275 -3.4107958141979156 -8.304309978469217 -4.672734091398201 1.6254838752942966 -5.657436830304685 -0.8762704499366603 
8.652845987531393 5.2419551558187045 0.2719750877618061 -1.8385768063911243 -8.407763782840966 2.4720109525592875 -8.472784890751813 5.613406415548294 8.555793569242216 -5.149833942658402 -3.7765861781535666 1.9736007420982933 -1.7484057900026055 -2.140045929503172 -5.1669142737714076 -5.941617405986612 -5.254744152044697 5.545078648775787 -9.57353179902874 0.05192753662603167 -9.032273795074781 -4.181568268309497 -5.61823728992537 -1.3766814068545496 -5.267692787343556 -5.518998202526955 -4.03588871688857 -2.3303047701880253 -7.46308426569864 2.584135656373011 -2.842103179898821 -8.77466556171928 -7.643541539948906 9.779493837861342 2.2773875285510456 3.0998163064090285 5.159139855958379 -3.3582889072519384 -0.7651918020332342 -1.4966524880900867 -6.071167936560416 9.06099913233508 2.9492378327929174 -3.1451690289356087 6.273550813259384 -3.365316154580662 9.825510743049094 -3.4107958141979156 -2.942517219309364 9.079115537735618 1.6254838752942966 -5.657436830304685 -0.8762704499366603 
8.652845987531393 5.2419551558187045 0.2719750877618061 5.3666827888150905 -8.407763782840966 2.4720109525592875 0.5625310425167029 -7.596813898762078 8.555793569242216 -5.149833942658402 -3.7765861781535666 -9.158829399151525 -1.7484057900026055 2.9381210705442395 -5.1669142737714076 -5.429053887938975 -5.254744152044697 -2.2495449684123336 -9.57353179902874 0.05192753662603167 -9.032273795074781 -4.181568268309497 -5.954430117960423 -1.3766814068545496 -5.267692787343556 -5.518998202526955 -1.588648485307342 4.817593324401436 2.7693359853478547 2.584135656373011 -6.027558696542528 -8.77466556171928 -7.643541539948906 9.779493837861342 2.2773875285510456 5.084422232693731 5.159139855958379 7.32593595462442 -4.42584051595643 -1.4966524880900867 5.540508372562385 9.06099913233508 2.9492378327929174 -3.1451690289356087 4.490510371816182 1.544552020398445 5.651700753971593 -3.4107958141979156 2.5459007907474565 9.079115537735618 1.6254838752942966 -5.657436830304685 -0.8762704499366603 
8.652845987531393 5.2419551558187045 0.2719750877618061 5.3666827888150905 -8.407763782840966 2.4720109525592875 0.5625310425167029 -7.596813898762078 8.555793569242216 -5.149833942658402 -9.297947254316112 -9.158829399151525 -1.7484057900026055 -2.140045929503172 -5.1669142737714076 -5.941617405986612 -5.254744152044697 -2.2495449684123336 -9.57353179902874 4.258888813552417 -9.032273795074781 -4.181568268309497 -1.950500886294309 -1.3766814068545496 -5.267692787343556 -5.518998202526955 -4.03588871688857 -2.3303047701880253 -4.060986630879999 2.584135656373011 -2.842103179898821 -0.3331282820180981 -7.643541539948906 -4.187720720427743 2.2773875285510456 5.084422232693731 5.159139855958379 -3.3582889072519384 -4.42584051595643 -1.4966524880900867 5.540508372562385 9.06099913233508 -7.730077201032437 -3.1451690289356087 4.490510371816182 2.239238254778609 -9.69324566319713 -3.4107958141979156 2.5459007907474565 9.079115537735618 1.6254838752942966 -5.657436830304685 -0.8762704499366603 
8.652845987531393 0.07021403498793077 0.2719750877618061 5.3666827888150905 -8.407763782840966 3.592435973207186 0.5625310425167029 -7.596813898762078 8.555793569242216 5.739359571150015 -3.7765861781535666 -4.062087661529919 -1.7484057900026055 -2.140045929503172 -5.1669142737714076 -5.941617405986612 2.8676308885569703 -2.2495449684123336 -9.57353179902874 0.05192753662603167 -0.43745927032749066 -2.8575526183345072 -5.954430117960423 1.3226428239623633 -5.267692787343556 -5.518998202526955 -4.03588871688857 -2.3303047701880253 4.584633727163787 2.584135656373011 -5.528209939127933 -8.77466556171928 -7.643541539948906 9.779493837861342 2.2773875285510456 -5.8749310328843185 5.159139855958379 -3.3582889072519384 -4.42584051595643 -1.4966524880900867 5.540508372562385 9.06099913233508 2.9492378327929174 -3.1451690289356087 4.490510371816182 1.544552020398445 -9.69324566319713 -3.4107958141979156 -8.304309978469217 -4.672734091398201 1.6254838752942966 -5.657436830304685 -0.8762704499366603 
8.652845987531393 5.2419551558187045 0.2719750877618061 5.3666827888150905 -3.1869135015197747 2.4720109525592875 -2.3944829506889898 -7.596813898762078 8.555793569242216 -5.149833942658402 -3.7765861781535666 2.407611315173048 -1.7484057900026055 -2.140045929503172 -5.1669142737714076 -5.941617405986612 -5.254744152044697 -2.2495449684123336 -9.57353179902874 0.05192753662603167 -9.032273795074781 7.186338552734412 -7.454845084482331 -1.3766814068545496 -5.267692787343556 -5.518998202526955 -1.588648485307342 -2.3303047701880253 -4.060986630879999 2.584135656373011 -2.842103179898821 -8.77466556171928 3.8996769831479305 9.779493837861342 3.3264765919698505 -7.278169528547349 5.159139855958379 -3.3582889072519384 -2.867567435903031 -1.4966524880900867 5.540508372562385 -9.676849629269952 -4.953389918558808 7.272232881768918 4.490510371816182 1.544552020398445 5.651700753971593 -3.4107958141979156 -8.304309978469217 -4.672734091398201 1.6254838752942966 -5.657436830304685 -3.983217099714354 
8.652845987531393 5.2419551558187045 0.2719750877618061 5.3666827888150905 -3.1869135015197747 2.4720109525592875 0.5625310425167029 -7.596813898762078 8.555793569242216 -5.149833942658402 -3.7765861781535666 -9.158829399151525 -1.7484057900026055 -8.142252036073396 -5.1669142737714076 -5.941617405986612 -5.254744152044697 -2.2495449684123336 -9.57353179902874 0.05192753662603167 -9.032273795074781 -4.181568268309497 -1.950500886294309 -1.3766814068545496 -5.267692787343556 -5.518998202526955 -4.03588871688857 -2.3303047701880253 -7.46308426569864 2.584135656373011 -2.842103179898821 -8.77466556171928 -7.643541539948906 9.779493837861342 2.2773875285510456 5.084422232693731 5.159139855958379 -3.3582889072519384 -4.42584051595643 -1.4966524880900867 4.372159625501338 9.06099913233508 2.9492378327929174 -3.1451690289356087 4.490510371816182 1.544552020398445 0.37217230898652254 -3.4107958141979156 -8.304309978469217 -4.672734091398201 1.6254838752942966 -5.657436830304685 -0.8762704499366603 
8.652845987531393 5.2419551558187045 -7.936754470597689 5.3666827888150905 -8.407763782840966 2.4720109525592875 -0.5733275168113501 -7.596813898762078 8.555793569242216 -6.243479274012886 -3.7765861781535666 2.0085057448244807 -1.7484057900026055 -2.140045929503172 -5.1669142737714076 -5.941617405986612 -5.254744152044697 -2.2495449684123336 -9.57353179902874 0.05192753662603167 -9.032273795074781 -4.181568268309497 -5.954430117960423 -1.3766814068545496 -5.267692787343556 -5.518998202526955 -4.03588871688857 -1.804128486634207 -4.060986630879999 1.1111464032564875 -2.842103179898821 -8.77466556171928 -7.643541539948906 -4.187720720427743 -3.0276460554335305 5.084422232693731 1.4398452073840353 -3.3582889072519384 -0.7651918020332342 1.7433250722022429 5.540508372562385 9.06099913233508 2.9492378327929174 -3.1451690289356087 4.490510371816182 -2.2261412065310227 9.825510743049094 -3.4107958141979156 4.103841646079831 -4.672734091398201 2.5450911544491888 -5.657436830304685 -0.8762704499366603 
8.652845987531393 5.2419551558187045 -5.6170096795872375 5.3666827888150905 -8.407763782840966 -0.6584319680390909 5.810509395275149 -7.596813898762078 8.555793569242216 -5.149833942658402 -3.7765861781535666 1.663665651394723 -1.7484057900026055 -2.140045929503172 -5.1669142737714076 4.195762243193466 -5.254744152044697 -2.2495449684123336 -9.57353179902874 0.05192753662603167 -9.032273795074781 -4.181568268309497 -5.954430117960423 -1.3766814068545496 -5.267692787343556 -9.675176530030278 -4.03588871688857 -2.3303047701880253 -4.060986630879999 4.500968195039034 -2.842103179898821 9.965903652051516 -7.643541539948906 9.779493837861342 2.2773875285510456 5.084422232693731 5.159139855958379 -2.666033637382461 -4.42584051595643 -1.4966524880900867 4.372159625501338 -9.011625910582197 2.5374084892781106 -3.1451690289356087 4.490510371816182 1.544552020398445 -9.69324566319713 -3.4107958141979156 -8.304309978469217 -4.672734091398201 1.6254838752942966 -5.657436830304685 4.268148359040769 
8.652845987531393 5.2419551558187045 -0.7130398125523474 5.3666827888150905 -3.1869135015197747 -0.6584319680390909 0.5625310425167029 -7.596813898762078 -5.465848161127951 -5.149833942658402 -3.7765861781535666 3.9325328647324103 -1.7484057900026055 -1.7915531901777513 4.856504799170674 -5.429053887938975 -5.254744152044697 -0.9558951538045264 -9.57353179902874 0.05192753662603167 -9.032273795074781 -4.181568268309497 1.3180015126220823 7.188903151296834 -5.267692787343556 -2.8725026187189995 -1.588648485307342 -1.804128486634207 -8.051501069692542 2.584135656373011 -2.842103179898821 -8.77466556171928 -7.643541539948906 9.779493837861342 4.157318350254782 -5.8749310328843185 5.159139855958379 7.32593595462442 -0.7651918020332342 -1.4966524880900867 5.540508372562385 9.06099913233508 2.9492378327929174 -3.1451690289356087 -4.226750279215858 -2.1199684090891395 5.651700753971593 4.236455360699104 -5.227051863339456 9.079115537735618 1.6254838752942966 -5.657436830304685 6.020846414841362 
8.652845987531393 5.2419551558187045 -0.7130398125523474 5.3666827888150905 -3.1869135015197747 9.935597282189839 0.5625310425167029 1.1750637140361437 -5.465848161127951 -8.08679664662076 -3.7765861781535666 -3.179204759672376 -1.7484057900026055 -6.2315689623904085 -5.1669142737714076 -5.429053887938975 -5.254744152044697 -2.2495449684123336 -9.57353179902874 0.05192753662603167 -9.032273795074781 -4.181568268309497 -1.950500886294309 0.7117647448152304 -5.267692787343556 -2.8725026187189995 -1.588648485307342 -1.804128486634207 -7.46308426569864 2.584135656373011 0.18426742870525992 -1.1171577982657137 -7.643541539948906 9.779493837861342 -9.240052538068808 -3.592122395173318 5.159139855958379 -3.3582889072519384 -0.7651918020332342 9.145158468422615 2.0038229732044783 9.06099913233508 -1.3159847356499945 -3.1451690289356087 -8.962535325267492 -2.1199684090891395 9.825510743049094 4.236455360699104 2.5459007907474565 9.079115537735618 -3.6225282850628338 -7.959914620136601 -5.512164416044931 
8.652845987531393 5.2419551558187045 -0.7130398125523474 5.3666827888150905 -3.1869135015197747 -0.6584319680390909 0.5625310425167029 -7.596813898762078 8.555793569242216 4.413843560622897 -3.7765861781535666 -3.179204759672376 -1.7484057900026055 -2.140045929503172 -5.1669142737714076 -5.941617405986612 -5.254744152044697 -0.9558951538045264 -9.57353179902874 0.05192753662603167 -9.032273795074781 -4.181568268309497 -7.454845084482331 0.7117647448152304 -7.464215320467183 -2.8725026187189995 -1.588648485307342 -2.3303047701880253 -8.051501069692542 2.584135656373011 -2.842103179898821 -8.77466556171928 -7.643541539948906 9.779493837861342 -9.240052538068808 5.084422232693731 5.159139855958379 7.32593595462442 -0.7651918020332342 -1.4966524880900867 2.0038229732044783 9.06099913233508 2.9492378327929174 -3.1451690289356087 -4.226750279215858 -2.039671676453956 5.651700753971593 4.236455360699104 2.5459007907474565 -4.672734091398201 -3.6225282850628338 -5.657436830304685 -5.512164416044931 
8.652845987531393 5.2419551558187045 -0.7130398125523474 5.3666827888150905 -3.1869135015197747 -0.6584319680390909 0.5625310425167029 -7.596813898762078 -4.805533848007206 -5.149833942658402 -9.297947254316112 -3.179204759672376 -1.7484057900026055 -0.005277463120464176 -5.1669142737714076 -5.429053887938975 -5.254744152044697 -2.2495449684123336 -9.57353179902874 0.05192753662603167 -9.032273795074781 -4.181568268309497 -4.706466273089466 0.7117647448152304 -5.267692787343556 -5.518998202526955 -1.588648485307342 -1.804128486634207 -4.060986630879999 2.584135656373011 -2.842103179898821 -1.1171577982657137 -7.643541539948906 -4.187720720427743 -4.694873207034808 -5.8749310328843185 5.159139855958379 7.32593595462442 -0.7651918020332342 9.145158468422615 -3.8895612883207136 9.06099913233508 2.9492378327929174 2.925031602788554 -4.226750279215858 -2.1199684090891395 3.1987195478439823 -3.4107958141979156 2.5459007907474565 9.079115537735618 1.6254838752942966 -5.657436830304685 -5.512164416044931 
8.652845987531393 5.2419551558187045 -0.7130398125523474 6.647566766653277 -3.1869135015197747 -0.6584319680390909 0.5625310425167029 -7.596813898762078 8.555793569242216 -5.149833942658402 -3.7765861781535666 -3.179204759672376 -1.7484057900026055 -2.140045929503172 -5.1669142737714076 -5.941617405986612 -5.254744152044697 -2.2495449684123336 -9.57353179902874 0.05192753662603167 -9.032273795074781 -4.181568268309497 -7.454845084482331 0.7117647448152304 -5.267692787343556 -2.8725026187189995 -1.588648485307342 -1.804128486634207 -8.1381741684394 2.584135656373011 -2.842103179898821 -1.1171577982657137 -7.643541539948906 9.779493837861342 1.1819367349385335 -5.8749310328843185 -0.9638877057180313 7.32593595462442 -7.986138580176592 -3.0703335302133823 2.0038229732044783 9.06099913233508 2.9492378327929174 1.5425793400529209 -4.226750279215858 -2.1199684090891395 5.651700753971593 2.91653188001688 -5.227051863339456 9.079115537735618 -3.6225282850628338 -5.657436830304685 -5.512164416044931 
8.652845987531393 8.68330842094857 -0.7130398125523474 5.3666827888150905 -3.1869135015197747 -0.6584319680390909 0.5625310425167029 -7.596813898762078 8.555793569242216 -5.149833942658402 -3.7765861781535666 -3.179204759672376 -1.7484057900026055 -2.140045929503172 -5.1669142737714076 -5.429053887938975 -5.254744152044697 -0.9558951538045264 -9.57353179902874 0.05192753662603167 -9.032273795074781 -4.181568268309497 -7.454845084482331 0.7117647448152304 -5.267692787343556 -2.8725026187189995 -1.588648485307342 -1.804128486634207 -8.051501069692542 2.584135656373011 -2.842103179898821 -1.1171577982657137 4.36568132839021 9.779493837861342 -9.240052538068808 -5.8749310328843185 5.159139855958379 7.32593595462442 -0.7651918020332342 -1.4966524880900867 2.0038229732044783 9.06099913233508 2.9492378327929174 -3.1451690289356087 -4.226750279215858 -2.1199684090891395 5.651700753971593 -3.4107958141979156 2.5459007907474565 9.079115537735618 9.639470988421646 -5.657436830304685 -5.512164416044931 
8.652845987531393 5.2419551558187045 -0.7130398125523474 5.3666827888150905 -3.1869135015197747 -0.6584319680390909 -0.5733275168113501 -3.2930534438368912 -5.465848161127951 -8.631202513728603 -3.7765861781535666 -9.509713953600127 -1.7484057900026055 -2.140045929503172 -5.1669142737714076 4.266124317878129 -6.90037301572888 -2.2495449684123336 -9.57353179902874 0.05192753662603167 -9.032273795074781 -4.181568268309497 -7.454845084482331 0.7117647448152304 -5.267692787343556 -2.8725026187189995 -1.588648485307342 -1.804128486634207 -8.051501069692542 2.584135656373011 9.641290785228701 9.965903652051516 0.651444026572257 9.779493837861342 -9.240052538068808 -5.8749310328843185 5.159139855958379 7.32593595462442 -0.7651918020332342 9.145158468422615 2.0038229732044783 9.06099913233508 2.5374084892781106 7.043693297143502 -4.226750279215858 -2.1199684090891395 9.825510743049094 4.236455360699104 2.5459007907474565 9.079115537735618 -3.6225282850628338 -5.657436830304685 4.268148359040769 
-6.077487256707277 5.2419551558187045 2.7643078278109297 -1.8385768063911243 -6.887206395566676 -4.476316479433608 0.5625310425167029 -7.596813898762078 8.555793569242216 -5.149833942658402 -3.7765861781535666 -3.179204759672376 -1.7484057900026055 -0.14780620182237136 -5.1669142737714076 -5.429053887938975 -5.254744152044697 -2.2495449684123336 5.658916454879199 0.05192753662603167 -9.032273795074781 -4.181568268309497 -7.454845084482331 0.7117647448152304 -5.267692787343556 -4.167562159490201 -4.03588871688857 -1.804128486634207 -8.051501069692542 4.844458911459096 -0.1443912566903638 -1.1171577982657137 -7.643541539948906 9.779493837861342 -9.240052538068808 -5.8749310328843185 5.159139855958379 7.32593595462442 -0.7651918020332342 9.145158468422615 2.0038229732044783 9.06099913233508 2.9492378327929174 -3.1451690289356087 -4.226750279215858 -0.8928540576411486 5.651700753971593 4.236455360699104 4.6914556463178485 9.079115537735618 -7.167871351188941 -5.657436830304685 -5.512164416044931 
8.652845987531393 5.2419551558187045 -0.7130398125523474 5.3666827888150905 -3.1869135015197747 -0.6584319680390909 0.5625310425167029 -7.596813898762078 -5.465848161127951 -5.149833942658402 -3.7765861781535666 -3.179204759672376 -3.4659060797314307 -2.140045929503172 -5.1669142737714076 4.195762243193466 -5.254744152044697 -0.9558951538045264 -9.57353179902874 0.05192753662603167 -9.032273795074781 -4.181568268309497 -7.454845084482331 0.7117647448152304 -5.267692787343556 -2.8725026187189995 -1.588648485307342 -1.804128486634207 0.7868980307199323 -5.986066282075074 -2.842103179898821 -1.1171577982657137 -7.643541539948906 9.779493837861342 -9.240052538068808 -5.8749310328843185 5.159139855958379 7.32593595462442 -0.7651918020332342 9.145158468422615 2.0038229732044783 -9.011625910582197 2.9492378327929174 -3.1451690289356087 -4.226750279215858 1.544552020398445 9.825510743049094 0.7949348807495227 2.5459007907474565 9.079115537735618 -3.6225282850628338 -5.657436830304685 4.268148359040769 
8.652845987531393 3.509016992010272 -0.7130398125523474 5.3666827888150905 -3.1869135015197747 -4.208826375414805 0.5625310425167029 -7.596813898762078 8.555793569242216 -5.149833942658402 -9.297947254316112 -4.062087661529919 -1.7484057900026055 -2.140045929503172 -7.772863775169119 -5.941617405986612 -5.254744152044697 -2.2495449684123336 -5.155419609226413 4.258888813552417 -9.032273795074781 -4.181568268309497 -1.950500886294309 -0.12512757361104754 3.898036475934374 -5.518998202526955 -4.03588871688857 3.3823620180683065 -4.060986630879999 2.584135656373011 -2.842103179898821 -0.3331282820180981 -7.643541539948906 -4.187720720427743 7.882994761119683 -5.8749310328843185 5.159139855958379 -1.3129574978826923 -0.7651918020332342 -1.4966524880900867 5.4639509310319205 -9.676849629269952 -7.730077201032437 -3.1451690289356087 -7.30928105866933 1.544552020398445 -9.69324566319713 -3.4107958141979156 2.5459007907474565 9.079115537735618 1.6254838752942966 -5.657436830304685 -0.8762704499366603 
8.652845987531393 5.2419551558187045 -0.7130398125523474 5.3666827888150905 -3.1869135015197747 -3.6225230419874865 0.5625310425167029 -7.596813898762078 8.555793569242216 -6.243479274012886 -9.297947254316112 -4.062087661529919 -1.7484057900026055 -6.2315689623904085 -5.1669142737714076 -5.941617405986612 1.9045009527098173 -2.2495449684123336 -5.155419609226413 0.05192753662603167 4.754311911428001 -4.181568268309497 -1.950500886294309 -1.3766814068545496 -5.267692787343556 -5.518998202526955 -4.03588871688857 -1.804128486634207 -4.060986630879999 2.584135656373011 -2.842103179898821 3.3347865970287938 -7.643541539948906 -4.187720720427743 7.882994761119683 -5.8749310328843185 5.474351963353637 -3.3582889072519384 -0.7651918020332342 -1.4966524880900867 5.4639509310319205 -9.676849629269952 -7.730077201032437 -3.1451690289356087 -7.30928105866933 1.544552020398445 -9.69324566319713 -3.4107958141979156 2.5459007907474565 9.079115537735618 1.6254838752942966 -5.657436830304685 -0.8762704499366603 
8.652845987531393 5.2419551558187045 -0.7130398125523474 5.3666827888150905 -8.407763782840966 2.4720109525592875 0.5625310425167029 -7.596813898762078 1.8096861754514144 -5.149833942658402 -9.297947254316112 -4.062087661529919 -1.7484057900026055 -0.2521982565613641 -7.772863775169119 -5.941617405986612 -5.254744152044697 -2.2495449684123336 -9.57353179902874 4.258888813552417 -9.032273795074781 -4.181568268309497 1.021548645455102 -1.3766814068545496 -5.267692787343556 -5.518998202526955 -4.03588871688857 -1.804128486634207 -4.060986630879999 2.584135656373011 -2.842103179898821 2.268011884837925 -7.643541539948906 9.779493837861342 7.882994761119683 5.084422232693731 5.159139855958379 -3.3582889072519384 -8.378314467221177 -1.4966524880900867 5.4639509310319205 -9.676849629269952 -7.730077201032437 -3.1451690289356087 -7.30928105866933 1.544552020398445 -9.69324566319713 -3.4107958141979156 2.5459007907474565 9.079115537735618 1.6254838752942966 -5.657436830304685 -0.8762704499366603 
8.597680447103496 5.2419551558187045 -0.7130398125523474 5.3666827888150905 -3.1869135015197747 -3.6225230419874865 0.5625310425167029 -7.596813898762078 8.555793569242216 -5.149833942658402 -9.297947254316112 -3.179204759672376 -1.7484057900026055 1.3009907550464916 -7.772863775169119 -5.941617405986612 -5.254744152044697 -2.2495449684123336 -9.57353179902874 5.92721272635033 7.151611872646882 -4.181568268309497 1.3719486682375894 0.7117647448152304 -5.267692787343556 -2.8725026187189995 -4.03588871688857 -1.804128486634207 -8.051501069692542 2.584135656373011 -2.842103179898821 -0.3331282820180981 -7.643541539948906 -4.187720720427743 5.37092048730015 -5.8749310328843185 5.159139855958379 2.488227727136623 -0.7651918020332342 9.145158468422615 -1.7439080822492858 9.06099913233508 -7.730077201032437 -3.1451690289356087 -7.30928105866933 7.653589508705011 -9.69324566319713 -3.4107958141979156 2.5459007907474565 9.079115537735618 1.6254838752942966 -5.657436830304685 -0.8762704499366603 
-8.301803360667533 5.2419551558187045 -0.7130398125523474 -6.8225936042108 -3.1869135015197747 -0.6584319680390909 0.5625310425167029 -7.596813898762078 8.555793569242216 -6.243479274012886 -9.297947254316112 -4.062087661529919 -1.7484057900026055 -2.140045929503172 -7.772863775169119 -5.941617405986612 -5.254744152044697 -2.2495449684123336 -9.57353179902874 4.258888813552417 -9.032273795074781 -4.181568268309497 -1.950500886294309 -1.3766814068545496 -5.267692787343556 -5.518998202526955 -1.588648485307342 -1.804128486634207 0.4608723199608207 2.584135656373011 -2.842103179898821 4.628927590220421 -7.643541539948906 -4.187720720427743 7.882994761119683 3.3209361054337183 5.159139855958379 -3.3582889072519384 -7.986138580176592 -1.4966524880900867 5.4639509310319205 -9.676849629269952 -4.586184171469812 -3.1451690289356087 -7.30928105866933 1.544552020398445 -9.69324566319713 -3.4107958141979156 2.5459007907474565 9.079115537735618 -3.6225282850628338 -5.657436830304685 -0.8762704499366603 
8.652845987531393 5.2419551558187045 -0.7130398125523474 5.3666827888150905 -3.1869135015197747 -3.6225230419874865 2.097556763225077 -0.20011083877169256 8.555793569242216 -5.149833942658402 -9.297947254316112 -3.179204759672376 -1.7484057900026055 -2.140045929503172 -7.772863775169119 -5.941617405986612 -5.254744152044697 -0.9558951538045264 -9.57353179902874 4.258888813552417 -9.032273795074781 -0.7413156143139332 -1.950500886294309 -1.3766814068545496 -5.267692787343556 -5.518998202526955 -4.03588871688857 -1.804128486634207 -4.060986630879999 2.584135656373011 -2.842103179898821 -0.3331282820180981 -7.643541539948906 -4.187720720427743 7.882994761119683 -5.8749310328843185 -5.415296994798291 -3.3582889072519384 -0.7651918020332342 -1.4966524880900867 2.0038229732044783 -9.676849629269952 -4.953389918558808 -3.1451690289356087 9.177676727989315 5.532906463433207 -9.69324566319713 5.971178757209383 2.5459007907474565 9.079115537735618 9.639470988421646 9.80232245943617 -0.8762704499366603 
8.652845987531393 5.2419551558187045 -0.7130398125523474 5.3666827888150905 -3.1869135015197747 0.02386948042723347 0.5625310425167029 -5.739400782398977 8.555793569242216 -6.243479274012886 -9.297947254316112 -4.062087661529919 -1.7484057900026055 -2.140045929503172 -7.772863775169119 -5.941617405986612 -5.254744152044697 -2.2495449684123336 -9.57353179902874 4.258888813552417 -9.032273795074781 -4.181568268309497 -1.950500886294309 -1.3766814068545496 -5.267692787343556 -5.518998202526955 -4.03588871688857 -1.804128486634207 -4.060986630879999 4.500968195039034 -2.842103179898821 -0.3331282820180981 -7.643541539948906 -4.187720720427743 7.882994761119683 -1.4612838526616851 4.561143946720277 -3.3582889072519384 -0.7651918020332342 -1.4966524880900867 5.4639509310319205 -9.676849629269952 -7.730077201032437 -3.1451690289356087 -7.30928105866933 -2.1199684090891395 -9.69324566319713 -3.4107958141979156 2.5459007907474565 -8.245088404621612 -2.333125882823315 -5.657436830304685 -0.8762704499366603 
8.652845987531393 5.2419551558187045 -0.7130398125523474 -6.794753083979844 -3.1869135015197747 -3.6225230419874865 0.5625310425167029 -7.596813898762078 8.555793569242216 -6.243479274012886 -9.297947254316112 -7.495978770974412 -1.7484057900026055 -2.140045929503172 -7.772863775169119 4.195762243193466 0.7074209948441013 -2.2495449684123336 -5.155419609226413 0.05192753662603167 -9.032273795074781 -4.181568268309497 -1.950500886294309 0.7117647448152304 -0.16285908877207156 -5.518998202526955 -4.03588871688857 -1.804128486634207 -7.46308426569864 2.584135656373011 -0.1443912566903638 -0.3331282820180981 -7.643541539948906 -4.187720720427743 7.882994761119683 -5.8749310328843185 5.159139855958379 -3.3582889072519384 -0.7651918020332342 -1.4966524880900867 5.4639509310319205 -9.676849629269952 -7.730077201032437 4.705559509642887 -7.30928105866933 1.544552020398445 -9.69324566319713 -3.4107958141979156 2.5459007907474565 9.079115537735618 0.03884193273504799 -5.657436830304685 -0.8762704499366603 
8.652845987531393 5.2419551558187045 0.8330313659153674 5.3666827888150905 -3.1869135015197747 -3.6225230419874865 0.5625310425167029 -7.596813898762078 8.555793569242216 -6.243479274012886 -9.297947254316112 -4.062087661529919 -1.7484057900026055 -2.140045929503172 4.445278580166875 -5.941617405986612 -5.254744152044697 -2.2495449684123336 -5.155419609226413 0.05192753662603167 6.103690672447776 -4.181568268309497 -1.950500886294309 -1.3766814068545496 -9.198281779903251 -5.518998202526955 -4.03588871688857 -1.804128486634207 -4.060986630879999 2.584135656373011 -2.842103179898821 -0.3331282820180981 -7.643541539948906 -4.187720720427743 7.882994761119683 -5.8749310328843185 5.159139855958379 -3.3582889072519384 -0.7651918020332342 -1.4966524880900867 5.4639509310319205 -9.011625910582197 -7.730077201032437 -3.1451690289356087 -7.30928105866933 1.544552020398445 -9.69324566319713 -5.673722697710946 2.5459007907474565 9.079115537735618 1.6254838752942966 -5.657436830304685 -0.8762704499366603 
8.652845987531393 5.2419551558187045 -7.434637987994501 7.237873948714707 -3.1869135015197747 -0.6584319680390909 0.5625310425167029 -7.596813898762078 8.555793569242216 -5.149833942658402 -6.148055923936306 -4.062087661529919 -1.7484057900026055 -2.140045929503172 -5.1669142737714076 -5.941617405986612 -5.254744152044697 -2.2495449684123336 -9.57353179902874 -9.703543604064325 -9.032273795074781 -1.7917247089162665 -7.454845084482331 -1.3766814068545496 -5.267692787343556 -5.518998202526955 -1.588648485307342 -1.804128486634207 -4.060986630879999 2.584135656373011 -2.842103179898821 -6.615453122051731 -7.643541539948906 9.779493837861342 -6.777203653717825 2.7724033385039153 5.159139855958379 8.496284469751462 -7.986138580176592 -1.4966524880900867 -2.2221005867217496 -9.011625910582197 2.9492378327929174 -3.1451690289356087 4.490510371816182 -2.1199684090891395 -9.69324566319713 7.919250204087696 -5.227051863339456 9.079115537735618 -3.6225282850628338 -5.657436830304685 -5.512164416044931 
8.652845987531393 5.2419551558187045 -0.7130398125523474 -1.8385768063911243 -3.1869135015197747 -0.6584319680390909 -0.5733275168113501 -7.596813898762078 8.555793569242216 -5.149833942658402 -3.7765861781535666 -4.062087661529919 -1.7484057900026055 -2.140045929503172 -5.1669142737714076 4.195762243193466 -5.254744152044697 -2.2495449684123336 -9.57353179902874 0.05192753662603167 -9.032273795074781 -4.181568268309497 -7.454845084482331 -1.3766814068545496 -5.267692787343556 -9.708023949916111 -1.588648485307342 -1.804128486634207 -9.883663746142057 2.584135656373011 -2.842103179898821 -0.3331282820180981 -7.643541539948906 9.779493837861342 -9.240052538068808 -5.8749310328843185 5.159139855958379 -3.3582889072519384 -0.7651918020332342 -1.4966524880900867 -2.2221005867217496 9.06099913233508 2.481172891492969 -3.1451690289356087 -2.5905862048885275 -2.1199684090891395 -9.69324566319713 4.236455360699104 -5.227051863339456 9.079115537735618 -3.6225282850628338 -5.657436830304685 -5.512164416044931 
8.652845987531393 5.2419551558187045 0.2719750877618061 5.3666827888150905 -8.407763782840966 2.4720109525592875 0.5625310425167029 -7.596813898762078 5.9065895417138705 -5.149833942658402 -3.7765861781535666 -4.062087661529919 -1.7484057900026055 -2.140045929503172 -5.1669142737714076 -5.941617405986612 -5.254744152044697 -2.2495449684123336 -9.57353179902874 0.05192753662603167 -9.032273795074781 -4.181568268309497 -7.454845084482331 -1.3766814068545496 -5.267692787343556 -5.518998202526955 -1.588648485307342 -1.804128486634207 -1.2518776190610836 2.584135656373011 -2.842103179898821 -8.77466556171928 -7.643541539948906 9.779493837861342 -9.240052538068808 -5.8749310328843185 5.159139855958379 7.32593595462442 -7.986138580176592 -1.4966524880900867 -2.2221005867217496 9.06099913233508 2.9492378327929174 -3.1451690289356087 4.490510371816182 -2.1199684090891395 -9.69324566319713 7.919250204087696 -5.227051863339456 9.079115537735618 -3.6225282850628338 -5.657436830304685 -5.512164416044931 
5.370974710833176 5.2419551558187045 -0.7130398125523474 5.3666827888150905 -3.1869135015197747 -0.6584319680390909 0.5625310425167029 -7.596813898762078 -9.289517383951026 -5.149833942658402 -3.7765861781535666 -4.062087661529919 -8.283304073083343 -2.140045929503172 -5.1669142737714076 -5.941617405986612 -5.254744152044697 -0.9558951538045264 3.6746029203328145 0.05192753662603167 -9.032273795074781 -4.181568268309497 -7.454845084482331 -8.997597918296803 -5.267692787343556 -5.518998202526955 -1.588648485307342 -1.804128486634207 -8.051501069692542 2.584135656373011 -2.842103179898821 -1.1171577982657137 -7.643541539948906 9.779493837861342 -9.240052538068808 -5.8749310328843185 0.23591486290844443 7.32593595462442 -7.986138580176592 -1.4966524880900867 -2.2221005867217496 9.06099913233508 2.9492378327929174 -3.1451690289356087 4.490510371816182 -2.1199684090891395 5.651700753971593 4.236455360699104 -5.227051863339456 2.007176368462959 -3.6225282850628338 -5.657436830304685 -5.512164416044931 
8.652845987531393 5.2419551558187045 -0.7130398125523474 5.3666827888150905 -3.1869135015197747 -0.6584319680390909 0.5625310425167029 -7.596813898762078 8.555793569242216 -5.149833942658402 -9.297947254316112 -4.062087661529919 -1.7484057900026055 -2.140045929503172 -5.1669142737714076 -5.941617405986612 -5.254744152044697 -2.2495449684123336 -9.57353179902874 0.05192753662603167 -9.032273795074781 -4.181568268309497 -1.950500886294309 -1.3766814068545496 -5.267692787343556 -5.518998202526955 -4.03588871688857 -1.804128486634207 -1.2518776190610836 2.584135656373011 -2.842103179898821 -0.3331282820180981 -7.643541539948906 9.779493837861342 9.439295799317048 -5.8749310328843185 5.159139855958379 8.152625820505804 -7.986138580176592 -1.4966524880900867 -4.366518277556741 9.06099913233508 2.9492378327929174 -3.1451690289356087 4.490510371816182 -2.1199684090891395 -9.69324566319713 7.919250204087696 -1.699002555738847 9.079115537735618 -3.6225282850628338 -0.4662592634639431 -8.182982608218726 
8.652845987531393 5.2419551558187045 -0.7130398125523474 5.3666827888150905 -3.1869135015197747 -0.6584319680390909 0.5625310425167029 -7.596813898762078 8.555793569242216 -5.149833942658402 -3.1388474551248313 -4.062087661529919 -1.7484057900026055 -2.140045929503172 -5.1669142737714076 -5.941617405986612 -1.0605403366796757 -0.9558951538045264 -9.57353179902874 0.05192753662603167 -9.032273795074781 -4.181568268309497 1.1623828603260744 -1.3766814068545496 -5.267692787343556 -5.518998202526955 -1.588648485307342 -1.804128486634207 -1.2518776190610836 2.584135656373011 -2.842103179898821 -1.1171577982657137 -7.643541539948906 9.779493837861342 -9.240052538068808 -5.8749310328843185 5.159139855958379 -3.186008163325827 -0.7651918020332342 -5.753666636905055 2.0038229732044783 9.06099913233508 -4.953389918558808 -3.1451690289356087 4.490510371816182 -2.1199684090891395 -9.69324566319713 7.919250204087696 -5.227051863339456 9.079115537735618 -3.6225282850628338 -5.657436830304685 -5.512164416044931 
8.652845987531393 5.2419551558187045 -0.7130398125523474 4.907309735146384 -3.1869135015197747 -0.6584319680390909 0.5625310425167029 -7.596813898762078 4.224044168539285 5.846808720971273 -3.7765861781535666 -4.062087661529919 -1.7484057900026055 -2.140045929503172 -5.1669142737714076 -5.941617405986612 -5.254744152044697 -2.2495449684123336 -9.57353179902874 0.05192753662603167 -9.032273795074781 -4.181568268309497 -1.950500886294309 -1.3766814068545496 -5.267692787343556 -5.518998202526955 -1.588648485307342 -2.3303047701880253 -7.46308426569864 4.500968195039034 -4.327505538379912 -0.3331282820180981 -7.643541539948906 9.779493837861342 -9.240052538068808 -5.8749310328843185 5.159139855958379 7.32593595462442 -5.888912836863785 -1.4966524880900867 -2.2221005867217496 0.9437796577587889 2.9492378327929174 1.0002878311193406 -4.624043301957579 -2.1199684090891395 9.825510743049094 7.919250204087696 2.5459007907474565 9.079115537735618 -7.167871351188941 -5.657436830304685 -5.512164416044931 
8.652845987531393 5.2419551558187045 -0.7130398125523474 5.3666827888150905 -3.1869135015197747 9.319366244509023 -0.5733275168113501 -7.596813898762078 8.555793569242216 -5.149833942658402 -3.7765861781535666 -4.062087661529919 -1.7484057900026055 -0.14780620182237136 -5.1669142737714076 4.195762243193466 -8.615021960914271 -2.2495449684123336 -9.57353179902874 0.05192753662603167 -9.032273795074781 -4.181568268309497 -7.454845084482331 -1.3766814068545496 1.4080664331445885 -5.518998202526955 -1.588648485307342 -1.804128486634207 -1.2518776190610836 4.500968195039034 -0.1443912566903638 -0.3331282820180981 -7.643541539948906 -4.187720720427743 7.882994761119683 -5.8749310328843185 1.4398452073840353 7.32593595462442 -7.986138580176592 -1.4966524880900867 -2.2221005867217496 9.06099913233508 2.9492378327929174 -3.1451690289356087 -0.5313587451364867 -2.1199684090891395 -9.69324566319713 7.919250204087696 7.283407920868338 9.079115537735618 -7.167871351188941 -5.657436830304685 -5.512164416044931 
8.652845987531393 5.2419551558187045 9.789601274779361 -1.8385768063911243 -3.1869135015197747 -0.6584319680390909 0.5625310425167029 -7.596813898762078 8.555793569242216 -5.149833942658402 -3.7765861781535666 -4.062087661529919 -1.7484057900026055 -2.140045929503172 -5.1669142737714076 4.195762243193466 -5.254744152044697 -2.2495449684123336 -9.57353179902874 0.05192753662603167 -9.032273795074781 -4.181568268309497 -1.950500886294309 -1.3766814068545496 -5.267692787343556 -5.518998202526955 -1.588648485307342 -1.804128486634207 -1.2518776190610836 2.584135656373011 -2.842103179898821 -0.3331282820180981 -7.643541539948906 9.779493837861342 -9.240052538068808 -5.8749310328843185 5.159139855958379 7.32593595462442 -7.986138580176592 -1.4966524880900867 -2.2221005867217496 -9.011625910582197 2.9492378327929174 -3.1451690289356087 4.490510371816182 1.544552020398445 1.336408796021928 7.919250204087696 -5.227051863339456 9.079115537735618 -3.6225282850628338 3.9361152191068793 -5.512164416044931 
8.652845987531393 5.2419551558187045 -0.7130398125523474 5.3666827888150905 -3.1869135015197747 -0.6584319680390909 0.5625310425167029 -7.596813898762078 4.5672341037907405 -5.149833942658402 -6.383750354063724 -3.179204759672376 -1.7484057900026055 -2.140045929503172 2.8664551316979736 -5.941617405986612 -1.0605403366796757 -0.9558951538045264 -5.155419609226413 6.1080322817170725 -9.032273795074781 -4.181568268309497 -7.454845084482331 -1.3766814068545496 -5.267692787343556 -5.518998202526955 -1.588648485307342 -1.804128486634207 -8.051501069692542 2.584135656373011 -2.842103179898821 -1.1171577982657137 -7.643541539948906 9.269317206281855 3.3264765919698505 -7.278169528547349 5.159139855958379 7.32593595462442 -0.7651918020332342 -1.4966524880900867 2.0038229732044783 -9.676849629269952 -4.953389918558808 -3.1451690289356087 -2.390988739281643 1.1402425766905306 -9.69324566319713 7.919250204087696 2.956717436066853 9.079115537735618 9.639470988421646 -5.657436830304685 -5.512164416044931 
8.652845987531393 5.2419551558187045 -3.362070675625719 5.3666827888150905 -3.1869135015197747 -0.6584319680390909 0.5625310425167029 -9.41642528584859 8.555793569242216 -5.149833942658402 -3.7765861781535666 -3.179204759672376 -1.7484057900026055 -6.2315689623904085 -5.1669142737714076 -1.1768917310881086 -1.0605403366796757 -0.9558951538045264 -9.57353179902874 0.05192753662603167 -9.032273795074781 -4.181568268309497 -1.950500886294309 -1.3766814068545496 -5.267692787343556 -2.8461731373061365 -1.588648485307342 -1.804128486634207 -7.46308426569864 2.584135656373011 -2.842103179898821 -1.1171577982657137 5.075923060929295 9.779493837861342 3.3264765919698505 -7.278169528547349 5.159139855958379 7.32593595462442 -0.7651918020332342 -1.4966524880900867 4.372159625501338 -9.676849629269952 -4.953389918558808 -3.1451690289356087 6.273550813259384 -2.1199684090891395 4.98436423491523 -3.4107958141979156 2.5459007907474565 9.079115537735618 9.639470988421646 -5.657436830304685 -5.512164416044931 
8.652845987531393 5.2419551558187045 -0.7130398125523474 5.3666827888150905 -8.407763782840966 -0.6584319680390909 0.5625310425167029 -7.596813898762078 8.555793569242216 -5.149833942658402 0.8577856193696931 -9.158829399151525 -1.7484057900026055 -2.140045929503172 -5.1669142737714076 -5.941617405986612 -1.0605403366796757 -0.9558951538045264 -9.57353179902874 0.05192753662603167 -9.032273795074781 -4.181568268309497 -7.454845084482331 -1.3766814068545496 -5.267692787343556 -5.518998202526955 -4.03588871688857 -1.804128486634207 -8.051501069692542 2.584135656373011 -2.842103179898821 -8.77466556171928 -7.643541539948906 9.779493837861342 0.8877548268642457 -7.139154295859389 5.159139855958379 7.32593595462442 -0.7651918020332342 -1.4966524880900867 2.0038229732044783 -9.676849629269952 -4.953389918558808 -3.1451690289356087 -1.2834848329472042 -2.1199684090891395 5.651700753971593 -3.4107958141979156 -8.304309978469217 -4.672734091398201 9.639470988421646 -5.657436830304685 -5.512164416044931 
-6.745654948271886 5.2419551558187045 -0.7130398125523474 5.3666827888150905 -3.1869135015197747 -0.6584319680390909 5.0655324876116286 -7.596813898762078 8.555793569242216 -5.149833942658402 -3.7765861781535666 -3.179204759672376 -1.7484057900026055 -2.140045929503172 -5.1669142737714076 -5.941617405986612 -5.254744152044697 -0.9558951538045264 -9.57353179902874 0.05192753662603167 -9.032273795074781 6.949479005460532 -7.454845084482331 0.7117647448152304 -5.267692787343556 -5.518998202526955 -1.588648485307342 -1.804128486634207 -8.051501069692542 2.584135656373011 -2.842103179898821 -1.1171577982657137 -7.643541539948906 9.779493837861342 3.3264765919698505 -7.278169528547349 5.159139855958379 7.32593595462442 -0.7651918020332342 9.145158468422615 2.0038229732044783 -9.676849629269952 -4.953389918558808 -3.1451690289356087 -7.30928105866933 -2.1199684090891395 5.651700753971593 4.236455360699104 2.5459007907474565 -1.873672769453954 -3.6225282850628338 -0.7632326871330282 -5.512164416044931 
8.652845987531393 5.2419551558187045 -0.7130398125523474 5.3666827888150905 -3.1869135015197747 -0.6584319680390909 0.5625310425167029 -7.596813898762078 8.555793569242216 -6.243479274012886 -3.7765861781535666 -5.213948476426593 -1.7484057900026055 -2.140045929503172 -7.772863775169119 -5.941617405986612 7.191794166300024 -0.9558951538045264 -9.57353179902874 5.756856117301989 -9.032273795074781 -4.181568268309497 -7.454845084482331 -1.3766814068545496 -5.267692787343556 -5.518998202526955 -4.03588871688857 -1.804128486634207 -8.051501069692542 2.584135656373011 -2.842103179898821 -1.1171577982657137 -7.643541539948906 9.779493837861342 3.3264765919698505 -7.278169528547349 5.159139855958379 7.32593595462442 -0.7651918020332342 -1.4966524880900867 2.0038229732044783 -9.676849629269952 -7.730077201032437 -3.1451690289356087 -7.30928105866933 -2.1199684090891395 5.651700753971593 -3.4107958141979156 2.5459007907474565 9.450947509844863 9.639470988421646 -5.657436830304685 -5.512164416044931 
8.652845987531393 5.2419551558187045 -0.7130398125523474 5.3666827888150905 -3.1869135015197747 -0.6584319680390909 0.5625310425167029 -7.596813898762078 8.555793569242216 -7.618936473302329 -3.7765861781535666 -4.062087661529919 -1.7484057900026055 -2.140045929503172 -5.1669142737714076 -5.941617405986612 -1.0605403366796757 -0.9558951538045264 -9.57353179902874 0.05192753662603167 -9.032273795074781 -4.181568268309497 -2.993677785509923 -1.3766814068545496 -5.267692787343556 -5.518998202526955 -1.588648485307342 -1.804128486634207 -8.051501069692542 2.584135656373011 -2.842103179898821 -1.1171577982657137 -7.643541539948906 -4.758324858689001 3.3264765919698505 -5.8749310328843185 5.159139855958379 7.32593595462442 -0.7651918020332342 -1.4966524880900867 2.0038229732044783 -9.676849629269952 -4.953389918558808 -3.1451690289356087 -7.30928105866933 -2.1199684090891395 -1.3525856217855203 -3.4107958141979156 2.5459007907474565 9.079115537735618 9.639470988421646 -5.657436830304685 -5.512164416044931 
8.652845987531393 5.2419551558187045 -0.7130398125523474 -1.8385768063911243 -3.1869135015197747 -0.6584319680390909 0.5625310425167029 3.5356689650903945 8.555793569242216 -5.149833942658402 7.109530708207643 -3.179204759672376 -1.7484057900026055 -2.140045929503172 -5.1669142737714076 -5.941617405986612 -1.0605403366796757 4.448854575855243 -9.57353179902874 -7.213432881803565 -9.032273795074781 -4.181568268309497 -7.454845084482331 -1.3766814068545496 -1.412636467064603 -5.518998202526955 -4.03588871688857 -1.804128486634207 -8.051501069692542 3.384988124165762 -2.842103179898821 -1.1171577982657137 -7.643541539948906 9.779493837861342 3.3264765919698505 -7.278169528547349 -8.949757833512148 7.32593595462442 -0.7651918020332342 -1.4966524880900867 2.0038229732044783 -9.676849629269952 -4.953389918558808 1.0002878311193406 -7.30928105866933 -2.1199684090891395 5.651700753971593 -3.4107958141979156 2.5459007907474565 9.079115537735618 9.639470988421646 -5.657436830304685 -5.512164416044931 
8.652845987531393 5.2419551558187045 -0.7130398125523474 5.3666827888150905 -3.1869135015197747 -0.6584319680390909 0.5625310425167029 -7.596813898762078 8.555793569242216 -6.243479274012886 -3.7765861781535666 2.0085057448244807 -1.7484057900026055 -2.140045929503172 -5.1669142737714076 4.195762243193466 -1.0605403366796757 -0.9558951538045264 -9.57353179902874 0.05192753662603167 -9.032273795074781 -4.181568268309497 -7.454845084482331 0.7117647448152304 -9.198281779903251 9.420876267729984 -1.588648485307342 -1.804128486634207 -8.051501069692542 2.584135656373011 -0.1443912566903638 -1.1171577982657137 -7.643541539948906 9.779493837861342 3.3264765919698505 -7.278169528547349 5.159139855958379 -3.3582889072519384 -0.7651918020332342 -1.4966524880900867 2.0038229732044783 -9.676849629269952 2.5374084892781106 -3.7324918210636433 -7.30928105866933 -2.1199684090891395 5.651700753971593 -3.4107958141979156 2.5459007907474565 9.079115537735618 9.639470988421646 -5.657436830304685 -0.8762704499366603 
8.652845987531393 5.2419551558187045 -0.7130398125523474 5.3666827888150905 -3.1869135015197747 -0.6584319680390909 0.5625310425167029 -7.596813898762078 8.555793569242216 -5.149833942658402 -3.7765861781535666 2.0085057448244807 -1.7484057900026055 -2.140045929503172 -5.1669142737714076 4.195762243193466 -1.0605403366796757 -0.9558951538045264 -6.616952521657396 0.05192753662603167 -0.596827464304976 -4.181568268309497 -7.454845084482331 -1.3766814068545496 -9.198281779903251 -5.518998202526955 -1.588648485307342 -1.804128486634207 -8.051501069692542 2.584135656373011 -2.842103179898821 9.965903652051516 -7.643541539948906 9.779493837861342 7.882994761119683 -7.278169528547349 5.159139855958379 -7.044332585968078 -0.7651918020332342 1.773855177458099 4.372159625501338 -9.676849629269952 2.5374084892781106 -3.1451690289356087 -7.30928105866933 -2.1199684090891395 5.651700753971593 -3.4107958141979156 2.5459007907474565 9.079115537735618 -7.167871351188941 3.9361152191068793 -5.512164416044931 
8.652845987531393 0.42782842633088514 -0.7130398125523474 5.3666827888150905 -3.1869135015197747 9.319366244509023 0.5625310425167029 -3.2930534438368912 -5.465848161127951 -6.243479274012886 -3.7765861781535666 2.0085057448244807 -1.7484057900026055 -2.140045929503172 -5.1669142737714076 -6.68736854507598 -5.254744152044697 1.9390062767009049 -5.155419609226413 0.05192753662603167 -9.032273795074781 -4.181568268309497 -1.950500886294309 0.7117647448152304 -5.267692787343556 -5.518998202526955 -4.03588871688857 -2.3303047701880253 -7.46308426569864 4.500968195039034 -4.327505538379912 9.965903652051516 -7.643541539948906 -4.187720720427743 7.882994761119683 -3.592122395173318 1.4398452073840353 -3.3582889072519384 -4.42584051595643 -1.4966524880900867 5.540508372562385 -9.011625910582197 2.5374084892781106 1.0002878311193406 -2.390988739281643 -2.1199684090891395 9.825510743049094 4.236455360699104 -5.227051863339456 9.079115537735618 -7.167871351188941 -5.657436830304685 4.268148359040769 
8.652845987531393 0.42782842633088514 -0.7130398125523474 -1.8385768063911243 -3.1869135015197747 9.319366244509023 -0.5733275168113501 -5.606824178646392 -5.465848161127951 -8.08679664662076 -3.7765861781535666 -6.271680578293656 -1.7484057900026055 -2.140045929503172 -5.1669142737714076 -5.941617405986612 0.15428726718077534 7.622039200636909 -9.57353179902874 0.05192753662603167 -9.032273795074781 -4.181568268309497 -1.950500886294309 -1.3766814068545496 -5.267692787343556 -5.518998202526955 -4.03588871688857 -2.3303047701880253 -7.46308426569864 2.584135656373011 -4.327505538379912 -8.77466556171928 -7.643541539948906 -4.187720720427743 7.882994761119683 -3.592122395173318 1.4398452073840353 -3.3582889072519384 -6.106408211308379 -1.4966524880900867 4.372159625501338 -9.011625910582197 2.5374084892781106 1.0002878311193406 -2.390988739281643 -2.1199684090891395 3.549800416351898 4.236455360699104 2.5459007907474565 9.079115537735618 -7.167871351188941 -5.657436830304685 0.4447604576262858 
8.652845987531393 -6.823697062995326 -0.7130398125523474 -1.8385768063911243 -8.407763782840966 -6.152501145533575 -0.5733275168113501 -3.2930534438368912 -5.465848161127951 -6.243479274012886 -3.7765861781535666 2.0085057448244807 -1.7484057900026055 -2.140045929503172 8.497385815782156 -5.941617405986612 -5.254744152044697 -2.2495449684123336 -9.57353179902874 3.929817056251766 -9.032273795074781 -4.181568268309497 -5.954430117960423 0.7117647448152304 -5.267692787343556 -5.518998202526955 -4.03588871688857 -2.3303047701880253 -4.060986630879999 4.500968195039034 -4.327505538379912 9.965903652051516 0.5216767502500836 -4.187720720427743 7.882994761119683 -3.592122395173318 5.159139855958379 -3.3582889072519384 -4.42584051595643 -1.4966524880900867 4.372159625501338 -9.011625910582197 2.5374084892781106 -4.57189781005519 4.490510371816182 -2.1199684090891395 9.825510743049094 4.236455360699104 2.5459007907474565 9.079115537735618 1.6254838752942966 -5.657436830304685 4.268148359040769 
8.652845987531393 0.42782842633088514 -4.862477324615641 -1.8385768063911243 -3.1869135015197747 -0.6584319680390909 -0.5733275168113501 -3.2930534438368912 8.555793569242216 -6.243479274012886 -3.7765861781535666 -3.179204759672376 -1.7484057900026055 -2.140045929503172 -5.1669142737714076 -5.941617405986612 -5.334866352429131 -2.2495449684123336 -9.57353179902874 0.05192753662603167 2.0113283112007103 -4.181568268309497 -1.950500886294309 0.7117647448152304 -5.267692787343556 -5.518998202526955 -4.03588871688857 -2.3303047701880253 -8.051501069692542 4.500968195039034 2.0458550817172814 9.965903652051516 -7.643541539948906 9.779493837861342 -9.240052538068808 0.25639262730003765 1.4398452073840353 -3.3582889072519384 -0.7651918020332342 -1.4966524880900867 4.372159625501338 -9.011625910582197 2.5374084892781106 -3.1451690289356087 -2.390988739281643 -2.1199684090891395 9.825510743049094 4.236455360699104 2.5459007907474565 9.079115537735618 -7.167871351188941 0.17935236458055392 -9.807228422795927 
8.652845987531393 5.2419551558187045 -0.7130398125523474 -1.8385768063911243 -3.1869135015197747 9.319366244509023 -0.5733275168113501 -9.922868983792883 4.953620265835994 -6.243479274012886 -3.7765861781535666 2.0085057448244807 -1.7484057900026055 -2.140045929503172 -5.1669142737714076 -1.5388105846626523 4.580459376306214 -2.2495449684123336 -9.57353179902874 0.05192753662603167 -9.032273795074781 -4.181568268309497 -1.950500886294309 -1.3766814068545496 -3.179031125560156 -5.518998202526955 -4.03588871688857 -1.804128486634207 -7.46308426569864 4.500968195039034 1.5988013423379428 9.965903652051516 -7.643541539948906 -4.187720720427743 7.882994761119683 -3.592122395173318 5.159139855958379 -3.3582889072519384 -0.7651918020332342 -1.4966524880900867 4.372159625501338 -9.011625910582197 2.5374084892781106 -3.1451690289356087 -2.390988739281643 -2.1199684090891395 -8.621432334670638 4.236455360699104 2.5459007907474565 9.079115537735618 -7.167871351188941 -5.657436830304685 4.268148359040769 
8.652845987531393 0.42782842633088514 3.4973790135307787 -1.8385768063911243 -7.894241559356557 9.319366244509023 -0.5733275168113501 -3.2930534438368912 -5.268583650519152 -5.149833942658402 -9.101814935300986 -4.062087661529919 -1.7484057900026055 -2.140045929503172 -5.1669142737714076 -5.941617405986612 -5.254744152044697 -2.2495449684123336 -9.57353179902874 -5.11088686123788 -9.032273795074781 -4.181568268309497 -1.950500886294309 0.7117647448152304 -5.267692787343556 -5.518998202526955 -1.588648485307342 -1.804128486634207 -7.46308426569864 4.500968195039034 -2.842103179898821 9.866455640650354 -7.643541539948906 -4.187720720427743 7.882994761119683 -3.592122395173318 1.4398452073840353 -3.3582889072519384 -0.7651918020332342 -1.4966524880900867 4.372159625501338 -9.011625910582197 2.5374084892781106 1.0002878311193406 -2.390988739281643 -2.1199684090891395 9.825510743049094 4.236455360699104 2.5459007907474565 9.079115537735618 -3.6225282850628338 -2.0077458114974034 -5.512164416044931 
-2.8115691729631624 0.42782842633088514 -0.7130398125523474 5.3666827888150905 -3.1869135015197747 9.319366244509023 -0.7947355488259689 -3.2930534438368912 -5.465848161127951 -6.243479274012886 -3.7765861781535666 -3.179204759672376 -1.7484057900026055 -2.140045929503172 -5.1669142737714076 -5.941617405986612 -1.0605403366796757 -2.2495449684123336 -9.57353179902874 -7.645507634239346 -9.032273795074781 -4.181568268309497 -1.950500886294309 0.7117647448152304 -5.267692787343556 -5.518998202526955 -5.787707638664255 -1.804128486634207 -7.46308426569864 4.500968195039034 -2.842103179898821 9.965903652051516 -7.643541539948906 -4.187720720427743 3.3264765919698505 -3.592122395173318 1.4398452073840353 -3.3582889072519384 -0.7651918020332342 -1.4966524880900867 4.372159625501338 -9.676849629269952 2.5374084892781106 -3.1451690289356087 -0.4378938220410067 -2.1199684090891395 5.651700753971593 4.236455360699104 2.5459007907474565 9.079115537735618 -7.167871351188941 -5.657436830304685 -5.512164416044931 
8.652845987531393 0.42782842633088514 -0.7130398125523474 3.3970125333662615 -3.1869135015197747 -9.367220577287732 -0.5733275168113501 -3.2930534438368912 -5.465848161127951 -6.243479274012886 -3.7765861781535666 2.0085057448244807 -1.7484057900026055 -2.140045929503172 -5.1669142737714076 -5.941617405986612 -5.254744152044697 -2.2495449684123336 -9.57353179902874 0.05192753662603167 -9.032273795074781 -4.181568268309497 -1.950500886294309 0.7117647448152304 -5.267692787343556 -5.518998202526955 -4.03588871688857 -2.3303047701880253 -7.46308426569864 4.500968195039034 -0.1443912566903638 7.066473020712721 -7.643541539948906 -4.187720720427743 7.882994761119683 -3.592122395173318 1.4398452073840353 -3.3582889072519384 7.565682238647973 -1.4966524880900867 4.372159625501338 -9.011625910582197 3.8635594852375466 1.0002878311193406 -2.390988739281643 -2.1199684090891395 9.825510743049094 4.236455360699104 2.5459007907474565 9.079115537735618 -7.167871351188941 -2.526571624901896 4.268148359040769 
8.652845987531393 5.2419551558187045 6.505771826614797 -1.8385768063911243 -3.1869135015197747 9.319366244509023 0.5625310425167029 -3.2930534438368912 -5.465848161127951 -6.243479274012886 -3.7765861781535666 2.0085057448244807 -1.7484057900026055 1.0678117554262059 -5.1669142737714076 4.195762243193466 -5.254744152044697 -2.2495449684123336 -9.57353179902874 0.05192753662603167 -9.032273795074781 -4.181568268309497 -1.950500886294309 -4.233845835767303 -5.267692787343556 -5.518998202526955 -4.03588871688857 -2.3303047701880253 -7.46308426569864 4.500968195039034 -4.327505538379912 9.965903652051516 -7.643541539948906 -4.187720720427743 7.882994761119683 -5.8749310328843185 1.4398452073840353 -3.3582889072519384 -0.7651918020332342 -1.4966524880900867 4.372159625501338 -9.011625910582197 2.5374084892781106 -3.7324918210636433 -2.5441927923874985 -2.1199684090891395 9.825510743049094 -1.53202176027607 2.5459007907474565 9.079115537735618 -7.167871351188941 -5.657436830304685 4.268148359040769 
8.652845987531393 5.2419551558187045 -0.7130398125523474 5.3666827888150905 -3.1869135015197747 9.319366244509023 -0.5733275168113501 -7.596813898762078 4.762633254589584 -6.243479274012886 -3.7765861781535666 -4.062087661529919 -1.7484057900026055 -2.140045929503172 -5.1669142737714076 -6.68736854507598 0.4086530422141248 -2.2495449684123336 -9.57353179902874 0.05192753662603167 -9.032273795074781 -4.181568268309497 -1.950500886294309 0.7117647448152304 -9.198281779903251 -4.167562159490201 -4.03588871688857 -1.804128486634207 -7.46308426569864 4.500968195039034 -0.1443912566903638 7.066473020712721 -7.643541539948906 -4.187720720427743 7.882994761119683 -3.592122395173318 1.4398452073840353 -3.3582889072519384 -0.7651918020332342 -1.4966524880900867 4.372159625501338 -9.011625910582197 -7.730077201032437 -3.7324918210636433 -7.30928105866933 3.2462047056032883 9.825510743049094 7.919250204087696 0.7433383962732094 9.079115537735618 1.6254838752942966 -5.657436830304685 -0.8762704499366603 
8.652845987531393 5.2419551558187045 -0.7130398125523474 -1.8385768063911243 -3.1869135015197747 9.935597282189839 -0.5733275168113501 -9.41642528584859 6.027678790499774 -6.243479274012886 -3.7765861781535666 -3.179204759672376 -1.7484057900026055 -0.14780620182237136 -5.1669142737714076 4.195762243193466 -5.254744152044697 -2.2495449684123336 -9.57353179902874 0.05192753662603167 -9.032273795074781 -4.181568268309497 -1.950500886294309 0.7117647448152304 -9.198281779903251 -2.8461731373061365 -4.03588871688857 -1.804128486634207 -7.46308426569864 4.500968195039034 -6.359274341080516 7.066473020712721 -7.643541539948906 -4.187720720427743 -4.770572392874948 -3.592122395173318 1.4398452073840353 -3.3582889072519384 -0.7651918020332342 -1.4966524880900867 4.372159625501338 -9.011625910582197 2.5374084892781106 -3.7324918210636433 -7.30928105866933 -2.2261412065310227 9.825510743049094 4.236455360699104 2.9425245320841302 9.079115537735618 -7.167871351188941 -5.657436830304685 -0.8762704499366603 
8.652845987531393 5.2419551558187045 -1.6397113736826299 -1.8385768063911243 -3.1869135015197747 9.319366244509023 -0.5733275168113501 -7.596813898762078 8.555793569242216 -6.243479274012886 -3.7765861781535666 2.0085057448244807 -1.7484057900026055 -0.14780620182237136 -5.1669142737714076 4.195762243193466 -5.254744152044697 -2.2495449684123336 -9.57353179902874 0.05192753662603167 -9.032273795074781 -4.181568268309497 -1.950500886294309 0.7117647448152304 -9.198281779903251 -5.518998202526955 -4.03588871688857 -1.804128486634207 -4.060986630879999 4.500968195039034 -2.842103179898821 7.066473020712721 -7.643541539948906 -4.187720720427743 7.882994761119683 5.084422232693731 1.4398452073840353 -3.3582889072519384 -0.7651918020332342 -1.4966524880900867 4.372159625501338 9.06099913233508 5.431709657379422 -3.7324918210636433 4.490510371816182 -2.2261412065310227 9.825510743049094 4.236455360699104 2.5459007907474565 -4.672734091398201 -7.167871351188941 -5.657436830304685 -0.8762704499366603 
8.652845987531393 5.2419551558187045 -0.7130398125523474 -1.8385768063911243 -3.1869135015197747 -0.6584319680390909 -0.5733275168113501 -7.596813898762078 8.555793569242216 1.1828481683217458 -3.7765861781535666 -3.179204759672376 -1.7484057900026055 -7.3722396227123355 -5.1669142737714076 -5.429053887938975 -2.2101941527891134 7.696665099702592 -9.57353179902874 0.05192753662603167 6.781895655051397 -4.181568268309497 -1.950500886294309 0.7117647448152304 -9.198281779903251 -4.167562159490201 -4.03588871688857 -1.804128486634207 -7.46308426569864 4.500968195039034 -0.1443912566903638 7.066473020712721 -7.643541539948906 -4.187720720427743 -9.240052538068808 -3.592122395173318 1.4398452073840353 7.32593595462442 -0.7651918020332342 -1.4966524880900867 4.372159625501338 9.06099913233508 2.5374084892781106 0.5472667828982622 -7.30928105866933 -2.2261412065310227 9.825510743049094 4.236455360699104 2.5459007907474565 9.079115537735618 -7.167871351188941 -5.657436830304685 -5.512164416044931 
8.897966624713867 4.8749304563421845 -0.7130398125523474 -1.8385768063911243 -3.1869135015197747 0.24486799043309304 -0.5733275168113501 -7.596813898762078 8.555793569242216 -6.243479274012886 -3.7765861781535666 -4.062087661529919 -1.7484057900026055 -2.140045929503172 -5.1669142737714076 4.195762243193466 -5.254744152044697 -2.2495449684123336 -9.57353179902874 0.05192753662603167 -9.032273795074781 -4.181568268309497 -1.950500886294309 0.7117647448152304 -9.198281779903251 -4.167562159490201 -4.03588871688857 -1.804128486634207 -4.060986630879999 4.500968195039034 -0.1443912566903638 7.066473020712721 -7.643541539948906 -4.187720720427743 7.882994761119683 -3.592122395173318 5.159139855958379 -3.3582889072519384 -0.7651918020332342 -1.4966524880900867 4.372159625501338 -9.011625910582197 2.5374084892781106 -3.1451690289356087 -7.30928105866933 -2.2261412065310227 9.825510743049094 -3.4107958141979156 2.5459007907474565 9.079115537735618 -7.167871351188941 -5.657436830304685 -0.8762704499366603 
8.652845987531393 5.2419551558187045 -0.7130398125523474 -1.8385768063911243 -3.1869135015197747 2.3076577338864883 -0.5733275168113501 -7.596813898762078 8.555793569242216 -6.243479274012886 -3.7765861781535666 2.0085057448244807 -1.7484057900026055 -0.14780620182237136 -5.1669142737714076 4.195762243193466 -5.254744152044697 -2.2495449684123336 -9.57353179902874 0.05192753662603167 2.8524396546793156 -4.181568268309497 -8.23988312663846 0.7117647448152304 -9.198281779903251 -4.167562159490201 -1.0226656994810206 -1.804128486634207 -8.18541717876197 2.584135656373011 -0.1443912566903638 7.066473020712721 8.968802303452254 -4.187720720427743 -9.240052538068808 -5.8749310328843185 1.4398452073840353 -3.3582889072519384 -0.7651918020332342 -1.4966524880900867 -2.2221005867217496 -9.011625910582197 2.5374084892781106 -3.7324918210636433 4.490510371816182 -9.26707282977495 9.825510743049094 5.2910411368966415 2.5459007907474565 9.079115537735618 -3.6225282850628338 -5.657436830304685 -0.8762704499366603 
8.652845987531393 6.254293080701885 -0.7130398125523474 5.3666827888150905 -3.1869135015197747 9.319366244509023 0.5625310425167029 -7.596813898762078 8.555793569242216 -6.243479274012886 -3.7765861781535666 2.0085057448244807 -1.7484057900026055 -0.14780620182237136 -5.1669142737714076 4.195762243193466 0.4086530422141248 -0.9558951538045264 -9.57353179902874 0.05192753662603167 -9.032273795074781 -4.181568268309497 -7.454845084482331 0.7117647448152304 -9.198281779903251 -4.167562159490201 -4.03588871688857 -1.804128486634207 -7.46308426569864 2.584135656373011 -2.842103179898821 7.066473020712721 -7.643541539948906 -4.187720720427743 7.882994761119683 -7.278169528547349 1.4398452073840353 -3.3582889072519384 -0.7651918020332342 -1.4966524880900867 4.372159625501338 -9.011625910582197 2.5374084892781106 -3.1451690289356087 -7.30928105866933 -2.2261412065310227 9.825510743049094 4.236455360699104 2.5459007907474565 9.079115537735618 -7.167871351188941 -5.657436830304685 -0.8762704499366603 
8.652845987531393 5.2419551558187045 -0.7130398125523474 -1.8385768063911243 -3.1869135015197747 7.247423430967071 -0.5733275168113501 -3.2930534438368912 8.555793569242216 -6.243479274012886 1.5735665577464957 5.969613136489979 -1.7484057900026055 -0.14780620182237136 -5.1669142737714076 4.195762243193466 0.4086530422141248 -2.2495449684123336 -9.57353179902874 0.05192753662603167 -9.032273795074781 -4.181568268309497 -1.950500886294309 0.7117647448152304 -9.198281779903251 -4.167562159490201 -4.03588871688857 -1.804128486634207 -7.46308426569864 4.500968195039034 -4.327505538379912 7.066473020712721 -7.643541539948906 -4.187720720427743 -1.7776734021906808 -7.056135531683639 -2.8398422165522685 -3.3582889072519384 -0.7651918020332342 1.1235838082801646 4.372159625501338 -9.011625910582197 2.5374084892781106 -3.7324918210636433 -7.30928105866933 -2.2261412065310227 9.825510743049094 4.236455360699104 2.5459007907474565 9.079115537735618 -7.167871351188941 -5.657436830304685 -0.8762704499366603 
8.652845987531393 5.2419551558187045 -0.7130398125523474 -1.8385768063911243 -3.1869135015197747 -0.6584319680390909 0.5625310425167029 9.147337726216339 -5.465848161127951 -6.243479274012886 -3.7765861781535666 2.0085057448244807 -1.7484057900026055 -0.14780620182237136 -5.1669142737714076 4.195762243193466 -6.682493915075057 -2.2495449684123336 -9.57353179902874 0.05192753662603167 -9.032273795074781 -4.181568268309497 -1.950500886294309 -1.3766814068545496 -9.198281779903251 -4.167562159490201 -4.03588871688857 -1.804128486634207 -7.46308426569864 4.500968195039034 -0.1443912566903638 9.965903652051516 -7.643541539948906 -4.187720720427743 7.882994761119683 -3.592122395173318 1.4398452073840353 -3.3582889072519384 3.2628453554699473 -1.4966524880900867 4.372159625501338 -9.011625910582197 2.5374084892781106 -3.7324918210636433 -7.30928105866933 -2.2261412065310227 9.825510743049094 4.236455360699104 2.5459007907474565 9.079115537735618 -7.167871351188941 3.6543354251382105 -0.8762704499366603 
8.652845987531393 -8.457575015132697 0.8330313659153674 -1.8385768063911243 -3.1869135015197747 -0.6584319680390909 0.5625310425167029 -7.596813898762078 -5.465848161127951 -5.149833942658402 4.750050696948634 2.0085057448244807 -1.7484057900026055 -2.140045929503172 -5.1669142737714076 -6.68736854507598 -2.9516782523262126 -2.2495449684123336 -9.57353179902874 -5.107069006275156 -9.032273795074781 -4.181568268309497 -1.950500886294309 -1.3766814068545496 -9.198281779903251 -5.518998202526955 -4.03588871688857 -1.804128486634207 -4.060986630879999 4.500968195039034 5.324408817366228 9.965903652051516 -7.643541539948906 9.269317206281855 7.882994761119683 2.5736411803587966 5.159139855958379 -3.3582889072519384 -0.7651918020332342 -1.4966524880900867 4.372159625501338 -9.011625910582197 2.5374084892781106 -3.7324918210636433 -2.5441927923874985 -8.634182644777734 9.825510743049094 -1.53202176027607 -5.227051863339456 9.079115537735618 -7.167871351188941 -5.657436830304685 4.268148359040769 
6.276921464844076 5.2419551558187045 0.8330313659153674 -1.8385768063911243 -3.1869135015197747 -0.6584319680390909 0.5625310425167029 7.896512271382431 -5.465848161127951 -6.243479274012886 -6.383750354063724 2.0085057448244807 -1.7484057900026055 -2.140045929503172 -5.1669142737714076 4.195762243193466 -5.254744152044697 -3.6591404111195462 -9.57353179902874 0.05192753662603167 -9.032273795074781 -4.181568268309497 -1.950500886294309 -1.3766814068545496 -9.198281779903251 -7.821621762496285 -4.03588871688857 -1.804128486634207 -4.060986630879999 2.584135656373011 5.324408817366228 3.138348611572253 3.7284950831609347 -4.187720720427743 7.882994761119683 -5.8749310328843185 5.159139855958379 -3.3582889072519384 -0.7651918020332342 -1.4966524880900867 4.372159625501338 -9.011625910582197 2.5374084892781106 -3.7324918210636433 -2.5441927923874985 -9.510832072286991 -4.618492655944372 -1.53202176027607 2.5459007907474565 9.079115537735618 -7.167871351188941 3.9361152191068793 4.268148359040769 
8.652845987531393 5.2419551558187045 0.8330313659153674 -1.8385768063911243 -3.1869135015197747 -0.6584319680390909 0.5625310425167029 -7.596813898762078 -5.465848161127951 -6.243479274012886 -3.7765861781535666 2.0085057448244807 -1.7484057900026055 -2.140045929503172 -5.1669142737714076 -5.941617405986612 -5.254744152044697 -2.2495449684123336 -9.57353179902874 0.05192753662603167 -3.792686636541176 -4.181568268309497 -1.950500886294309 -1.3766814068545496 -5.267692787343556 5.019254210468366 -4.03588871688857 -1.804128486634207 -4.060986630879999 4.500968195039034 -2.842103179898821 9.965903652051516 -7.643541539948906 -4.187720720427743 -3.6446901810908816 -5.8749310328843185 5.159139855958379 -3.3582889072519384 -0.7651918020332342 -1.4966524880900867 4.372159625501338 9.06099913233508 2.5374084892781106 -3.7324918210636433 -2.5441927923874985 1.544552020398445 -9.69324566319713 -4.301673759982618 2.5459007907474565 3.0640920247131582 -7.167871351188941 3.9361152191068793 4.268148359040769 
8.652845987531393 6.003964932370867 0.8330313659153674 -1.8385768063911243 -3.1869135015197747 -0.6584319680390909 0.5625310425167029 -7.596813898762078 8.555793569242216 -6.243479274012886 -3.7765861781535666 2.0085057448244807 -1.7484057900026055 -2.140045929503172 -5.1669142737714076 4.195762243193466 -5.254744152044697 -2.2495449684123336 -9.57353179902874 9.100410940724114 -4.266565120589004 -4.181568268309497 -0.6002991469804364 9.27075044736289 -6.832109894606447 -2.8725026187189995 -4.03588871688857 -1.804128486634207 -8.051501069692542 2.584135656373011 -2.842103179898821 9.965903652051516 -7.643541539948906 -4.187720720427743 7.882994761119683 -5.8749310328843185 5.159139855958379 -3.3582889072519384 -0.7651918020332342 -1.4966524880900867 4.372159625501338 9.06099913233508 2.5374084892781106 -3.7324918210636433 -2.5441927923874985 1.544552020398445 -6.749557229817156 4.539101039106956 2.5459007907474565 6.2487743642017755 -7.167871351188941 -5.657436830304685 4.268148359040769 
8.652845987531393 5.2419551558187045 0.8330313659153674 -1.8385768063911243 -3.1869135015197747 -0.6584319680390909 0.5625310425167029 -7.596813898762078 -5.465848161127951 -6.243479274012886 -3.7765861781535666 2.0085057448244807 -0.44416967761191906 -2.140045929503172 -5.1669142737714076 -5.941617405986612 -5.254744152044697 -2.2495449684123336 -9.57353179902874 0.05192753662603167 4.040382683685264 -4.181568268309497 -1.950500886294309 -1.3766814068545496 -9.198281779903251 -5.518998202526955 -4.03588871688857 -1.804128486634207 -4.060986630879999 2.584135656373011 5.324408817366228 -0.3331282820180981 -7.643541539948906 -4.187720720427743 7.882994761119683 -5.8749310328843185 5.159139855958379 -3.3582889072519384 -0.7651918020332342 -1.4966524880900867 5.4639509310319205 -9.011625910582197 -7.730077201032437 -3.7324918210636433 -1.1421315576614184 1.544552020398445 9.825510743049094 -1.53202176027607 2.5459007907474565 9.079115537735618 1.6254838752942966 3.9361152191068793 4.268148359040769 
0.8007161827855143 5.2419551558187045 -0.7130398125523474 0.5902571848366716 -3.1869135015197747 -0.6584319680390909 0.5625310425167029 9.613865191651936 -5.465848161127951 -6.243479274012886 -3.7765861781535666 -4.062087661529919 -1.7484057900026055 -2.140045929503172 -5.1669142737714076 4.195762243193466 -5.254744152044697 -2.2495449684123336 -9.57353179902874 0.05192753662603167 -9.032273795074781 -4.181568268309497 -1.950500886294309 -1.3766814068545496 -9.198281779903251 -5.518998202526955 -4.03588871688857 -1.804128486634207 -4.060986630879999 4.500968195039034 5.324408817366228 9.965903652051516 -4.079289811148838 9.779493837861342 7.882994761119683 -5.8749310328843185 5.159139855958379 7.32593595462442 -0.7651918020332342 -1.4966524880900867 4.372159625501338 -9.011625910582197 2.5374084892781106 -3.7324918210636433 -2.5441927923874985 -2.1199684090891395 -9.69324566319713 -1.53202176027607 2.5459007907474565 -3.9650519310816668 -7.167871351188941 3.9361152191068793 4.268148359040769 
8.652845987531393 5.2419551558187045 0.8330313659153674 5.3666827888150905 -3.1869135015197747 -0.6584319680390909 0.5625310425167029 -7.596813898762078 -5.465848161127951 -6.243479274012886 -3.7765861781535666 2.0085057448244807 -1.7484057900026055 -2.140045929503172 -5.1669142737714076 -5.941617405986612 -5.254744152044697 -2.2495449684123336 -9.57353179902874 0.05192753662603167 -9.032273795074781 -4.181568268309497 -7.454845084482331 -1.3766814068545496 -9.198281779903251 -5.518998202526955 -4.03588871688857 2.5062806964070354 -4.060986630879999 4.500968195039034 5.324408817366228 -1.1171577982657137 -7.643541539948906 9.779493837861342 7.882994761119683 -5.8749310328843185 5.159139855958379 -3.3582889072519384 -0.7651918020332342 9.18196985830171 4.372159625501338 -9.011625910582197 2.5374084892781106 -3.1451690289356087 -3.017115564622655 1.544552020398445 5.651700753971593 1.2632531666276172 2.5459007907474565 9.079115537735618 -3.3328897891560594 3.9361152191068793 4.268148359040769 
-0.8374671619216763 5.2419551558187045 0.8330313659153674 -1.8385768063911243 -3.1869135015197747 -0.6584319680390909 -0.5733275168113501 -7.596813898762078 -5.465848161127951 -6.243479274012886 -3.7765861781535666 2.0085057448244807 -1.7484057900026055 -2.140045929503172 -5.1669142737714076 4.195762243193466 -5.254744152044697 -2.2495449684123336 -9.57353179902874 0.05192753662603167 -9.032273795074781 -4.181568268309497 -1.950500886294309 -1.3766814068545496 -5.267692787343556 -5.518998202526955 -4.03588871688857 -1.804128486634207 -4.060986630879999 4.500968195039034 5.324408817366228 9.965903652051516 -7.643541539948906 -4.187720720427743 7.882994761119683 -2.338215344859236 5.159139855958379 -3.3582889072519384 -0.7651918020332342 -6.744239037640815 0.7070521417627269 -9.011625910582197 2.5374084892781106 -2.8277482949079857 -2.5441927923874985 1.544552020398445 9.825510743049094 4.236455360699104 2.5459007907474565 9.079115537735618 -7.167871351188941 3.9361152191068793 4.268148359040769 
