4.527707555541694 5.63698054222473 3.6459048798056806 -5.729420915312435 9.80849312235874 4.614009808876167 6.08184494087817 -8.392947691510905 6.294256520133466 -8.865929396811422 -4.516577243560606 -8.49156287359043 2.06935945371602 -8.08966211991864 -4.922682347757199 -4.574254603110475 -6.906084018414034 3.861101165185616 -6.891835492744196 9.856284366364193 -2.5183264301151143 -5.854090904461556 -2.641752376431212 -3.9695396385654513 -6.114764183090591 -7.596585216230272 -1.0575225025034545 -3.8369247039184255 -0.6766431900899441 -3.64128305273659 -3.410821724311564 -3.099721603201198 -5.444952121956903 -9.802416009206919 -6.420203386163436 -7.922142898514024 2.9238947573891583 0.46046063070827614 -7.117659705385108 8.141360291359305 7.5496005366527505 3.631244469656634 -6.652418233932478 0.023196193499657625 -4.140126757757798 1.3564035214791161 -7.737259326594923 -0.2447658240771844 0.20507245927791118 9.662739092617208 8.716760956130408 -0.6358016630123942 8.56301756620691 
-8.594768892000687 -4.279095961190298 3.6459048798056806 -7.8834259758741805 5.955983583650291 -1.248624217161547 6.08184494087817 -8.392947691510905 6.294256520133466 -6.649456271999408 -4.516577243560606 -8.49156287359043 2.831883685105991 -8.08966211991864 -4.922682347757199 -8.74023933478454 -6.906084018414034 5.619276450450336 -6.891835492744196 9.856284366364193 -2.5183264301151143 -5.854090904461556 -7.919190155000766 -3.9695396385654513 -6.114764183090591 -7.596585216230272 3.018103055019294 -3.8369247039184255 -0.6766431900899441 -0.7162460650654356 -7.568020546600054 -5.491562160645729 -6.540185349553882 -9.802416009206919 2.111632115792821 -7.922142898514024 -0.036724650020156346 6.219808901154682 2.632191582135821 -1.6554023964270392 4.192010394096803 3.631244469656634 -6.652418233932478 0.023196193499657625 -2.8924336285602736 1.3564035214791161 -4.9907492505424695 -0.2447658240771844 6.856989598919341 9.662739092617208 8.716760956130408 -0.6358016630123942 -2.8308701700977057 
4.102274618319136 5.63698054222473 3.6459048798056806 -7.8834259758741805 -6.160024057347209 4.614009808876167 6.08184494087817 -8.392947691510905 6.294256520133466 -8.865929396811422 -4.516577243560606 -8.49156287359043 2.831883685105991 -8.08966211991864 -4.922682347757199 -8.74023933478454 -6.906084018414034 -5.0544051330044 -6.891835492744196 9.856284366364193 -2.5183264301151143 -5.854090904461556 -1.9684957770997364 -3.9695396385654513 -6.114764183090591 -7.596585216230272 3.018103055019294 5.204005399802112 -0.6766431900899441 -0.7162460650654356 -6.685790750881175 -3.099721603201198 -6.540185349553882 -9.802416009206919 2.111632115792821 -7.922142898514024 2.9238947573891583 6.219808901154682 -7.117659705385108 8.141360291359305 9.658017248560867 3.631244469656634 -6.652418233932478 9.898965474023186 -9.591803049318806 1.3564035214791161 -4.9907492505424695 -0.2447658240771844 0.20507245927791118 6.073392223107273 8.716760956130408 -0.6358016630123942 7.785958545646061 
4.527707555541694 9.577229458599362 -2.0873707923150846 -7.8834259758741805 9.80849312235874 4.614009808876167 6.08184494087817 -8.392947691510905 6.294256520133466 -7.221958036554732 -4.516577243560606 -7.027159210074927 2.831883685105991 -8.08966211991864 -4.922682347757199 -4.574254603110475 -4.293304060389134 6.905440191634675 -6.891835492744196 1.7251889723403302 -2.5183264301151143 -6.4646011839564395 -7.697692663125009 -3.9695396385654513 -6.114764183090591 -7.596585216230272 -4.122357904652145 -3.8369247039184255 -0.6766431900899441 7.59854642786269 -3.7437365844296693 -3.099721603201198 -5.444952121956903 2.034440356176413 -0.0915370092213692 -6.949075270178174 7.465763410756729 0.46046063070827614 -0.4558423048159952 8.141360291359305 -6.778275850971458 -1.3996266545229048 -6.652418233932478 9.898965474023186 -2.8924336285602736 1.3564035214791161 -4.9907492505424695 -9.2117040774193 -0.16421728712218098 6.073392223107273 3.6705725383050236 -0.6358016630123942 0.7654127142445297 
4.527707555541694 9.577229458599362 3.6459048798056806 -7.8834259758741805 5.955983583650291 4.614009808876167 6.08184494087817 -8.392947691510905 2.11708518368199 -7.221958036554732 -6.102712779270538 -7.027159210074927 2.831883685105991 -4.550171355003531 -4.922682347757199 -4.9167991740005075 -4.293304060389134 -5.0544051330044 -6.891835492744196 9.856284366364193 -9.129069080622703 -5.854090904461556 -7.083677981610441 -3.9695396385654513 -6.114764183090591 -9.075716586672716 -4.122357904652145 -3.8369247039184255 -0.6766431900899441 -1.067978107594394 -3.7437365844296693 -3.099721603201198 -1.0392237740792325 1.0506791162789213 -1.108366154731236 -6.949075270178174 2.9238947573891583 -5.174166744550417 -8.067775440926539 8.141360291359305 -6.778275850971458 -7.356212492223786 -6.652418233932478 9.898965474023186 -2.8924336285602736 1.3564035214791161 -4.9907492505424695 -9.2117040774193 -0.16421728712218098 6.073392223107273 3.6705725383050236 -0.6358016630123942 -1.6964533057335789 
4.527707555541694 9.577229458599362 -2.0873707923150846 -7.8834259758741805 5.955983583650291 4.614009808876167 6.08184494087817 -8.392947691510905 6.294256520133466 -7.221958036554732 -4.516577243560606 -7.027159210074927 2.831883685105991 -4.550171355003531 -4.922682347757199 -4.574254603110475 -6.906084018414034 6.905440191634675 -6.891835492744196 1.7251889723403302 -8.119323945249295 -6.4646011839564395 -2.3117812749668136 -3.9695396385654513 -6.114764183090591 -8.240184354323784 -4.122357904652145 -3.8369247039184255 -0.6766431900899441 -1.067978107594394 -7.568020546600054 -3.099721603201198 -1.0392237740792325 1.6515360355938533 -4.614397904145465 -4.262128019455512 7.465763410756729 -5.174166744550417 -8.067775440926539 -0.33204516355229075 -6.778275850971458 -7.356212492223786 -6.652418233932478 9.898965474023186 -2.8924336285602736 3.83112230864298 -4.9907492505424695 -9.2117040774193 -0.16421728712218098 6.073392223107273 8.716760956130408 3.856745618197552 0.7654127142445297 
4.527707555541694 -4.826972076156308 2.101107814065111 -7.8834259758741805 5.955983583650291 3.487843344130326 6.08184494087817 -8.392947691510905 6.294256520133466 -7.221958036554732 -4.516577243560606 -7.027159210074927 2.831883685105991 -4.550171355003531 -4.922682347757199 -4.9167991740005075 -4.293304060389134 6.905440191634675 -6.891835492744196 1.7251889723403302 -8.119323945249295 -6.4646011839564395 -2.3117812749668136 -3.9695396385654513 -6.114764183090591 -7.596585216230272 -5.966762213566891 -3.8369247039184255 -0.6766431900899441 4.202331131265371 4.399836565944691 -3.099721603201198 -1.0392237740792325 -9.802416009206919 7.5275927871962445 -4.262128019455512 7.465763410756729 -5.174166744550417 -2.0397534343550277 8.141360291359305 -6.778275850971458 -7.356212492223786 -6.652418233932478 9.898965474023186 -2.8924336285602736 3.83112230864298 -4.9907492505424695 -9.2117040774193 0.20507245927791118 6.073392223107273 3.6705725383050236 -0.6358016630123942 0.15337523454378044 
4.527707555541694 -4.279095961190298 3.6459048798056806 -7.8834259758741805 5.955983583650291 4.614009808876167 3.705544497719906 -8.392947691510905 6.294256520133466 -8.865929396811422 -4.516577243560606 -8.49156287359043 2.831883685105991 -8.08966211991864 -4.922682347757199 -8.74023933478454 -6.906084018414034 -5.0544051330044 -6.891835492744196 9.856284366364193 -2.5183264301151143 -5.854090904461556 -7.919190155000766 -3.9695396385654513 -6.114764183090591 -7.596585216230272 -4.122357904652145 -3.8369247039184255 -9.461701063942346 -0.7162460650654356 -3.410821724311564 -3.099721603201198 -6.540185349553882 2.7767108996603618 2.111632115792821 -3.7546707860323885 7.465763410756729 6.219808901154682 9.380330778101143 8.141360291359305 9.658017248560867 1.0509974632728252 7.867348043282206 9.898965474023186 8.959146343002459 1.3564035214791161 -4.9907492505424695 -9.2117040774193 0.20507245927791118 9.662739092617208 8.716760956130408 -0.6358016630123942 -2.8308701700977057 
4.527707555541694 5.63698054222473 3.6459048798056806 -7.8834259758741805 5.955983583650291 0.9826412727152913 5.572956434344526 -8.392947691510905 6.294256520133466 -8.865929396811422 -4.516577243560606 -8.49156287359043 2.831883685105991 -7.511239331170152 -4.922682347757199 -8.74023933478454 -6.906084018414034 -5.0544051330044 -3.2653423971474798 9.856284366364193 -2.5183264301151143 -5.854090904461556 -7.919190155000766 -3.9695396385654513 -9.10683100622084 -7.596585216230272 3.018103055019294 -3.8369247039184255 -0.6766431900899441 -0.7162460650654356 -3.410821724311564 -3.099721603201198 -3.4907251192612954 -9.802416009206919 2.111632115792821 -7.922142898514024 2.9238947573891583 -5.174166744550417 -9.910881976779248 8.141360291359305 -9.718360309365943 3.631244469656634 -6.652418233932478 8.851846495505402 8.959146343002459 1.3564035214791161 -4.9907492505424695 2.0923851041799324 6.294067933190846 9.662739092617208 8.716760956130408 -0.6358016630123942 -2.8308701700977057 
4.527707555541694 5.63698054222473 -2.0873707923150846 -5.729420915312435 5.955983583650291 4.01581268450072 6.08184494087817 -8.392947691510905 6.294256520133466 -6.649456271999408 -4.516577243560606 -8.49156287359043 2.831883685105991 -8.08966211991864 0.7517330095230701 -4.574254603110475 -6.906084018414034 1.0586179046141275 -3.2653423971474798 1.7251889723403302 -3.4644270852139307 -5.854090904461556 -7.919190155000766 -3.9695396385654513 -6.114764183090591 -7.596585216230272 1.4196467595530553 -3.8369247039184255 -0.6766431900899441 2.5279142136453245 -3.410821724311564 -3.099721603201198 -6.540185349553882 -9.802416009206919 2.9714747074725523 -3.7546707860323885 2.9238947573891583 -5.174166744550417 5.280434558517506 8.141360291359305 -6.778275850971458 3.631244469656634 0.35447663135005314 0.023196193499657625 8.959146343002459 1.3564035214791161 -4.9907492505424695 -9.2117040774193 0.20507245927791118 -0.3470724766887212 8.716760956130408 -0.6358016630123942 7.579897004536029 
1.286062246521693 -3.4126713701536504 8.893348171616346 8.1206055529691 -5.917299128189919 -7.33598619605252 3.6414506593237643 -9.922868983792883 2.239567392641808 -3.202086233122796 2.024768457985777 -7.177747389827067 -6.60870404530526 5.818380354429189 0.517133359283779 0.9132820879895576 1.8123318725179196 -7.094588629348499 -8.381562421364507 4.431732581650394 -4.511964841673397 -6.019600161560474 -6.1616339714646795 -1.5592841683896737 -8.289974615090006 -4.755420898085642 -3.295180499107662 -9.02334431824434 -7.46308426569864 1.435647907099609 -6.528472886319044 -9.672505160384894 5.853912117954593 -9.153506597620648 -2.9611429406765133 -7.180118419727631 -2.3348760357953813 -8.609678968393027 5.048731823988909 0.9519584074163454 -8.947029829551244 -2.6395751245297134 6.66427385493002 -8.858405327728057 -3.0790707021453994 3.90251250966282 6.037541177441213 -6.826607156516387 -0.7215845971413959 0.7055800170052642 6.939895198632243 8.740971860725551 5.845309717878241 
1.286062246521693 -3.4126713701536504 1.0324321964630467 -5.80265854381228 -9.640590686994397 8.578209987290947 3.6414506593237643 -9.922868983792883 2.239567392641808 -3.202086233122796 -8.594564517013763 -7.177747389827067 -7.198082328300506 1.5853879971404528 -3.043381675041841 -2.0136806654756034 -2.872062205694183 -7.094588629348499 -8.381562421364507 4.431732581650394 -4.511964841673397 -6.019600161560474 -6.1616339714646795 -1.5592841683896737 -8.289974615090006 2.4545140714395135 -3.295180499107662 3.10512323165333 5.914819546132023 1.435647907099609 -6.932493541421183 -2.289716787341229 5.853912117954593 -9.153506597620648 -2.9611429406765133 -7.180118419727631 -2.3348760357953813 5.1605938421237045 1.3724136861056238 0.9519584074163454 -8.947029829551244 -9.961316635949425 -6.010533942033447 -8.858405327728057 -3.0790707021453994 3.90251250966282 8.145541011981376 2.68871507360533 -2.988599354959538 6.911875593199447 6.939895198632243 8.314644432829365 -3.681898376272148 
1.286062246521693 -3.4126713701536504 1.0324321964630467 6.248657454008757 -9.640590686994397 8.578209987290947 3.6414506593237643 -9.922868983792883 2.239567392641808 3.8520436266280385 -8.594564517013763 -7.177747389827067 -1.0644045353214366 1.5853879971404528 9.336992570409134 0.9132820879895576 -2.872062205694183 -7.094588629348499 -8.381562421364507 4.431732581650394 -4.511964841673397 -6.019600161560474 -5.297270090300927 -1.5592841683896737 -8.289974615090006 -4.755420898085642 -7.978731959681262 -4.713996493043888 -7.46308426569864 1.435647907099609 -6.932493541421183 -2.289716787341229 5.853912117954593 -9.153506597620648 -2.9611429406765133 -7.180118419727631 -2.3348760357953813 -3.1034842686165387 -7.462855409562755 0.9519584074163454 -8.947029829551244 -9.961316635949425 6.66427385493002 -8.858405327728057 -3.0790707021453994 -3.981314971915781 8.145541011981376 2.68871507360533 -2.988599354959538 6.911875593199447 6.939895198632243 8.740971860725551 5.845309717878241 
1.286062246521693 -3.4126713701536504 0.24171974824678522 -5.80265854381228 1.1553062583295173 8.578209987290947 3.6414506593237643 -9.922868983792883 2.239567392641808 -3.202086233122796 -8.594564517013763 -7.177747389827067 -1.0644045353214366 1.5853879971404528 -3.043381675041841 0.9132820879895576 -2.872062205694183 -7.094588629348499 -8.381562421364507 4.431732581650394 -4.511964841673397 -6.019600161560474 8.437603793750736 -7.414989628079582 4.667670832829323 -4.755420898085642 1.3095662897854954 -9.02334431824434 -7.46308426569864 1.435647907099609 -6.932493541421183 -2.289716787341229 5.853912117954593 -9.153506597620648 -2.9611429406765133 -7.180118419727631 -2.3348760357953813 5.1605938421237045 5.048731823988909 0.9519584074163454 -8.947029829551244 -2.6395751245297134 2.0096232487734262 -8.858405327728057 -3.0790707021453994 3.90251250966282 8.145541011981376 2.68871507360533 -2.988599354959538 6.911875593199447 6.939895198632243 6.455701303301687 5.845309717878241 
1.286062246521693 -3.4126713701536504 4.58576203180554 -5.80265854381228 -5.917299128189919 -8.339758967653275 3.6414506593237643 -9.922868983792883 2.239567392641808 -3.202086233122796 -8.594564517013763 7.833986730521573 -1.0644045353214366 -6.279859828234427 -3.043381675041841 0.9132820879895576 -2.872062205694183 -8.135119737415266 -8.381562421364507 4.431732581650394 -4.511964841673397 -6.019600161560474 -5.297270090300927 -1.5592841683896737 -8.289974615090006 -4.039617001506581 -3.295180499107662 -9.02334431824434 -7.46308426569864 1.435647907099609 0.7286273800319165 -2.289716787341229 5.853912117954593 -9.153506597620648 -2.9611429406765133 -8.15472258515583 -2.3348760357953813 5.1605938421237045 5.048731823988909 0.9519584074163454 -8.947029829551244 -9.961316635949425 6.66427385493002 -8.858405327728057 -3.0790707021453994 3.90251250966282 8.145541011981376 1.7106131203868244 -2.988599354959538 6.911875593199447 6.939895198632243 8.740971860725551 5.845309717878241 
1.286062246521693 7.972511454969162 1.0324321964630467 -5.80265854381228 -5.917299128189919 8.578209987290947 3.362464160793383 -9.922868983792883 2.239567392641808 -3.202086233122796 -8.594564517013763 -7.177747389827067 -0.8457207379269516 1.5853879971404528 -3.043381675041841 0.9132820879895576 -2.872062205694183 -7.094588629348499 -8.381562421364507 4.431732581650394 -4.511964841673397 -6.019600161560474 -6.1616339714646795 -1.5592841683896737 -8.289974615090006 -4.755420898085642 -3.295180499107662 -4.713996493043888 -7.46308426569864 2.451579259079855 -6.932493541421183 -2.289716787341229 5.853912117954593 -9.153506597620648 -2.9611429406765133 -7.180118419727631 -2.3348760357953813 5.1605938421237045 5.048731823988909 0.9519584074163454 -8.947029829551244 -9.961316635949425 6.66427385493002 -8.858405327728057 -3.0790707021453994 -9.343380376723378 8.145541011981376 5.682516311237718 -3.415544038321105 -4.574748797244197 6.939895198632243 8.740971860725551 5.845309717878241 
1.286062246521693 7.972511454969162 1.0324321964630467 -5.80265854381228 -5.917299128189919 -3.897566291359375 3.6414506593237643 -9.922868983792883 2.239567392641808 -3.202086233122796 -8.594564517013763 -7.177747389827067 3.133577756788526 1.5853879971404528 -3.043381675041841 0.9132820879895576 -2.872062205694183 -7.094588629348499 -8.381562421364507 4.431732581650394 -4.511964841673397 -6.019600161560474 -6.1616339714646795 -9.693940939464662 -8.289974615090006 -4.755420898085642 -3.295180499107662 4.637646906671646 -7.46308426569864 1.435647907099609 -7.402608703458693 -2.289716787341229 5.853912117954593 -9.153506597620648 -2.9611429406765133 -7.180118419727631 -2.3348760357953813 5.1605938421237045 5.048731823988909 0.9519584074163454 -8.947029829551244 -9.961316635949425 -2.249004813930677 -8.858405327728057 -3.0790707021453994 3.90251250966282 8.145541011981376 2.68871507360533 -2.988599354959538 -4.574748797244197 5.809699688016284 8.740971860725551 -3.681898376272148 
1.286062246521693 -3.4126713701536504 2.3012699128989027 -5.80265854381228 -0.614671652674021 8.578209987290947 1.2948282593081153 -9.922868983792883 2.239567392641808 -3.202086233122796 -8.594564517013763 -7.177747389827067 -1.0644045353214366 -6.279859828234427 -3.043381675041841 -1.0786896171803484 -2.872062205694183 -8.135119737415266 -8.381562421364507 4.431732581650394 -4.511964841673397 2.1941971990397064 -6.1616339714646795 -1.5592841683896737 -8.289974615090006 -4.755420898085642 -0.7100118559487782 -9.02334431824434 -7.46308426569864 1.435647907099609 -6.932493541421183 -2.289716787341229 -7.184509931559164 -9.153506597620648 -2.9611429406765133 -7.180118419727631 -2.3348760357953813 5.1605938421237045 5.048731823988909 0.9519584074163454 -8.947029829551244 0.2650398595181809 6.66427385493002 -8.858405327728057 -3.0790707021453994 3.90251250966282 8.145541011981376 2.68871507360533 -2.988599354959538 -4.574748797244197 6.939895198632243 8.314644432829365 5.845309717878241 
1.286062246521693 7.972511454969162 1.0324321964630467 -5.80265854381228 -7.254769180053977 8.578209987290947 3.6414506593237643 -9.922868983792883 2.239567392641808 -3.202086233122796 -8.594564517013763 -7.177747389827067 -1.0644045353214366 1.5853879971404528 -3.043381675041841 7.420455172090264 -2.872062205694183 -7.094588629348499 -8.381562421364507 -8.623196639319248 -4.511964841673397 -6.019600161560474 -5.297270090300927 -1.5592841683896737 -8.289974615090006 -4.755420898085642 -5.860367786140284 -9.02334431824434 4.57449944250696 1.435647907099609 -6.932493541421183 -2.289716787341229 5.853912117954593 -9.153506597620648 -2.9611429406765133 -0.6221114187806123 -4.629043316966364 -7.518919083986271 5.048731823988909 0.9519584074163454 -8.947029829551244 -9.961316635949425 6.66427385493002 -8.858405327728057 -2.0331034651221565 3.90251250966282 8.145541011981376 2.68871507360533 -2.988599354959538 -7.5697827670635025 -6.982527699574641 8.740971860725551 5.845309717878241 
1.286062246521693 7.972511454969162 9.357897729221772 8.1206055529691 -5.917299128189919 -3.897566291359375 3.6414506593237643 -9.922868983792883 2.239567392641808 -6.528862617708917 2.024768457985777 -7.177747389827067 -6.60870404530526 5.818380354429189 -3.043381675041841 -0.7832969587595073 -4.963735014572994 -5.074421712952322 -8.381562421364507 4.431732581650394 -4.511964841673397 -6.019600161560474 -5.297270090300927 -5.61039648963485 -8.289974615090006 -4.039617001506581 4.040624452739806 -4.713996493043888 -7.46308426569864 -3.0061612649418183 -6.528472886319044 -2.289716787341229 -4.9119066140054795 4.497357446396215 6.164969695680735 -7.180118419727631 -2.3348760357953813 -7.518919083986271 1.3724136861056238 0.9519584074163454 -8.947029829551244 -2.6395751245297134 -6.010533942033447 -8.858405327728057 -1.259205263478755 -3.981314971915781 6.037541177441213 -6.826607156516387 -2.988599354959538 0.7055800170052642 6.939895198632243 8.740971860725551 5.845309717878241 
1.286062246521693 7.972511454969162 -3.838928080543047 8.1206055529691 -5.917299128189919 -3.897566291359375 3.6414506593237643 -9.922868983792883 2.239567392641808 -3.677344062560037 -0.6086066185655774 -7.177747389827067 -6.60870404530526 5.818380354429189 -2.3001548781443226 -2.0136806654756034 -2.872062205694183 4.58757481622113 -8.381562421364507 4.431732581650394 -4.511964841673397 8.631098882111875 -5.297270090300927 -5.61039648963485 -8.289974615090006 -4.039617001506581 1.3095662897854954 -4.713996493043888 -7.46308426569864 -3.0061612649418183 -6.9482781301918495 -9.672505160384894 5.853912117954593 6.675770503617802 6.164969695680735 -7.180118419727631 1.864107995312283 -7.518919083986271 1.3724136861056238 0.9519584074163454 3.9172837717489895 -2.6395751245297134 -6.010533942033447 -8.858405327728057 -1.259205263478755 -3.981314971915781 6.037541177441213 -8.798208062717697 4.424506677683198 0.7055800170052642 -0.8892327749573514 8.740971860725551 5.845309717878241 
1.286062246521693 7.972511454969162 8.893348171616346 8.1206055529691 -7.389825533052101 -3.897566291359375 3.6414506593237643 -9.922868983792883 -9.650578130615337 -6.528862617708917 -0.6086066185655774 -7.177747389827067 -6.60870404530526 5.818380354429189 -2.3001548781443226 -2.0136806654756034 -2.872062205694183 -8.135119737415266 -8.381562421364507 6.802089496530019 -4.511964841673397 -6.019600161560474 -5.297270090300927 -5.61039648963485 -8.289974615090006 -4.039617001506581 -7.978731959681262 -4.713996493043888 -7.46308426569864 -3.0061612649418183 -6.263061735055029 -9.672505160384894 5.853912117954593 4.497357446396215 6.164969695680735 -7.180118419727631 -8.26531786588216 -7.119793919853208 1.3724136861056238 0.9519584074163454 3.9172837717489895 -2.6395751245297134 -6.010533942033447 -8.858405327728057 2.733130001524266 -3.981314971915781 6.037541177441213 -6.826607156516387 -2.988599354959538 0.7055800170052642 -0.8892327749573514 8.740971860725551 5.845309717878241 
1.286062246521693 7.972511454969162 8.893348171616346 8.1206055529691 -5.917299128189919 -3.897566291359375 3.6414506593237643 -9.922868983792883 -8.777288760138134 -3.202086233122796 2.024768457985777 -7.177747389827067 2.3452848988660513 5.818380354429189 -2.3001548781443226 1.080242703254708 0.4219570694860657 4.58757481622113 7.904327358601343 4.431732581650394 -5.352578681729641 -6.019600161560474 -5.297270090300927 -5.61039648963485 -8.289974615090006 -4.039617001506581 1.3095662897854954 -4.713996493043888 -7.46308426569864 -3.0061612649418183 -6.528472886319044 -9.672505160384894 5.853912117954593 4.497357446396215 6.164969695680735 -7.180118419727631 -1.7007467648773726 -7.518919083986271 2.239557054082276 0.9519584074163454 3.9172837717489895 -2.6395751245297134 -6.010533942033447 -8.858405327728057 -1.259205263478755 -1.8061217529456783 4.040279650811039 -6.826607156516387 -2.988599354959538 7.912699783901584 -0.8892327749573514 8.740971860725551 5.845309717878241 
-8.197709238841153 7.972511454969162 8.893348171616346 8.1206055529691 -5.917299128189919 8.578209987290947 3.6414506593237643 -9.922868983792883 2.239567392641808 -6.528862617708917 2.024768457985777 -7.177747389827067 -6.60870404530526 5.818380354429189 -2.3001548781443226 -2.0136806654756034 -4.963735014572994 4.58757481622113 -8.381562421364507 4.431732581650394 -4.511964841673397 -6.019600161560474 -5.297270090300927 -5.61039648963485 -8.289974615090006 -4.039617001506581 1.3095662897854954 -4.713996493043888 -7.46308426569864 -3.0061612649418183 -6.528472886319044 7.294923513643763 5.853912117954593 4.497357446396215 -4.084797411150671 -7.180118419727631 -2.3348760357953813 -7.518919083986271 1.3724136861056238 0.9519584074163454 3.9172837717489895 -2.6395751245297134 -6.010533942033447 -8.858405327728057 2.813282868883782 -3.981314971915781 6.037541177441213 -6.826607156516387 -2.988599354959538 0.7055800170052642 6.625155370477916 8.740971860725551 1.1997559143146237 
1.286062246521693 7.972511454969162 -7.693760557795359 8.1206055529691 -5.917299128189919 -3.897566291359375 3.6414506593237643 -9.922868983792883 2.239567392641808 -6.528862617708917 -0.6086066185655774 -7.177747389827067 -6.60870404530526 5.818380354429189 -2.3001548781443226 -2.0136806654756034 -4.963735014572994 -4.2074164858123275 -8.381562421364507 4.431732581650394 -4.511964841673397 -6.019600161560474 -5.297270090300927 -5.61039648963485 -8.289974615090006 -4.039617001506581 -3.295180499107662 -4.713996493043888 -7.46308426569864 -3.0061612649418183 -0.4966007529355707 -9.672505160384894 5.853912117954593 4.497357446396215 6.164969695680735 -7.180118419727631 -2.3348760357953813 -7.518919083986271 5.048731823988909 0.9519584074163454 3.9172837717489895 -2.6395751245297134 -6.010533942033447 -8.858405327728057 -3.0790707021453994 -3.981314971915781 6.037541177441213 2.68871507360533 -2.988599354959538 0.7055800170052642 -0.8892327749573514 8.740971860725551 5.845309717878241 
1.286062246521693 7.972511454969162 8.893348171616346 8.1206055529691 -5.917299128189919 -3.897566291359375 3.6414506593237643 -9.922868983792883 2.239567392641808 -6.528862617708917 2.024768457985777 -7.177747389827067 -6.60870404530526 5.818380354429189 -2.3001548781443226 -2.0136806654756034 -4.963735014572994 4.58757481622113 -8.381562421364507 4.431732581650394 -4.511964841673397 6.295644041366266 -6.1616339714646795 -5.61039648963485 -8.289974615090006 -4.039617001506581 1.3095662897854954 4.23489757028536 -7.46308426569864 -3.0061612649418183 -6.528472886319044 9.256801481082398 -8.222971321166522 4.497357446396215 6.164969695680735 -7.180118419727631 -2.3348760357953813 -7.518919083986271 1.3724136861056238 8.64558757176789 3.9172837717489895 -2.6395751245297134 -6.010533942033447 -8.858405327728057 -1.62085771322473 -3.981314971915781 8.145541011981376 -3.150396952499907 -2.988599354959538 0.7055800170052642 -0.8892327749573514 8.740971860725551 -3.681898376272148 
1.286062246521693 7.972511454969162 8.893348171616346 8.1206055529691 8.220058782008191 -3.897566291359375 3.6414506593237643 -9.922868983792883 2.239567392641808 -9.373557275340275 -0.6086066185655774 -7.177747389827067 -6.60870404530526 5.818380354429189 -2.3001548781443226 0.9132820879895576 -4.963735014572994 4.58757481622113 -5.512621353704301 4.431732581650394 -4.511964841673397 -6.019600161560474 -6.1616339714646795 -1.5592841683896737 -8.289974615090006 -4.039617001506581 1.3095662897854954 -4.713996493043888 -7.46308426569864 -2.4584425579758236 -6.528472886319044 -9.672505160384894 5.70109905979519 4.497357446396215 6.328288973989714 -7.180118419727631 -2.3348760357953813 -7.518919083986271 1.3724136861056238 0.9519584074163454 3.9172837717489895 -2.6395751245297134 6.66427385493002 -8.858405327728057 -3.0790707021453994 -3.981314971915781 6.037541177441213 2.68871507360533 4.430691417322887 0.7055800170052642 -0.8892327749573514 3.5689034524535383 5.845309717878241 
1.286062246521693 7.972511454969162 8.893348171616346 -0.004467190223804707 -5.917299128189919 -3.897566291359375 3.6414506593237643 -9.922868983792883 2.239567392641808 -7.357009896567066 2.024768457985777 -7.177747389827067 -1.0644045353214366 -6.279859828234427 3.3094125457926253 -6.2076156775046005 -2.872062205694183 4.58757481622113 -8.381562421364507 4.431732581650394 -4.511964841673397 -8.983029625713597 -5.297270090300927 -5.61039648963485 -8.289974615090006 -4.039617001506581 1.3095662897854954 -4.713996493043888 -7.46308426569864 -3.0061612649418183 -6.528472886319044 2.426621996044915 5.853912117954593 4.497357446396215 6.164969695680735 -7.180118419727631 -2.3348760357953813 -7.518919083986271 1.3724136861056238 0.9519584074163454 3.9172837717489895 -2.6395751245297134 -6.010533942033447 -8.858405327728057 -1.259205263478755 -3.981314971915781 0.7837798263888747 -4.349056149692718 -1.2063530839606749 0.7055800170052642 -0.8892327749573514 8.314644432829365 5.845309717878241 
1.286062246521693 7.972511454969162 -3.838928080543047 -0.004467190223804707 -9.640590686994397 8.578209987290947 3.6414506593237643 -9.922868983792883 2.239567392641808 -3.677344062560037 -0.6086066185655774 -7.177747389827067 2.518593630876021 -6.279859828234427 -2.3001548781443226 -2.0136806654756034 -2.872062205694183 -3.778704548244571 -8.381562421364507 4.431732581650394 -4.511964841673397 -0.2940630713465566 -5.297270090300927 -1.5592841683896737 -8.289974615090006 -4.4986852736004295 1.3095662897854954 -4.713996493043888 0.26182886245787884 6.2075664535043025 -6.9482781301918495 -8.361539671959857 5.853912117954593 4.497357446396215 -4.084797411150671 -1.851173729208739 -2.3348760357953813 5.1605938421237045 5.048731823988909 0.9519584074163454 3.9172837717489895 1.623017777894196 -6.010533942033447 -8.858405327728057 -1.259205263478755 3.90251250966282 6.037541177441213 1.7106131203868244 -2.988599354959538 6.911875593199447 -0.8892327749573514 8.740971860725551 -3.681898376272148 
1.286062246521693 7.972511454969162 8.893348171616346 8.1206055529691 -9.640590686994397 8.578209987290947 3.6414506593237643 -9.922868983792883 3.057389336145908 -3.677344062560037 -0.6086066185655774 -0.5104064186591568 -6.60870404530526 5.818380354429189 -2.3001548781443226 -2.0136806654756034 -2.872062205694183 -3.778704548244571 -8.381562421364507 4.431732581650394 -4.511964841673397 -6.019600161560474 -5.297270090300927 -1.5592841683896737 -8.289974615090006 -4.4986852736004295 1.3095662897854954 -4.713996493043888 -7.46308426569864 -3.0061612649418183 -6.9482781301918495 -9.672505160384894 5.853912117954593 4.497357446396215 6.164969695680735 -1.851173729208739 1.864107995312283 -4.110828782820908 1.3724136861056238 0.9519584074163454 3.9172837717489895 -2.6395751245297134 -6.010533942033447 -8.858405327728057 8.39254168256469 -3.981314971915781 6.037541177441213 1.7106131203868244 -2.988599354959538 0.7055800170052642 -0.8892327749573514 8.314644432829365 -3.681898376272148 
1.286062246521693 7.972511454969162 -3.838928080543047 6.013309037216565 -9.640590686994397 8.578209987290947 3.6414506593237643 -9.922868983792883 2.239567392641808 -3.677344062560037 -0.6086066185655774 -7.177747389827067 -6.005024813427098 -6.279859828234427 -2.3001548781443226 -2.0136806654756034 -2.872062205694183 -3.778704548244571 -8.381562421364507 6.802089496530019 -4.511964841673397 -6.019600161560474 -5.297270090300927 -1.5592841683896737 -8.289974615090006 -4.039617001506581 -7.978731959681262 -4.713996493043888 -7.46308426569864 -2.4584425579758236 -6.9482781301918495 -1.1147339073863076 -5.870693797044757 4.497357446396215 -4.084797411150671 -1.851173729208739 1.864107995312283 -7.518919083986271 1.3724136861056238 0.9519584074163454 3.9172837717489895 7.436376948551985 -6.010533942033447 -8.858405327728057 -7.947844482388637 -3.981314971915781 6.037541177441213 1.7106131203868244 -2.988599354959538 0.7055800170052642 -0.8892327749573514 8.314644432829365 -3.681898376272148 
1.286062246521693 7.972511454969162 -3.838928080543047 -0.004467190223804707 1.1553062583295173 8.578209987290947 3.6414506593237643 -9.922868983792883 2.239567392641808 -3.677344062560037 -0.6086066185655774 -2.0923742692178005 -6.60870404530526 -6.279859828234427 -2.3001548781443226 -2.0136806654756034 -2.872062205694183 -3.778704548244571 -8.381562421364507 -2.645027940490758 -4.511964841673397 -6.019600161560474 -5.297270090300927 -1.5592841683896737 -8.289974615090006 -4.4986852736004295 1.3095662897854954 -4.713996493043888 -7.46308426569864 -3.0061612649418183 -6.932493541421183 2.426621996044915 5.853912117954593 4.497357446396215 -4.084797411150671 -7.180118419727631 1.864107995312283 -7.518919083986271 1.3724136861056238 0.9519584074163454 3.9172837717489895 -2.6395751245297134 -6.010533942033447 -8.858405327728057 -1.259205263478755 -3.981314971915781 6.037541177441213 1.7106131203868244 -2.988599354959538 0.7055800170052642 -0.8892327749573514 8.314644432829365 -3.681898376272148 
1.286062246521693 -0.8520301867269549 3.524147344964014 -0.004467190223804707 -9.640590686994397 8.578209987290947 -3.409276033114656 -9.922868983792883 8.76823174756683 -3.677344062560037 -0.6086066185655774 -7.177747389827067 -6.60870404530526 -7.024256572441221 -2.3001548781443226 -2.0136806654756034 -2.872062205694183 -3.778704548244571 -8.381562421364507 4.431732581650394 -4.511964841673397 2.1941971990397064 -5.297270090300927 -1.5592841683896737 -8.289974615090006 -4.039617001506581 1.3095662897854954 -4.713996493043888 -7.46308426569864 -3.0061612649418183 -6.932493541421183 2.426621996044915 5.853912117954593 4.497357446396215 -4.084797411150671 -1.851173729208739 1.864107995312283 -7.518919083986271 1.3724136861056238 -6.571981437107793 3.9172837717489895 -2.6395751245297134 -1.1159783479541492 -6.9284056221372765 -1.259205263478755 8.059685085879856 -3.6652967111805967 1.7106131203868244 -3.637645161754312 0.7055800170052642 -0.8892327749573514 8.314644432829365 -6.913898948669348 
1.286062246521693 7.972511454969162 -3.838928080543047 -0.004467190223804707 3.5104871970402147 8.578209987290947 3.6414506593237643 -9.922868983792883 2.239567392641808 -3.677344062560037 3.7051125280007575 -7.177747389827067 -6.60870404530526 -6.279859828234427 -2.3001548781443226 -2.0136806654756034 -2.872062205694183 5.952031807194354 -8.381562421364507 4.431732581650394 5.420871160078448 -6.019600161560474 -5.297270090300927 -1.5592841683896737 -8.289974615090006 -4.4986852736004295 1.3095662897854954 -4.713996493043888 -7.46308426569864 -3.0061612649418183 -6.932493541421183 2.426621996044915 5.853912117954593 4.497357446396215 -4.084797411150671 -1.851173729208739 -2.3348760357953813 -7.518919083986271 5.048731823988909 0.9519584074163454 3.9172837717489895 -9.961316635949425 6.66427385493002 -8.858405327728057 -3.0790707021453994 -3.981314971915781 6.037541177441213 1.7106131203868244 -2.988599354959538 0.7055800170052642 -0.8892327749573514 8.314644432829365 -3.681898376272148 
1.286062246521693 7.972511454969162 -3.838928080543047 -0.004467190223804707 -9.640590686994397 8.578209987290947 3.6414506593237643 -9.922868983792883 2.239567392641808 -7.8121391445969195 -0.6086066185655774 -7.177747389827067 0.824699705867463 -6.279859828234427 -2.3001548781443226 -2.0136806654756034 -2.872062205694183 -3.778704548244571 -8.381562421364507 4.431732581650394 -4.511964841673397 -1.5147218538571554 -5.297270090300927 -1.5592841683896737 -8.289974615090006 -4.039617001506581 1.3095662897854954 -9.02334431824434 -7.46308426569864 -2.4584425579758236 -6.932493541421183 2.426621996044915 -8.222971321166522 4.497357446396215 -4.084797411150671 -7.180118419727631 -0.36479839386854707 -7.518919083986271 5.048731823988909 0.9519584074163454 3.9172837717489895 -2.6395751245297134 -6.010533942033447 -8.858405327728057 -1.259205263478755 -3.981314971915781 8.145541011981376 1.7106131203868244 -2.988599354959538 0.7055800170052642 5.809699688016284 8.314644432829365 -3.681898376272148 
1.286062246521693 7.972511454969162 1.4890918389032706 -0.004467190223804707 8.220058782008191 -3.897566291359375 3.6414506593237643 -9.922868983792883 5.181755230164356 -3.202086233122796 -0.6086066185655774 -7.177747389827067 -6.60870404530526 -6.279859828234427 -2.3001548781443226 2.2198952543206154 -2.872062205694183 -3.778704548244571 -8.381562421364507 6.856528498225728 5.098245313833109 -6.019600161560474 -5.297270090300927 -1.5592841683896737 -8.289974615090006 9.296194736228504 1.3095662897854954 -4.713996493043888 -7.46308426569864 -3.0061612649418183 -6.9482781301918495 2.426621996044915 5.853912117954593 4.497357446396215 -4.084797411150671 -1.851173729208739 1.864107995312283 -7.518919083986271 1.3724136861056238 0.9519584074163454 3.9172837717489895 -2.6395751245297134 6.792354932543823 -8.858405327728057 -1.259205263478755 -3.981314971915781 -9.052054012870148 1.7106131203868244 -2.988599354959538 0.7055800170052642 -0.8892327749573514 8.314644432829365 -3.308246619483146 
1.286062246521693 7.972511454969162 5.652860172680256 -0.004467190223804707 -9.640590686994397 8.578209987290947 3.6414506593237643 -9.922868983792883 2.239567392641808 -3.677344062560037 -0.6086066185655774 -7.177747389827067 -6.60870404530526 -6.279859828234427 3.3094125457926253 0.9132820879895576 -2.872062205694183 -3.778704548244571 -8.381562421364507 4.431732581650394 -2.6507352518682463 -6.019600161560474 -5.297270090300927 -1.5592841683896737 -8.289974615090006 -4.4986852736004295 1.3095662897854954 -4.713996493043888 -7.46308426569864 -3.0061612649418183 -6.932493541421183 2.426621996044915 5.853912117954593 4.497357446396215 -4.084797411150671 -1.851173729208739 1.864107995312283 -7.518919083986271 5.048731823988909 0.9519584074163454 5.799286204619616 -2.6395751245297134 -6.010533942033447 -8.858405327728057 -1.259205263478755 7.418026679177807 6.037541177441213 0.08950890352749319 5.899172543026978 -7.5697827670635025 -5.1340978204388215 8.314644432829365 -3.681898376272148 
1.286062246521693 7.972511454969162 -3.017080493444075 6.248657454008757 -9.640590686994397 4.566715499209394 3.6414506593237643 -9.922868983792883 -0.4401669594172688 8.929006609966827 -2.837169164631657 -7.177747389827067 -1.0644045353214366 -7.705951588579292 -3.043381675041841 -2.0136806654756034 -2.872062205694183 -7.094588629348499 -8.381562421364507 4.431732581650394 -4.511964841673397 -6.019600161560474 -6.1616339714646795 -1.5592841683896737 0.8128213492519301 -4.755420898085642 -7.978731959681262 -4.713996493043888 -7.46308426569864 1.435647907099609 -6.932493541421183 -2.289716787341229 5.853912117954593 4.497357446396215 9.961984155667672 -7.180118419727631 -1.285476550054959 -7.119793919853208 1.3724136861056238 0.9519584074163454 -8.947029829551244 -2.6395751245297134 -6.010533942033447 -8.858405327728057 -3.0790707021453994 -3.981314971915781 6.037541177441213 1.7106131203868244 -2.988599354959538 6.519477747154177 6.939895198632243 8.740971860725551 5.845309717878241 
1.286062246521693 7.972511454969162 -3.017080493444075 8.1206055529691 -9.640590686994397 4.566715499209394 -9.149854621589942 -9.922868983792883 2.239567392641808 -3.677344062560037 -0.6086066185655774 -7.177747389827067 -6.60870404530526 -1.2720392490216152 4.3117693034372255 -2.0136806654756034 -2.872062205694183 4.58757481622113 -8.381562421364507 4.431732581650394 -4.511964841673397 -6.019600161560474 -5.297270090300927 -1.5592841683896737 -8.289974615090006 -4.039617001506581 1.3095662897854954 -4.713996493043888 -7.46308426569864 -3.0061612649418183 -6.528472886319044 -1.1147339073863076 2.3904564659100362 4.497357446396215 9.961984155667672 6.864403281586878 -2.3348760357953813 -7.119793919853208 1.3724136861056238 -5.827196045043168 3.9172837717489895 -2.6395751245297134 -6.010533942033447 -8.858405327728057 -1.259205263478755 -3.981314971915781 6.037541177441213 1.7106131203868244 -2.988599354959538 6.911875593199447 -0.8892327749573514 8.740971860725551 5.845309717878241 
1.286062246521693 7.972511454969162 -7.562679797816331 -0.004467190223804707 -9.640590686994397 8.578209987290947 3.6414506593237643 -9.922868983792883 2.239567392641808 -3.677344062560037 -0.6086066185655774 -7.177747389827067 -6.60870404530526 -1.2720392490216152 -2.3001548781443226 -2.0136806654756034 -2.872062205694183 -8.135119737415266 -8.381562421364507 6.802089496530019 -4.511964841673397 -6.019600161560474 -5.297270090300927 -1.5592841683896737 -8.289974615090006 -4.4986852736004295 -7.978731959681262 -4.713996493043888 -7.46308426569864 -9.906302061782819 -6.932493541421183 -7.210562928866584 -2.540845631387077 4.497357446396215 9.961984155667672 8.344639660290728 -8.26531786588216 -7.119793919853208 -7.082695349943238 0.9519584074163454 3.9172837717489895 -2.560066175534228 -6.010533942033447 -8.858405327728057 -1.259205263478755 -3.981314971915781 6.037541177441213 1.7106131203868244 -2.988599354959538 6.911875593199447 -0.8892327749573514 -7.5939371319580395 -9.81178431567188 
1.286062246521693 7.972511454969162 -3.017080493444075 6.248657454008757 -9.640590686994397 4.566715499209394 3.6414506593237643 -9.922868983792883 2.239567392641808 -3.202086233122796 5.10191269338433 -7.177747389827067 9.910848290587353 -6.279859828234427 -2.3001548781443226 -2.0136806654756034 -2.872062205694183 -8.135119737415266 -8.381562421364507 6.802089496530019 -4.511964841673397 -6.019600161560474 -5.297270090300927 -1.5592841683896737 8.384394765577248 -4.039617001506581 -7.978731959681262 -4.713996493043888 -7.46308426569864 -9.916236108264387 -6.932493541421183 -1.1147339073863076 5.853912117954593 4.497357446396215 9.961984155667672 7.33146863317598 -8.26531786588216 -7.119793919853208 1.3724136861056238 0.9519584074163454 3.9172837717489895 -2.6395751245297134 -6.010533942033447 -8.858405327728057 2.733130001524266 -1.8061217529456783 6.037541177441213 1.7106131203868244 -2.988599354959538 0.7055800170052642 -0.8892327749573514 8.740971860725551 5.845309717878241 
1.286062246521693 7.972511454969162 -3.017080493444075 -0.004467190223804707 -9.640590686994397 4.566715499209394 3.6414506593237643 -9.922868983792883 2.239567392641808 -3.677344062560037 -0.6086066185655774 -7.177747389827067 -6.60870404530526 -1.2720392490216152 -2.3001548781443226 -2.0136806654756034 -2.872062205694183 -8.135119737415266 -8.381562421364507 6.802089496530019 -4.511964841673397 -6.019600161560474 -5.297270090300927 -1.5592841683896737 -8.289974615090006 1.7839999200162175 -7.978731959681262 -4.713996493043888 -7.46308426569864 -2.4584425579758236 -6.932493541421183 -1.1147339073863076 5.853912117954593 4.497357446396215 9.961984155667672 -8.15472258515583 -8.26531786588216 -7.518919083986271 -5.609930535453589 0.9519584074163454 3.9172837717489895 -2.6395751245297134 -6.010533942033447 -6.9284056221372765 2.733130001524266 -3.981314971915781 6.036845225644452 1.7106131203868244 -2.988599354959538 6.911875593199447 -0.8892327749573514 8.740971860725551 5.845309717878241 
1.286062246521693 7.972511454969162 1.2089430558979437 6.248657454008757 -5.917299128189919 4.566715499209394 3.6414506593237643 -9.922868983792883 2.239567392641808 -3.677344062560037 -0.6086066185655774 -7.177747389827067 -6.60870404530526 -1.2720392490216152 -2.3001548781443226 -2.0136806654756034 -2.872062205694183 -8.135119737415266 -8.381562421364507 4.431732581650394 -4.511964841673397 -6.019600161560474 -6.1616339714646795 -1.5592841683896737 -8.289974615090006 -4.039617001506581 -7.978731959681262 -4.713996493043888 -7.46308426569864 -2.4584425579758236 -5.338177742629782 -1.1147339073863076 5.853912117954593 4.497357446396215 9.961984155667672 6.864403281586878 -8.26531786588216 -3.095373798535599 1.3724136861056238 8.64558757176789 3.9172837717489895 -9.961316635949425 -6.010533942033447 7.86298061385741 2.733130001524266 -3.981314971915781 6.037541177441213 1.7106131203868244 -2.988599354959538 6.911875593199447 2.658017957707127 8.740971860725551 5.845309717878241 
1.286062246521693 7.972511454969162 -3.017080493444075 6.248657454008757 -9.640590686994397 -5.872273669900274 1.2948282593081153 -9.922868983792883 2.239567392641808 -3.677344062560037 -8.430279344164486 -7.177747389827067 -6.60870404530526 -1.2720392490216152 -2.3001548781443226 -2.0136806654756034 -2.872062205694183 -8.135119737415266 -8.381562421364507 6.802089496530019 -4.511964841673397 -6.019600161560474 -6.1616339714646795 -1.5592841683896737 -8.289974615090006 -4.039617001506581 -7.978731959681262 -4.713996493043888 -7.46308426569864 -2.4584425579758236 -6.932493541421183 -1.1147339073863076 5.853912117954593 4.497357446396215 9.961984155667672 6.864403281586878 8.21582603968977 5.1605938421237045 1.3724136861056238 0.9519584074163454 3.9172837717489895 -2.6395751245297134 -1.5777598433715312 -8.858405327728057 -3.0790707021453994 -3.981314971915781 6.037541177441213 1.7106131203868244 -2.988599354959538 6.911875593199447 -0.8892327749573514 8.740971860725551 -3.681898376272148 
1.286062246521693 7.972511454969162 -7.189367697444937 6.248657454008757 8.220058782008191 4.566715499209394 3.6414506593237643 -9.922868983792883 2.239567392641808 -3.202086233122796 -0.6086066185655774 -7.177747389827067 0.824699705867463 -1.2720392490216152 -2.3001548781443226 -2.0136806654756034 -2.872062205694183 -8.135119737415266 -8.381562421364507 6.802089496530019 -4.511964841673397 2.1941971990397064 -6.1616339714646795 -1.5592841683896737 -8.289974615090006 -4.039617001506581 -7.978731959681262 -4.713996493043888 -0.14198734448860506 -2.4584425579758236 -6.932493541421183 -1.1147339073863076 3.088961934342162 -2.232008620747374 9.961984155667672 -7.180118419727631 -8.26531786588216 -2.611160516334177 1.3724136861056238 1.2260127506405567 8.331376369594025 -2.6395751245297134 -6.010533942033447 -8.858405327728057 -3.0790707021453994 -3.981314971915781 6.037541177441213 1.7106131203868244 -2.988599354959538 -2.9578991815359252 -0.8892327749573514 8.740971860725551 5.845309717878241 
8.628574417151786 7.972511454969162 -3.017080493444075 6.248657454008757 8.220058782008191 -3.4310993293105803 0.646625051206053 -9.922868983792883 2.239567392641808 -3.677344062560037 -8.262393731710807 -7.177747389827067 -6.60870404530526 -1.2720392490216152 3.3094125457926253 -2.0136806654756034 -2.872062205694183 -8.135119737415266 -8.381562421364507 6.802089496530019 -2.6507352518682463 -6.019600161560474 -5.297270090300927 -1.5592841683896737 -8.289974615090006 -4.4986852736004295 1.3095662897854954 -4.713996493043888 -7.46308426569864 -2.4584425579758236 -6.932493541421183 2.426621996044915 5.853912117954593 4.497357446396215 9.961984155667672 6.864403281586878 -8.26531786588216 7.537549300105976 5.048731823988909 0.9519584074163454 3.9172837717489895 -2.6395751245297134 -6.010533942033447 7.387987067891288 2.733130001524266 -3.981314971915781 7.878940646217568 1.7106131203868244 -2.988599354959538 6.911875593199447 -0.8892327749573514 8.314644432829365 5.845309717878241 
1.286062246521693 7.972511454969162 -1.6678675171795305 -5.80265854381228 1.1553062583295173 8.578209987290947 3.6414506593237643 -9.922868983792883 2.239567392641808 -3.202086233122796 -8.594564517013763 -3.109171976993519 -1.0644045353214366 -6.279859828234427 -3.043381675041841 -2.0136806654756034 -2.872062205694183 -8.135119737415266 -8.381562421364507 4.431732581650394 -4.511964841673397 -6.019600161560474 -6.1616339714646795 -1.5592841683896737 -8.289974615090006 -4.755420898085642 -1.7369553779920022 -9.02334431824434 0.756187414265014 -9.916236108264387 -6.932493541421183 -2.289716787341229 5.853912117954593 4.497357446396215 -2.9611429406765133 -7.180118419727631 -2.3348760357953813 5.1605938421237045 -0.5807322432282263 0.9519584074163454 3.9172837717489895 -2.6395751245297134 2.0096232487734262 -8.858405327728057 -1.259205263478755 -1.8061217529456783 6.037541177441213 -3.17218309989234 -2.988599354959538 0.7055800170052642 -0.8892327749573514 8.740971860725551 -1.1073004730851448 
1.286062246521693 7.972511454969162 -3.017080493444075 -0.004467190223804707 1.1553062583295173 -3.897566291359375 3.6414506593237643 -9.922868983792883 2.239567392641808 -6.528862617708917 -0.6086066185655774 -7.177747389827067 -6.60870404530526 5.818380354429189 -2.3001548781443226 -2.0136806654756034 -2.872062205694183 4.58757481622113 -8.381562421364507 4.431732581650394 -4.511964841673397 -9.302151536090264 -5.297270090300927 -1.5592841683896737 -8.289974615090006 -4.039617001506581 1.3095662897854954 -4.713996493043888 3.837101540751222 -3.0061612649418183 -2.370761741709055 2.426621996044915 5.853912117954593 4.497357446396215 -4.084797411150671 -7.180118419727631 -2.3348760357953813 -7.518919083986271 2.239557054082276 0.9519584074163454 3.9172837717489895 -2.6395751245297134 2.0096232487734262 -8.858405327728057 -1.259205263478755 -3.981314971915781 6.037541177441213 6.841419021749758 1.9177936360920285 0.7055800170052642 -0.8892327749573514 -8.989475713654933 5.845309717878241 
1.286062246521693 7.972511454969162 -3.017080493444075 0.3450652432956858 1.1553062583295173 -8.248404196906227 3.6414506593237643 -9.922868983792883 2.239567392641808 -3.677344062560037 -0.6086066185655774 -7.177747389827067 -6.60870404530526 -6.279859828234427 -2.3001548781443226 -2.0136806654756034 -2.872062205694183 -3.778704548244571 -8.381562421364507 -1.361323809651056 -4.511964841673397 -6.019600161560474 -5.297270090300927 -1.5592841683896737 -8.289974615090006 -4.039617001506581 1.3095662897854954 -4.713996493043888 -7.46308426569864 -9.916236108264387 -6.932493541421183 2.426621996044915 5.853912117954593 4.497357446396215 -4.084797411150671 -7.180118419727631 -1.7007467648773726 -7.518919083986271 1.3724136861056238 0.9519584074163454 3.9172837717489895 -2.6395751245297134 -6.010533942033447 -8.858405327728057 -1.259205263478755 -1.8061217529456783 6.037541177441213 8.795315742754216 2.677948676337241 0.7055800170052642 -0.8892327749573514 8.740971860725551 -3.681898376272148 
1.286062246521693 -8.662984131964812 -3.017080493444075 -0.004467190223804707 1.1553062583295173 8.578209987290947 3.6414506593237643 -9.118240252911178 2.239567392641808 -3.677344062560037 -0.6086066185655774 1.5489712627068446 -6.60870404530526 -6.279859828234427 -2.3001548781443226 7.186368347097471 -2.872062205694183 -8.135119737415266 -8.381562421364507 4.431732581650394 -4.511964841673397 -6.019600161560474 -5.297270090300927 -1.5592841683896737 -8.289974615090006 -4.039617001506581 1.3095662897854954 -4.713996493043888 -7.46308426569864 -9.916236108264387 -6.932493541421183 -1.1147339073863076 5.853912117954593 -1.0342043021645768 -4.084797411150671 6.864403281586878 -8.26531786588216 -7.518919083986271 1.3724136861056238 0.9519584074163454 -4.655348306121225 -2.6395751245297134 2.0096232487734262 -8.858405327728057 -1.259205263478755 -1.8061217529456783 -3.490345867463624 8.795315742754216 -2.988599354959538 0.7055800170052642 -0.8892327749573514 8.740971860725551 5.845309717878241 
1.286062246521693 7.972511454969162 -3.017080493444075 -0.004467190223804707 -5.269557531555544 8.578209987290947 3.6414506593237643 -9.922868983792883 2.239567392641808 -3.202086233122796 2.024768457985777 -9.096683819722614 2.069786606083266 -6.279859828234427 -2.3001548781443226 -2.0136806654756034 -2.872062205694183 -8.135119737415266 -8.381562421364507 4.431732581650394 -4.511964841673397 -6.019600161560474 -5.297270090300927 -1.5592841683896737 -8.289974615090006 -4.039617001506581 1.3095662897854954 -4.713996493043888 -7.46308426569864 -2.5401680747528 -6.932493541421183 2.426621996044915 5.853912117954593 4.497357446396215 -4.084797411150671 -7.180118419727631 -2.2346280287536713 -7.518919083986271 2.239557054082276 0.9519584074163454 3.9172837717489895 -2.6395751245297134 2.0096232487734262 -8.858405327728057 -1.259205263478755 -3.981314971915781 -5.420300244251893 8.795315742754216 1.3582548236365746 0.7055800170052642 -0.8892327749573514 8.740971860725551 3.0323704578038715 
1.286062246521693 7.972511454969162 -3.017080493444075 -0.004467190223804707 1.1553062583295173 8.578209987290947 3.6414506593237643 -9.922868983792883 2.239567392641808 -2.411774532638571 -0.6086066185655774 1.5489712627068446 -6.60870404530526 -4.5112923407024486 -1.2068507497236158 -2.0136806654756034 -2.872062205694183 1.1110198316715767 -8.381562421364507 4.431732581650394 -4.511964841673397 -6.019600161560474 -5.297270090300927 -1.5592841683896737 -8.289974615090006 -1.2766295892865909 -2.2700816960275354 -4.713996493043888 -7.46308426569864 -9.916236108264387 -6.932493541421183 2.426621996044915 3.8867471926433854 -7.071283406976885 -4.084797411150671 -2.064075961366121 -1.7007467648773726 5.1605938421237045 2.239557054082276 8.64558757176789 3.9172837717489895 -9.961316635949425 2.0096232487734262 7.86298061385741 -9.313522656800155 3.90251250966282 6.037541177441213 4.688588656627221 -8.637522007883378 -6.126825259510329 -0.8892327749573514 8.740971860725551 5.845309717878241 
1.286062246521693 7.972511454969162 -3.017080493444075 -5.80265854381228 1.1553062583295173 8.578209987290947 1.2948282593081153 -9.922868983792883 2.239567392641808 -3.202086233122796 -0.6086066185655774 1.5489712627068446 -6.818167485719362 -6.279859828234427 -2.3001548781443226 0.9132820879895576 -2.872062205694183 -8.135119737415266 -8.381562421364507 4.431732581650394 -4.511964841673397 -1.5147218538571554 -6.1616339714646795 -1.5592841683896737 -1.8646045355708978 -4.039617001506581 1.3095662897854954 -4.713996493043888 -7.46308426569864 -9.916236108264387 -6.932493541421183 2.426621996044915 5.853912117954593 4.497357446396215 -4.084797411150671 1.9852519714287062 -2.2899160594903627 -7.518919083986271 2.239557054082276 0.9519584074163454 7.165881889686254 -5.0144043356604655 2.0096232487734262 -8.858405327728057 6.604030328841393 1.395335631575099 6.037541177441213 8.795315742754216 -2.988599354959538 0.7055800170052642 -0.8892327749573514 8.740971860725551 5.845309717878241 
1.286062246521693 7.972511454969162 -3.017080493444075 -5.80265854381228 1.1553062583295173 -6.772118527830136 3.6414506593237643 -9.922868983792883 2.239567392641808 -3.202086233122796 -0.6086066185655774 1.5489712627068446 -6.60870404530526 -6.279859828234427 -2.3001548781443226 -2.0136806654756034 -2.872062205694183 -8.135119737415266 -6.51890038886606 4.431732581650394 -4.511964841673397 -6.019600161560474 -5.297270090300927 -1.5592841683896737 -8.289974615090006 8.435484380010099 1.3095662897854954 -9.352765602836907 -0.7248288537567369 -5.198723343409211 -6.932493541421183 2.426621996044915 -0.8759711200789688 -2.232008620747374 -4.084797411150671 -7.180118419727631 -1.7007467648773726 -7.518919083986271 5.048731823988909 0.9519584074163454 3.9172837717489895 -2.6395751245297134 2.0096232487734262 -8.858405327728057 -1.259205263478755 -1.8061217529456783 3.1219932622895854 2.68871507360533 -2.988599354959538 0.7055800170052642 -0.8892327749573514 8.740971860725551 5.845309717878241 
6.152004797954099 7.972511454969162 -3.017080493444075 -0.004467190223804707 1.1553062583295173 5.974670143562076 3.6414506593237643 -9.922868983792883 2.239567392641808 -3.202086233122796 -6.943698650071079 7.756896454104194 -6.60870404530526 -6.279859828234427 -2.3001548781443226 -2.0136806654756034 -2.872062205694183 -9.037710491185821 -8.381562421364507 4.431732581650394 4.159608724590946 -6.019600161560474 -5.297270090300927 -1.5592841683896737 -8.289974615090006 -4.039617001506581 1.3095662897854954 -6.59351461586623 -7.46308426569864 -9.916236108264387 -6.932493541421183 2.426621996044915 5.853912117954593 4.497357446396215 -4.084797411150671 -7.180118419727631 -2.3348760357953813 -7.518919083986271 2.239557054082276 0.9519584074163454 3.9172837717489895 -2.6395751245297134 2.0096232487734262 -8.858405327728057 -2.8430496400294425 0.07951553120677524 6.037541177441213 8.795315742754216 2.596514103149758 0.7055800170052642 -0.8892327749573514 8.740971860725551 5.845309717878241 
1.286062246521693 7.972511454969162 4.58576203180554 -0.004467190223804707 -9.640590686994397 8.578209987290947 -7.552556081026591 -5.201515629979612 5.51167765045375 -3.202086233122796 2.024768457985777 -7.177747389827067 -6.60870404530526 1.5853879971404528 -3.043381675041841 0.9132820879895576 -2.872062205694183 -7.094588629348499 -8.381562421364507 -1.7017253842759352 -4.511964841673397 -6.019600161560474 -6.1616339714646795 -1.5592841683896737 -8.289974615090006 -4.039617001506581 1.3095662897854954 -9.02334431824434 -7.46308426569864 -2.4584425579758236 -6.932493541421183 7.294923513643763 5.853912117954593 4.497357446396215 -4.084797411150671 -8.15472258515583 -3.5401977446262167 -7.518919083986271 1.3724136861056238 0.9519584074163454 3.9172837717489895 -2.6395751245297134 -6.010533942033447 -6.9284056221372765 -3.0790707021453994 3.90251250966282 6.037541177441213 1.7106131203868244 -2.988599354959538 0.7055800170052642 6.939895198632243 2.992303195369514 -3.681898376272148 
1.286062246521693 7.972511454969162 4.58576203180554 -0.004467190223804707 -9.640590686994397 -3.897566291359375 3.6414506593237643 -9.922868983792883 2.239567392641808 -6.528862617708917 2.024768457985777 -7.177747389827067 0.7596478820858685 -6.279859828234427 -4.028230569710267 -2.0136806654756034 -2.872062205694183 -8.135119737415266 -8.381562421364507 -3.1607714483965577 -4.511964841673397 2.1941971990397064 -5.297270090300927 -5.61039648963485 -2.5147003178011973 -4.039617001506581 1.3095662897854954 -4.713996493043888 -7.46308426569864 -2.4584425579758236 -6.932493541421183 -9.672505160384894 5.853912117954593 4.497357446396215 -4.084797411150671 -7.180118419727631 -2.2346280287536713 -7.518919083986271 1.3724136861056238 0.9519584074163454 3.9172837717489895 -2.6395751245297134 -6.010533942033447 -6.9284056221372765 -1.259205263478755 -3.981314971915781 3.687789840013366 -6.826607156516387 -2.988599354959538 0.7055800170052642 -0.8892327749573514 8.740971860725551 -3.681898376272148 
1.286062246521693 9.189619691946206 4.58576203180554 -0.004467190223804707 -9.640590686994397 8.578209987290947 3.6414506593237643 -9.922868983792883 2.239567392641808 -3.677344062560037 2.024768457985777 -7.177747389827067 -6.60870404530526 -6.279859828234427 -2.3001548781443226 -2.0136806654756034 -2.872062205694183 -8.135119737415266 7.4035444685085885 -3.1607714483965577 -1.5734857478330149 2.1941971990397064 -5.297270090300927 -1.5592841683896737 -8.289974615090006 -6.9857345343179595 1.3095662897854954 -4.713996493043888 -7.46308426569864 -2.4584425579758236 -6.932493541421183 -7.607525385453999 5.853912117954593 4.497357446396215 -4.084797411150671 -1.851173729208739 -2.2346280287536713 -7.518919083986271 1.3724136861056238 0.9519584074163454 3.9172837717489895 -2.6395751245297134 -6.010533942033447 -6.9284056221372765 -1.259205263478755 -3.981314971915781 6.037541177441213 6.3721508520621875 -2.988599354959538 0.7055800170052642 -0.8892327749573514 8.740971860725551 -3.681898376272148 
1.286062246521693 7.972511454969162 4.58576203180554 -0.004467190223804707 -9.640590686994397 4.566715499209394 3.6414506593237643 -9.922868983792883 2.239567392641808 -3.677344062560037 2.024768457985777 -7.177747389827067 -6.60870404530526 -6.279859828234427 -2.3001548781443226 -2.0136806654756034 -2.872062205694183 -8.135119737415266 -8.381562421364507 -3.1607714483965577 -4.511964841673397 7.317657964080947 -5.297270090300927 -1.5592841683896737 -8.289974615090006 -4.039617001506581 8.70375586932149 -4.713996493043888 -7.46308426569864 -2.4584425579758236 -6.932493541421183 7.294923513643763 5.853912117954593 4.497357446396215 5.489906655118041 -8.716312039991587 -2.2346280287536713 -7.119793919853208 1.3724136861056238 0.9519584074163454 3.9172837717489895 -2.6395751245297134 -6.010533942033447 -6.9284056221372765 -1.259205263478755 -3.981314971915781 6.037541177441213 1.7106131203868244 -2.988599354959538 0.7055800170052642 -0.8892327749573514 8.740971860725551 -3.681898376272148 
1.286062246521693 7.972511454969162 -3.017080493444075 -0.004467190223804707 -9.640590686994397 8.578209987290947 3.6414506593237643 -9.922868983792883 2.239567392641808 -3.677344062560037 2.024768457985777 -7.177747389827067 -6.60870404530526 -6.279859828234427 -2.3001548781443226 -2.0136806654756034 -2.872062205694183 -8.135119737415266 -8.381562421364507 -3.1607714483965577 -4.511964841673397 -6.019600161560474 -9.311407243263512 -1.5592841683896737 -8.289974615090006 -4.039617001506581 1.3095662897854954 -4.713996493043888 -7.46308426569864 -9.916236108264387 -6.932493541421183 7.294923513643763 5.853912117954593 4.497357446396215 5.595085624879708 -8.15472258515583 -1.7007467648773726 -7.518919083986271 1.3724136861056238 0.9519584074163454 3.9172837717489895 0.3254355894831207 -6.010533942033447 -6.9284056221372765 -1.259205263478755 -3.981314971915781 6.037541177441213 1.7106131203868244 -2.988599354959538 -2.0074348912685576 -0.8892327749573514 8.740971860725551 -3.681898376272148 
1.286062246521693 7.972511454969162 -7.693760557795359 3.6524045052063965 -9.640590686994397 8.578209987290947 1.2948282593081153 -9.922868983792883 2.239567392641808 -3.677344062560037 2.024768457985777 -7.177747389827067 -6.60870404530526 1.5853879971404528 -2.3001548781443226 -2.0136806654756034 -2.872062205694183 5.952031807194354 -8.381562421364507 -3.1607714483965577 -4.511964841673397 2.1941971990397064 -5.297270090300927 -7.294469767530298 -8.289974615090006 -4.039617001506581 1.3095662897854954 -4.713996493043888 -7.46308426569864 -2.4584425579758236 -6.932493541421183 -2.289716787341229 5.853912117954593 4.497357446396215 6.377784477493346 -8.15472258515583 -2.2346280287536713 -7.518919083986271 5.048731823988909 3.0595446948257745 -0.6680650389196536 -2.6395751245297134 -6.010533942033447 -6.9284056221372765 -1.259205263478755 3.90251250966282 6.037541177441213 1.7106131203868244 -2.988599354959538 7.518234658863019 -0.8892327749573514 8.740971860725551 -3.681898376272148 
1.286062246521693 7.972511454969162 4.58576203180554 -0.004467190223804707 -9.640590686994397 8.578209987290947 1.2948282593081153 -9.922868983792883 2.239567392641808 -3.202086233122796 1.9252137539569443 -7.177747389827067 0.824699705867463 -6.279859828234427 -2.3001548781443226 -2.0136806654756034 -4.795978686159392 -8.135119737415266 -8.381562421364507 -3.1607714483965577 -4.511964841673397 2.1941971990397064 -5.297270090300927 -1.5592841683896737 -8.289974615090006 -4.039617001506581 1.3095662897854954 -4.713996493043888 -7.46308426569864 -2.4584425579758236 -6.932493541421183 7.294923513643763 -8.222971321166522 4.497357446396215 -4.084797411150671 -8.15472258515583 -2.3348760357953813 -7.518919083986271 1.3724136861056238 0.9519584074163454 3.9172837717489895 7.763906730896867 -6.010533942033447 -6.9284056221372765 -1.259205263478755 -3.981314971915781 6.037541177441213 1.7106131203868244 1.1312882774573456 0.7055800170052642 -0.8892327749573514 8.740971860725551 -3.681898376272148 
1.286062246521693 -6.879588283869591 4.58576203180554 5.919963026432205 -9.640590686994397 8.578209987290947 7.8631633370704 -9.922868983792883 2.239567392641808 -3.677344062560037 2.024768457985777 -7.177747389827067 -6.60870404530526 -6.279859828234427 -2.3001548781443226 -2.0136806654756034 -2.872062205694183 -8.135119737415266 -8.381562421364507 -3.1607714483965577 -4.511964841673397 2.1941971990397064 -6.1616339714646795 -1.5592841683896737 -8.289974615090006 -4.039617001506581 1.3095662897854954 -4.713996493043888 -7.46308426569864 -2.4584425579758236 -0.025033354460203938 7.1629140221235765 5.70109905979519 8.851324891345083 0.22955921891790787 -8.15472258515583 -2.3348760357953813 -7.518919083986271 5.048731823988909 0.9519584074163454 -6.932326667446851 -2.6395751245297134 -3.65301115602562 -6.9284056221372765 -1.259205263478755 -1.7526782478349272 6.037541177441213 1.7106131203868244 8.001989724361888 0.7055800170052642 -0.8892327749573514 8.740971860725551 -3.681898376272148 
1.286062246521693 7.972511454969162 4.58576203180554 -0.004467190223804707 1.249219924242741 5.974670143562076 3.6414506593237643 -9.922868983792883 2.239567392641808 -2.3964955881283796 2.024768457985777 -7.177747389827067 -6.60870404530526 -6.279859828234427 -2.3001548781443226 -4.914524662522699 -2.872062205694183 -3.778704548244571 -7.540015173974939 -3.1607714483965577 3.936229278910586 2.1941971990397064 -5.297270090300927 -1.5592841683896737 -8.289974615090006 -4.039617001506581 1.3095662897854954 -4.713996493043888 -7.46308426569864 2.095766458149246 -6.932493541421183 4.24600724272149 5.853912117954593 4.497357446396215 -4.084797411150671 -1.851173729208739 -2.2346280287536713 -7.518919083986271 1.3724136861056238 0.9519584074163454 3.9172837717489895 9.802686998885292 -6.010533942033447 -1.6548156974986394 -1.259205263478755 -3.981314971915781 6.037541177441213 1.7106131203868244 -2.988599354959538 0.7055800170052642 -0.8892327749573514 8.740971860725551 -3.681898376272148 
1.286062246521693 7.972511454969162 -4.017632982132264 -5.80265854381228 -5.917299128189919 8.578209987290947 3.6414506593237643 -9.922868983792883 2.239567392641808 3.399225859565874 -0.6086066185655774 -7.177747389827067 -1.0644045353214366 1.5853879971404528 -2.3001548781443226 0.9132820879895576 -2.872062205694183 5.952031807194354 -8.381562421364507 4.431732581650394 -4.511964841673397 -6.019600161560474 -6.1616339714646795 -1.5592841683896737 -8.289974615090006 -4.755420898085642 -3.295180499107662 -4.713996493043888 -7.46308426569864 1.435647907099609 -6.932493541421183 -2.289716787341229 5.853912117954593 -9.153506597620648 -4.084797411150671 -7.180118419727631 -2.3348760357953813 5.1605938421237045 5.048731823988909 0.9519584074163454 -8.947029829551244 -9.961316635949425 6.66427385493002 -8.858405327728057 2.8026243593512454 -1.7848983744517 7.865681243805788 2.68871507360533 -2.988599354959538 -4.574748797244197 6.939895198632243 -6.898236681650028 -3.681898376272148 
1.286062246521693 9.916711891158098 -7.693760557795359 -5.80265854381228 -5.917299128189919 8.578209987290947 1.2948282593081153 -9.922868983792883 2.239567392641808 -6.528862617708917 2.024768457985777 -7.177747389827067 0.824699705867463 1.5853879971404528 -2.3001548781443226 0.9132820879895576 -6.094178938404893 6.85970021847557 -8.381562421364507 4.431732581650394 -4.511964841673397 -6.019600161560474 -6.1616339714646795 -7.294469767530298 -8.289974615090006 -4.039617001506581 1.3095662897854954 -4.713996493043888 -7.46308426569864 -2.4584425579758236 -6.932493541421183 -2.289716787341229 5.853912117954593 -2.232008620747374 -4.084797411150671 -7.180118419727631 -2.3348760357953813 5.1605938421237045 1.4378707934759145 8.64558757176789 1.265265205236778 -5.284794248227669 6.66427385493002 7.86298061385741 -3.0790707021453994 3.90251250966282 7.865681243805788 2.68871507360533 -2.988599354959538 0.7055800170052642 -0.8892327749573514 8.740971860725551 -3.681898376272148 
1.286062246521693 7.972511454969162 -3.838928080543047 -5.80265854381228 3.2815642901539572 8.578209987290947 1.2948282593081153 -9.922868983792883 2.239567392641808 -3.202086233122796 -0.6086066185655774 -7.177747389827067 -6.60870404530526 -6.279859828234427 -2.3001548781443226 0.9132820879895576 -2.872062205694183 5.952031807194354 -8.381562421364507 4.431732581650394 -4.511964841673397 -1.0357365327962587 -6.1616339714646795 -1.5592841683896737 -8.289974615090006 -4.039617001506581 -3.295180499107662 -4.713996493043888 -7.46308426569864 -2.4584425579758236 -6.932493541421183 2.426621996044915 5.853912117954593 -2.232008620747374 -4.084797411150671 -7.180118419727631 1.864107995312283 -7.518919083986271 5.048731823988909 6.68696769414829 -8.947029829551244 -9.961316635949425 6.66427385493002 7.86298061385741 -3.0790707021453994 3.90251250966282 7.883423863138685 1.7106131203868244 -2.988599354959538 -4.574748797244197 -0.8892327749573514 -6.898236681650028 -3.681898376272148 
1.286062246521693 7.972511454969162 -7.693760557795359 5.247135232172601 -5.917299128189919 4.7444006477131 1.2948282593081153 -9.922868983792883 2.239567392641808 -3.202086233122796 -4.8687336292655665 -7.177747389827067 0.824699705867463 1.5853879971404528 -2.3001548781443226 0.9132820879895576 -2.872062205694183 5.952031807194354 -8.381562421364507 4.431732581650394 6.785767269023456 -6.019600161560474 -6.1616339714646795 -7.294469767530298 -8.289974615090006 -4.039617001506581 -3.295180499107662 -4.713996493043888 -7.46308426569864 -2.4584425579758236 -6.932493541421183 -2.289716787341229 5.853912117954593 -2.232008620747374 -4.084797411150671 -7.180118419727631 -8.26531786588216 -7.119793919853208 5.048731823988909 8.64558757176789 3.3576517663839844 -9.961316635949425 6.66427385493002 7.86298061385741 3.0424163882894604 3.90251250966282 7.865681243805788 -1.1092345525274165 2.754168681370386 -4.574748797244197 6.939895198632243 8.740971860725551 -3.681898376272148 
1.286062246521693 7.972511454969162 -7.693760557795359 -0.004467190223804707 1.1553062583295173 8.578209987290947 -2.0645873034539663 -9.922868983792883 2.239567392641808 -3.202086233122796 -0.6086066185655774 -7.177747389827067 0.824699705867463 -5.840667655847199 -2.3001548781443226 0.9132820879895576 -9.50154166705536 5.952031807194354 9.130503352116623 4.431732581650394 -4.511964841673397 -6.019600161560474 -5.297270090300927 -9.157642212497702 -8.289974615090006 -4.039617001506581 -2.235651424352241 -4.713996493043888 -7.46308426569864 -9.916236108264387 -6.932493541421183 -2.289716787341229 5.853912117954593 -2.232008620747374 -4.084797411150671 -7.180118419727631 -2.3348760357953813 5.1605938421237045 5.048731823988909 8.64558757176789 1.1722372493497488 -9.961316635949425 6.66427385493002 7.86298061385741 -3.0790707021453994 3.90251250966282 7.865681243805788 8.795315742754216 -2.988599354959538 -4.574748797244197 6.939895198632243 -6.898236681650028 5.845309717878241 
1.286062246521693 7.972511454969162 -7.693760557795359 -5.80265854381228 -9.640590686994397 8.578209987290947 1.2948282593081153 -9.922868983792883 2.239567392641808 -3.202086233122796 2.024768457985777 -7.177747389827067 0.824699705867463 -6.279859828234427 -2.3001548781443226 0.9132820879895576 -2.872062205694183 -8.135119737415266 -1.0288636314433592 -3.1607714483965577 -4.511964841673397 2.1941971990397064 -6.1616339714646795 -7.294469767530298 -8.289974615090006 -4.039617001506581 1.3095662897854954 -4.713996493043888 -7.46308426569864 -2.4584425579758236 -6.932493541421183 6.252885459434122 1.0301822466257367 -2.232008620747374 -4.084797411150671 -8.15472258515583 -2.2346280287536713 5.1605938421237045 5.048731823988909 8.64558757176789 -8.947029829551244 -9.961316635949425 2.1535191083194647 7.86298061385741 -3.0790707021453994 3.90251250966282 7.865681243805788 1.7106131203868244 -2.988599354959538 0.7055800170052642 7.3192393669719245 -6.898236681650028 -3.681898376272148 
1.286062246521693 7.972511454969162 -7.693760557795359 -5.80265854381228 8.220058782008191 8.578209987290947 1.2948282593081153 -9.922868983792883 -4.248298897819797 -3.202086233122796 -3.178309889754569 0.3466689508724148 0.824699705867463 -6.279859828234427 -2.3001548781443226 0.9132820879895576 -2.872062205694183 5.952031807194354 -8.381562421364507 4.431732581650394 -4.511964841673397 1.5113615669240836 -6.1616339714646795 -7.294469767530298 -8.289974615090006 -4.039617001506581 1.3095662897854954 -4.713996493043888 -7.46308426569864 -2.4584425579758236 -6.932493541421183 -2.289716787341229 -8.222971321166522 -2.232008620747374 -4.084797411150671 -7.180118419727631 -2.3348760357953813 5.1605938421237045 5.048731823988909 -9.7765290102951 3.9172837717489895 -9.961316635949425 6.66427385493002 -1.0734700707572955 -3.0790707021453994 3.90251250966282 7.865681243805788 2.68871507360533 -2.988599354959538 -4.574748797244197 6.939895198632243 -6.898236681650028 -3.681898376272148 
1.286062246521693 7.972511454969162 -7.693760557795359 -5.80265854381228 -5.917299128189919 8.578209987290947 1.2948282593081153 -9.922868983792883 2.239567392641808 -3.202086233122796 -0.6086066185655774 -7.177747389827067 0.824699705867463 1.5853879971404528 -2.3001548781443226 0.9132820879895576 -2.872062205694183 -8.135119737415266 -8.381562421364507 4.431732581650394 -4.511964841673397 -6.019600161560474 -6.1616339714646795 -7.294469767530298 -8.289974615090006 -4.039617001506581 -3.295180499107662 -4.713996493043888 7.412846152694939 -2.4584425579758236 -6.932493541421183 -2.289716787341229 5.853912117954593 -2.232008620747374 -4.084797411150671 -7.180118419727631 -2.3348760357953813 3.7062560901559234 5.048731823988909 8.64558757176789 -8.947029829551244 -9.961316635949425 6.513320101614365 -8.858405327728057 -3.0790707021453994 3.90251250966282 7.865681243805788 2.68871507360533 -2.988599354959538 -4.574748797244197 6.939895198632243 -6.898236681650028 -7.218836577469913 
9.000289316014541 7.972511454969162 -7.693760557795359 -5.80265854381228 -5.917299128189919 8.578209987290947 1.2948282593081153 -9.922868983792883 2.239567392641808 -2.3964955881283796 -0.6086066185655774 -7.177747389827067 0.824699705867463 5.178623958925915 0.8841634346258349 0.9132820879895576 -2.872062205694183 -4.810318310253654 -8.381562421364507 4.431732581650394 -4.511964841673397 -6.019600161560474 -3.323903773843746 -7.294469767530298 -8.289974615090006 -4.039617001506581 -3.295180499107662 -4.713996493043888 -7.46308426569864 4.192189982412334 -6.932493541421183 -2.289716787341229 5.853912117954593 5.156397911749078 -4.084797411150671 -7.180118419727631 -2.3348760357953813 5.1605938421237045 5.048731823988909 8.64558757176789 -8.947029829551244 0.41807081638887134 6.66427385493002 7.86298061385741 -3.0790707021453994 -8.717044133408134 7.865681243805788 2.68871507360533 -2.988599354959538 -4.574748797244197 -5.1340978204388215 -6.898236681650028 -3.681898376272148 
1.286062246521693 7.972511454969162 1.0252445632135103 -5.80265854381228 -6.503627648033734 -3.897566291359375 1.2948282593081153 -9.922868983792883 2.239567392641808 -3.202086233122796 -8.430279344164486 -7.177747389827067 0.824699705867463 -6.279859828234427 -2.3001548781443226 0.9132820879895576 0.8711318498242182 -8.135119737415266 -8.381562421364507 4.431732581650394 -3.0505582512392238 -6.019600161560474 -6.1616339714646795 2.943203037283995 -8.289974615090006 -4.039617001506581 -3.295180499107662 -9.02334431824434 -7.46308426569864 -3.1753710258425194 -6.932493541421183 -2.289716787341229 5.853912117954593 -2.232008620747374 -4.084797411150671 -7.180118419727631 -2.3348760357953813 5.1605938421237045 5.048731823988909 0.9519584074163454 3.9172837717489895 -2.6395751245297134 6.66427385493002 -5.226422371807702 -6.592662007475541 3.90251250966282 8.145541011981376 -3.150396952499907 -2.988599354959538 -4.574748797244197 5.809699688016284 8.740971860725551 -3.681898376272148 
1.286062246521693 7.972511454969162 8.893348171616346 8.1206055529691 -5.917299128189919 -3.897566291359375 1.2948282593081153 -9.922868983792883 2.239567392641808 -3.202086233122796 1.0374790944918448 -7.177747389827067 0.824699705867463 0.9171207657327063 -2.3001548781443226 0.9132820879895576 -2.872062205694183 4.58757481622113 -8.381562421364507 4.760954375775961 -4.511964841673397 -1.5147218538571554 -6.1616339714646795 -1.5592841683896737 -8.289974615090006 -4.039617001506581 -2.0078202191862076 -9.02334431824434 -7.46308426569864 -2.4584425579758236 -6.932493541421183 -1.1147339073863076 -8.222971321166522 -2.232008620747374 -4.084797411150671 -7.180118419727631 -2.3348760357953813 5.1605938421237045 5.048731823988909 0.9519584074163454 3.9172837717489895 -2.6395751245297134 6.66427385493002 -8.858405327728057 3.6647159617371017 3.90251250966282 8.145541011981376 -6.826607156516387 -3.7296297891154033 -4.574748797244197 -0.8892327749573514 -6.898236681650028 -3.681898376272148 
1.286062246521693 7.972511454969162 1.0252445632135103 -5.80265854381228 -2.2865924873114203 -3.897566291359375 3.6414506593237643 -9.922868983792883 2.239567392641808 -3.677344062560037 -8.430279344164486 2.992782274794763 -6.60870404530526 -6.279859828234427 -2.3001548781443226 -2.0136806654756034 -2.872062205694183 -8.135119737415266 -8.381562421364507 4.760954375775961 -4.511964841673397 -6.019600161560474 -5.297270090300927 -1.5592841683896737 -8.289974615090006 -0.7252192314063066 1.3095662897854954 -9.02334431824434 -7.46308426569864 -9.954918361872139 -6.9482781301918495 -1.1147339073863076 -8.222971321166522 -7.059715080055882 -4.084797411150671 -7.180118419727631 1.864107995312283 5.1605938421237045 5.048731823988909 0.9519584074163454 3.9172837717489895 -2.6395751245297134 8.143349164935547 -8.858405327728057 -3.0790707021453994 3.90251250966282 8.145541011981376 -3.150396952499907 -2.988599354959538 -4.574748797244197 5.809699688016284 8.314644432829365 -3.681898376272148 
1.286062246521693 7.972511454969162 -3.017080493444075 6.248657454008757 8.220058782008191 -3.897566291359375 3.6414506593237643 -9.922868983792883 2.239567392641808 -3.202086233122796 -8.430279344164486 -7.177747389827067 0.824699705867463 -1.2720392490216152 -2.3001548781443226 0.9132820879895576 -2.872062205694183 -8.135119737415266 -8.381562421364507 -3.3482295956234047 9.819903676619202 -6.019600161560474 -6.1616339714646795 -1.5592841683896737 -8.289974615090006 -4.039617001506581 1.3095662897854954 -4.713996493043888 -7.46308426569864 -5.905668193745546 -6.932493541421183 -1.1147339073863076 -0.5906719160945606 4.497357446396215 1.7231461928180298 6.864403281586878 -2.3348760357953813 -7.119793919853208 5.048731823988909 8.64558757176789 3.9172837717489895 -2.6395751245297134 6.66427385493002 -8.858405327728057 -3.0790707021453994 3.90251250966282 6.037541177441213 -3.150396952499907 -2.988599354959538 -4.574748797244197 5.809699688016284 8.740971860725551 -3.681898376272148 
1.286062246521693 7.972511454969162 1.0252445632135103 -5.80265854381228 8.220058782008191 -3.897566291359375 1.2948282593081153 6.736281012186037 2.239567392641808 -3.202086233122796 -8.430279344164486 -7.177747389827067 0.824699705867463 -6.279859828234427 -2.3001548781443226 0.1491027229476991 -2.872062205694183 -8.135119737415266 -8.381562421364507 4.431732581650394 -4.511964841673397 -1.5147218538571554 -6.1616339714646795 -1.5592841683896737 -8.289974615090006 9.608088966990952 1.3095662897854954 -4.713996493043888 -7.46308426569864 -2.4584425579758236 -6.932493541421183 -1.1147339073863076 -8.222971321166522 -2.232008620747374 -4.084797411150671 -7.180118419727631 -1.7007467648773726 5.1605938421237045 2.239557054082276 8.64558757176789 3.9172837717489895 -2.6395751245297134 6.66427385493002 -8.858405327728057 -3.0790707021453994 3.90251250966282 6.037541177441213 -3.150396952499907 -2.988599354959538 -4.574748797244197 0.017236144051263835 -6.898236681650028 -3.681898376272148 
1.286062246521693 7.972511454969162 1.7686299919393527 -0.004467190223804707 -9.640590686994397 8.578209987290947 1.2948282593081153 -9.922868983792883 -4.177398388790483 -3.202086233122796 -8.430279344164486 -7.177747389827067 0.824699705867463 -6.279859828234427 -2.3001548781443226 -2.0136806654756034 9.330023573428356 -8.135119737415266 -0.5059320942388528 -0.7722892804325188 -4.511964841673397 -1.5147218538571554 -6.1616339714646795 -1.5592841683896737 -8.289974615090006 -4.039617001506581 1.3095662897854954 -9.02334431824434 -7.46308426569864 -2.4584425579758236 -6.932493541421183 2.9268786002454323 -8.222971321166522 -2.232008620747374 -4.084797411150671 -8.15472258515583 -2.3348760357953813 5.1605938421237045 1.3724136861056238 8.64558757176789 3.9172837717489895 -2.6395751245297134 6.66427385493002 -6.9284056221372765 5.822236934449581 3.90251250966282 6.037541177441213 -3.150396952499907 -2.988599354959538 -4.574748797244197 -0.8892327749573514 -6.898236681650028 -3.681898376272148 
2.6616138124546076 7.972511454969162 -7.693760557795359 -5.80265854381228 8.220058782008191 -3.897566291359375 1.2948282593081153 -9.922868983792883 2.239567392641808 -3.202086233122796 -8.430279344164486 4.335169902264781 0.824699705867463 -6.279859828234427 -2.3001548781443226 0.9132820879895576 -1.9378927341162857 5.952031807194354 -8.381562421364507 4.760954375775961 -4.511964841673397 -1.5147218538571554 -6.1616339714646795 -1.5592841683896737 -8.289974615090006 9.6585976285775 1.3095662897854954 -9.02334431824434 -7.46308426569864 -2.4584425579758236 -6.932493541421183 -2.289716787341229 5.853912117954593 -2.232008620747374 -4.084797411150671 -7.180118419727631 -2.3348760357953813 -8.000134991839772 5.048731823988909 8.64558757176789 3.9172837717489895 -2.6395751245297134 6.66427385493002 -8.858405327728057 -3.0790707021453994 3.90251250966282 8.145541011981376 -3.150396952499907 -2.988599354959538 -6.584472447547068 -2.357787565562422 -6.898236681650028 -3.681898376272148 
1.286062246521693 7.972511454969162 1.0252445632135103 -5.80265854381228 8.220058782008191 -1.4495624785387697 1.2948282593081153 -9.922868983792883 2.239567392641808 -3.202086233122796 -8.430279344164486 -7.177747389827067 0.824699705867463 -6.279859828234427 -2.3001548781443226 0.9132820879895576 -2.872062205694183 -8.135119737415266 -8.381562421364507 4.760954375775961 -4.511964841673397 -1.5147218538571554 -6.1616339714646795 -1.5592841683896737 -8.289974615090006 -4.039617001506581 1.3095662897854954 -9.02334431824434 -7.46308426569864 -2.4584425579758236 -6.932493541421183 -2.289716787341229 -8.222971321166522 -2.232008620747374 -4.084797411150671 -7.180118419727631 -2.3348760357953813 5.1605938421237045 5.048731823988909 8.64558757176789 3.9172837717489895 -2.6395751245297134 6.66427385493002 -8.858405327728057 -3.0790707021453994 -8.253972430585641 8.145541011981376 7.943289363162155 -2.988599354959538 -4.574748797244197 5.809699688016284 -6.898236681650028 -3.681898376272148 
8.628574417151786 7.972511454969162 1.0252445632135103 -5.80265854381228 8.220058782008191 -3.897566291359375 1.2948282593081153 -9.922868983792883 2.239567392641808 -2.3964955881283796 -8.430279344164486 -7.177747389827067 -1.0644045353214366 -6.279859828234427 -2.3001548781443226 0.9132820879895576 -2.872062205694183 -8.135119737415266 -8.381562421364507 4.760954375775961 -4.511964841673397 -1.5147218538571554 -6.1616339714646795 3.204708848549501 -8.289974615090006 -4.039617001506581 1.3095662897854954 -9.02334431824434 -5.0217520675063065 -2.4584425579758236 -6.932493541421183 2.426621996044915 -8.222971321166522 -2.232008620747374 -4.084797411150671 -7.180118419727631 -2.3348760357953813 -2.039359307493733 5.048731823988909 8.64558757176789 3.9172837717489895 -2.6395751245297134 6.840592979254787 -8.858405327728057 -0.9754138471970712 3.90251250966282 -3.7314594839037873 -3.150396952499907 -2.988599354959538 -7.5697827670635025 5.809699688016284 -6.898236681650028 7.514079845976564 
1.286062246521693 3.5766665542994893 5.652860172680256 -5.80265854381228 -5.917299128189919 -3.897566291359375 1.2948282593081153 -9.922868983792883 2.239567392641808 -3.202086233122796 -8.594564517013763 -7.177747389827067 0.824699705867463 -6.279859828234427 -2.3001548781443226 0.9132820879895576 -2.872062205694183 -7.094588629348499 -8.381562421364507 4.431732581650394 -4.511964841673397 2.1941971990397064 -6.1616339714646795 -1.5592841683896737 -8.289974615090006 -4.039617001506581 -3.295180499107662 -9.02334431824434 -7.46308426569864 1.435647907099609 -0.025033354460203938 -2.289716787341229 5.70109905979519 -2.232008620747374 -2.9611429406765133 -7.180118419727631 -2.3348760357953813 5.1605938421237045 5.048731823988909 8.64558757176789 -8.947029829551244 0.2650398595181809 6.66427385493002 -8.858405327728057 -3.0790707021453994 2.412572402179542 8.145541011981376 2.68871507360533 -2.988599354959538 1.6738256004007006 0.20628470495550388 8.314644432829365 -3.681898376272148 
1.286062246521693 7.972511454969162 -1.2942059635721428 -5.80265854381228 -5.917299128189919 0.8462694860785085 1.2948282593081153 -9.922868983792883 2.239567392641808 -6.528862617708917 2.024768457985777 -7.177747389827067 -0.16190636588963692 -8.778189253984525 -2.3001548781443226 0.9132820879895576 -4.963735014572994 -8.135119737415266 -8.381562421364507 6.856528498225728 -4.511964841673397 -6.019600161560474 -5.297270090300927 -1.5592841683896737 9.721103835896585 -4.039617001506581 1.3095662897854954 -9.02334431824434 -7.46308426569864 -2.4584425579758236 -0.025033354460203938 -2.289716787341229 5.853912117954593 4.497357446396215 -3.4468609173912457 -7.180118419727631 -2.3348760357953813 5.1605938421237045 5.048731823988909 8.64558757176789 -8.947029829551244 0.2650398595181809 6.66427385493002 -3.605127730688185 -1.259205263478755 -3.981314971915781 6.037541177441213 1.3095808362268517 -2.988599354959538 -4.574748797244197 6.231057955342514 8.314644432829365 -3.681898376272148 
1.286062246521693 7.972511454969162 -3.838928080543047 -5.80265854381228 8.220058782008191 -3.897566291359375 1.2948282593081153 -9.922868983792883 2.239567392641808 -3.202086233122796 -0.6086066185655774 -7.177747389827067 -6.60870404530526 8.523189100767322 -2.3001548781443226 0.9132820879895576 -2.872062205694183 -8.135119737415266 -8.381562421364507 6.856528498225728 -4.511964841673397 2.1941971990397064 -6.1616339714646795 -1.5592841683896737 -8.289974615090006 -8.05572794902966 -3.295180499107662 -4.713996493043888 -7.46308426569864 -2.4584425579758236 -6.9482781301918495 2.426621996044915 5.70109905979519 4.497357446396215 -3.4468609173912457 -1.851173729208739 8.741513341797784 5.1605938421237045 1.3724136861056238 9.978190892674458 -5.8520209140908275 0.2650398595181809 6.66427385493002 -8.858405327728057 -3.0790707021453994 -2.7912728206165287 6.037541177441213 2.68871507360533 -2.988599354959538 -4.574748797244197 6.939895198632243 8.314644432829365 -3.681898376272148 
1.286062246521693 7.972511454969162 5.652860172680256 -5.80265854381228 8.220058782008191 -3.897566291359375 1.2948282593081153 4.204113747606256 2.239567392641808 -3.202086233122796 -0.6086066185655774 -7.177747389827067 0.824699705867463 -6.279859828234427 2.3307730874040615 4.667336614277001 -2.872062205694183 -8.135119737415266 -8.381562421364507 6.856528498225728 7.620833019743188 2.1941971990397064 -6.1616339714646795 -1.5592841683896737 -8.289974615090006 -4.039617001506581 -3.295180499107662 -9.02334431824434 -7.46308426569864 -2.4584425579758236 -0.025033354460203938 -2.289716787341229 5.70109905979519 4.497357446396215 -6.217777520146046 -7.180118419727631 -2.3348760357953813 5.1605938421237045 5.048731823988909 8.64558757176789 -8.947029829551244 -2.6395751245297134 -6.010533942033447 -8.858405327728057 -3.0790707021453994 -2.7912728206165287 8.145541011981376 2.68871507360533 -2.988599354959538 -4.574748797244197 3.974547090993088 8.314644432829365 5.845309717878241 
1.286062246521693 8.312417623814117 5.652860172680256 -0.004467190223804707 8.220058782008191 -3.897566291359375 3.6414506593237643 -9.922868983792883 2.239567392641808 -3.202086233122796 -0.6086066185655774 1.5489712627068446 -6.60870404530526 -6.279859828234427 -2.3001548781443226 0.9132820879895576 -2.872062205694183 -8.135119737415266 -8.381562421364507 6.856528498225728 -4.511964841673397 2.1941971990397064 -6.1616339714646795 -1.5592841683896737 -8.289974615090006 2.0300067805153503 -3.295180499107662 -9.02334431824434 -7.46308426569864 -2.4584425579758236 -0.025033354460203938 -2.289716787341229 5.70109905979519 6.196977903987083 -4.084797411150671 -7.180118419727631 -2.3348760357953813 -7.518919083986271 -3.4979541285085674 8.64558757176789 -8.947029829551244 0.2650398595181809 2.0096232487734262 7.664581724918541 -1.259205263478755 -2.7912728206165287 8.145541011981376 1.2096874333941479 -2.988599354959538 -4.574748797244197 6.939895198632243 8.314644432829365 -3.681898376272148 
1.286062246521693 7.972511454969162 5.652860172680256 -5.80265854381228 5.1007933715337135 -3.897566291359375 3.6414506593237643 -9.922868983792883 2.239567392641808 -9.667577855464554 -0.6086066185655774 -7.177747389827067 0.824699705867463 -6.279859828234427 -2.3001548781443226 0.9132820879895576 -2.872062205694183 -8.135119737415266 -8.381562421364507 6.856528498225728 -4.511964841673397 2.1941971990397064 -6.1616339714646795 -1.5592841683896737 -8.289974615090006 -4.039617001506581 1.3095662897854954 -9.02334431824434 -7.46308426569864 -2.4584425579758236 -0.025033354460203938 -2.289716787341229 5.853912117954593 4.497357446396215 -3.4468609173912457 -7.180118419727631 -2.3348760357953813 -7.518919083986271 1.3724136861056238 0.9519584074163454 -8.947029829551244 0.2650398595181809 6.66427385493002 -8.858405327728057 -1.259205263478755 -2.7912728206165287 8.145541011981376 2.68871507360533 -2.988599354959538 -4.574748797244197 -0.8892327749573514 8.314644432829365 -3.681898376272148 
1.286062246521693 6.348058762553627 -7.693760557795359 -5.80265854381228 -2.6735460997516665 -3.897566291359375 1.2948282593081153 -9.922868983792883 2.239567392641808 -3.202086233122796 -3.8990406595518845 -7.177747389827067 0.824699705867463 -6.279859828234427 -2.3001548781443226 0.9132820879895576 -2.872062205694183 -8.135119737415266 -8.381562421364507 4.431732581650394 -4.511964841673397 -6.019600161560474 -6.1616339714646795 -1.5592841683896737 -8.289974615090006 -4.039617001506581 -3.295180499107662 -9.337720210450396 -7.46308426569864 -2.4584425579758236 -6.932493541421183 -2.289716787341229 5.70109905979519 -2.232008620747374 -3.4468609173912457 -7.180118419727631 -2.3348760357953813 5.1605938421237045 5.048731823988909 8.64558757176789 -8.947029829551244 -9.961316635949425 6.66427385493002 -8.858405327728057 -3.0790707021453994 -2.7912728206165287 8.145541011981376 2.68871507360533 -2.988599354959538 -4.574748797244197 6.939895198632243 -6.898236681650028 -3.681898376272148 
-9.204425979177984 7.972511454969162 1.0252445632135103 -5.80265854381228 8.220058782008191 -3.897566291359375 1.2948282593081153 -9.922868983792883 2.239567392641808 -3.202086233122796 -0.6086066185655774 0.7102104021343276 0.824699705867463 -6.279859828234427 -2.3001548781443226 0.9132820879895576 -2.872062205694183 -6.703941023293398 -8.381562421364507 6.856528498225728 -4.511964841673397 2.1941971990397064 -6.1616339714646795 -1.5592841683896737 -8.289974615090006 -4.039617001506581 -3.295180499107662 -9.02334431824434 -7.46308426569864 -2.4584425579758236 -0.025033354460203938 9.521042140757398 3.245207964548932 -2.232008620747374 5.277899367622075 -7.180118419727631 -2.437906363176852 5.1605938421237045 5.1475818233101975 2.2986061653502112 -8.947029829551244 0.2650398595181809 6.66427385493002 -8.858405327728057 4.470339561512821 3.9992878902884037 8.145541011981376 2.68871507360533 -2.988599354959538 -4.574748797244197 6.939895198632243 -6.898236681650028 -3.681898376272148 
-9.635687533131712 7.972511454969162 6.857005522058838 -5.80265854381228 8.220058782008191 -3.897566291359375 1.2948282593081153 -9.922868983792883 2.239567392641808 -3.202086233122796 -0.6086066185655774 -7.177747389827067 0.824699705867463 -6.279859828234427 3.3094125457926253 0.9132820879895576 -2.872062205694183 -8.135119737415266 -8.381562421364507 6.856528498225728 -1.2221070192493357 -4.530112760396121 -2.0833612132560697 -1.5592841683896737 0.48413443385211075 -4.039617001506581 -3.295180499107662 -9.02334431824434 -7.46308426569864 -2.4584425579758236 -4.3918351638611615 -2.289716787341229 5.853912117954593 -2.232008620747374 -3.4468609173912457 -7.180118419727631 -2.3348760357953813 -7.518919083986271 5.048731823988909 0.9519584074163454 -8.947029829551244 -6.630535540766179 6.66427385493002 -8.858405327728057 -0.9754138471970712 -2.7912728206165287 8.145541011981376 2.68871507360533 -2.988599354959538 -4.574748797244197 6.939895198632243 8.314644432829365 -3.681898376272148 
8.628574417151786 7.972511454969162 5.652860172680256 -0.004467190223804707 8.220058782008191 5.974670143562076 3.6414506593237643 -9.922868983792883 2.239567392641808 -2.3964955881283796 -0.6086066185655774 -7.177747389827067 -1.0644045353214366 -6.279859828234427 9.806912866182326 0.9132820879895576 -2.872062205694183 -3.778704548244571 -8.381562421364507 4.431732581650394 -4.511964841673397 1.7239779174822196 -5.297270090300927 7.053786149267399 -3.8256150041435433 -4.4986852736004295 1.3095662897854954 -6.59351461586623 -7.46308426569864 -2.4584425579758236 7.009364324756554 2.426621996044915 5.853912117954593 5.156397911749078 7.299282422872942 -1.851173729208739 -2.3348760357953813 -7.518919083986271 5.048731823988909 0.9519584074163454 3.9172837717489895 -2.6395751245297134 -6.010533942033447 2.156922812302394 -3.0790707021453994 3.90251250966282 -3.7314594839037873 8.992600108888706 2.596514103149758 6.911875593199447 -5.1340978204388215 8.314644432829365 4.854725219197551 
1.286062246521693 7.972511454969162 -4.126217393632723 -0.004467190223804707 -5.917299128189919 5.974670143562076 3.6414506593237643 -9.922868983792883 2.239567392641808 -6.528862617708917 -0.6086066185655774 5.652602085451699 -6.60870404530526 -6.279859828234427 3.3094125457926253 0.9132820879895576 -2.872062205694183 -3.778704548244571 -8.381562421364507 4.431732581650394 -2.6507352518682463 -6.019600161560474 -5.297270090300927 -1.5592841683896737 0.48413443385211075 -4.039617001506581 1.3095662897854954 -6.59351461586623 -7.46308426569864 -3.0061612649418183 -6.528472886319044 2.426621996044915 5.853912117954593 4.497357446396215 7.299282422872942 -1.851173729208739 -2.3348760357953813 -7.518919083986271 5.048731823988909 0.9519584074163454 3.9172837717489895 -2.6395751245297134 -6.010533942033447 -8.858405327728057 -0.9754138471970712 0.07951553120677524 -3.7314594839037873 -6.826607156516387 2.596514103149758 -7.5697827670635025 -5.1340978204388215 8.314644432829365 4.854725219197551 
8.628574417151786 7.972511454969162 0.4694237261540035 -0.004467190223804707 8.220058782008191 5.974670143562076 3.6414506593237643 -9.922868983792883 2.239567392641808 -2.3964955881283796 -0.6086066185655774 -7.177747389827067 -1.0644045353214366 -6.279859828234427 3.3094125457926253 0.9132820879895576 -2.872062205694183 -3.778704548244571 -8.381562421364507 4.431732581650394 -2.6507352518682463 -6.019600161560474 -5.297270090300927 4.1697175640749435 0.48413443385211075 -4.4986852736004295 -8.781575313158394 -6.59351461586623 -7.46308426569864 -2.4584425579758236 -6.932493541421183 2.426621996044915 5.853912117954593 5.156397911749078 7.299282422872942 -1.851173729208739 -2.3348760357953813 -7.518919083986271 5.048731823988909 0.9519584074163454 3.9172837717489895 -2.6395751245297134 -6.010533942033447 -8.858405327728057 -0.9754138471970712 -3.981314971915781 -3.7314594839037873 8.992600108888706 2.596514103149758 -7.5697827670635025 -0.8892327749573514 -5.010803932955589 4.854725219197551 
8.628574417151786 7.972511454969162 5.652860172680256 -0.004467190223804707 8.220058782008191 5.974670143562076 3.6414506593237643 -9.922868983792883 2.239567392641808 -2.3964955881283796 -0.6086066185655774 -7.177747389827067 -6.60870404530526 -6.279859828234427 3.3094125457926253 0.9132820879895576 -2.872062205694183 -3.778704548244571 5.558470354252519 4.431732581650394 -2.6507352518682463 -6.019600161560474 -5.297270090300927 -1.5592841683896737 0.48413443385211075 -4.4986852736004295 -1.764117324252851 -6.59351461586623 -7.46308426569864 -2.4584425579758236 -6.932493541421183 -3.1334155658968132 5.853912117954593 4.497357446396215 -6.653206985559139 -1.851173729208739 -2.3348760357953813 -7.119793919853208 5.048731823988909 0.9519584074163454 3.9172837717489895 -2.6395751245297134 -9.166213195000331 -8.858405327728057 2.733130001524266 -3.981314971915781 6.037541177441213 8.992600108888706 -6.156448392015976 -7.5697827670635025 -5.1340978204388215 8.314644432829365 -1.6066462549279592 
8.628574417151786 7.972511454969162 -3.017080493444075 -0.004467190223804707 8.220058782008191 5.974670143562076 3.6414506593237643 6.546508457153081 2.239567392641808 -5.255859481356753 -0.6086066185655774 -7.177747389827067 -6.60870404530526 -6.279859828234427 3.3094125457926253 6.772451648091806 -8.571677529565049 -8.135119737415266 -8.381562421364507 4.431732581650394 -2.6507352518682463 -6.019600161560474 -5.297270090300927 -1.5592841683896737 0.48413443385211075 1.6318265831874363 -3.0797368179641316 -6.59351461586623 -6.581036721088882 -2.4584425579758236 -6.932493541421183 2.426621996044915 5.853912117954593 -0.6977765994860601 7.299282422872942 8.206783627127251 -2.3348760357953813 -8.23852308527685 -9.32021424066263 0.9519584074163454 3.9172837717489895 -2.6395751245297134 -9.478961590987833 -8.858405327728057 -0.9754138471970712 -3.6537612683205705 6.037541177441213 8.795315742754216 -2.988599354959538 -7.5697827670635025 -5.1340978204388215 8.314644432829365 4.854725219197551 
8.628574417151786 7.972511454969162 4.58576203180554 -0.004467190223804707 -9.640590686994397 5.974670143562076 3.6414506593237643 -9.922868983792883 2.239567392641808 -2.3964955881283796 -0.6086066185655774 -7.177747389827067 -1.0644045353214366 -6.279859828234427 3.3094125457926253 0.9132820879895576 -2.872062205694183 -3.778704548244571 -8.381562421364507 2.6072056943765336 -4.511964841673397 -6.019600161560474 -5.297270090300927 1.4480947335881584 0.48413443385211075 -4.4986852736004295 -6.339820244705789 -4.713996493043888 -7.46308426569864 -2.4584425579758236 -6.932493541421183 2.426621996044915 5.853912117954593 5.156397911749078 7.299282422872942 -1.851173729208739 -2.3348760357953813 -7.518919083986271 5.048731823988909 0.9519584074163454 3.9172837717489895 -2.6395751245297134 6.50898165493426 -8.858405327728057 2.1459659759912064 -3.981314971915781 6.037541177441213 8.992600108888706 2.596514103149758 0.7055800170052642 -5.1340978204388215 8.740971860725551 4.854725219197551 
1.286062246521693 7.972511454969162 5.652860172680256 -0.004467190223804707 8.220058782008191 5.974670143562076 3.6414506593237643 -9.922868983792883 5.142738105202977 -3.202086233122796 -0.6086066185655774 -7.177747389827067 -1.0644045353214366 -3.986390023141313 3.3094125457926253 0.9132820879895576 -2.872062205694183 -3.778704548244571 -8.381562421364507 4.431732581650394 -2.6507352518682463 -6.019600161560474 -5.297270090300927 -1.5592841683896737 0.48413443385211075 -4.039617001506581 1.3095662897854954 -4.713996493043888 -7.46308426569864 -2.4584425579758236 -6.932493541421183 -2.289716787341229 5.853912117954593 5.156397911749078 7.299282422872942 -1.851173729208739 -2.3348760357953813 -7.518919083986271 5.048731823988909 8.64558757176789 -8.947029829551244 -2.6395751245297134 -6.010533942033447 -8.858405327728057 -0.9754138471970712 -8.77609532039241 7.865681243805788 8.992600108888706 2.596514103149758 -7.5697827670635025 -5.1340978204388215 8.314644432829365 4.854725219197551 
8.628574417151786 7.972511454969162 5.652860172680256 -5.80265854381228 8.220058782008191 9.731906837838128 3.6414506593237643 -9.922868983792883 3.541958757594191 -2.3964955881283796 -8.430279344164486 -7.177747389827067 -1.0644045353214366 0.4849380077477399 3.3094125457926253 0.9132820879895576 -2.872062205694183 -3.778704548244571 -8.381562421364507 4.431732581650394 -2.6507352518682463 -6.019600161560474 6.511016778307074 -1.5592841683896737 0.48413443385211075 -4.4986852736004295 1.3095662897854954 -9.02334431824434 -7.46308426569864 -2.4584425579758236 -6.932493541421183 2.426621996044915 -8.222971321166522 -2.232008620747374 -4.084797411150671 -9.531805160445222 -2.3348760357953813 5.1605938421237045 5.048731823988909 0.9519584074163454 3.9172837717489895 -2.6395751245297134 6.66427385493002 -8.858405327728057 -3.0790707021453994 0.07951553120677524 -3.7314594839037873 7.256521212918429 2.596514103149758 -4.574748797244197 -5.1340978204388215 8.314644432829365 4.854725219197551 
8.628574417151786 7.972511454969162 5.652860172680256 -0.004467190223804707 8.220058782008191 -3.897566291359375 1.2948282593081153 -9.922868983792883 7.166386572334584 -2.3964955881283796 -0.6086066185655774 -7.177747389827067 -9.692978496489504 -6.279859828234427 3.3094125457926253 0.9132820879895576 -2.872062205694183 -3.778704548244571 -8.381562421364507 4.431732581650394 -2.6507352518682463 -6.019600161560474 -5.297270090300927 -1.5592841683896737 0.48413443385211075 -4.039617001506581 1.3095662897854954 -6.59351461586623 -7.46308426569864 -2.4584425579758236 -6.932493541421183 -2.289716787341229 5.853912117954593 5.156397911749078 7.299282422872942 -1.851173729208739 -2.3348760357953813 -7.518919083986271 5.048731823988909 0.9519584074163454 3.9172837717489895 -6.606045386221712 -6.010533942033447 -8.858405327728057 -0.9754138471970712 0.07951553120677524 8.145541011981376 2.68871507360533 -2.988599354959538 -4.574748797244197 -5.1340978204388215 8.314644432829365 4.854725219197551 
